tree
version=v3
num_class=1
num_tree_per_iteration=1
label_index=0
max_feature_idx=151
objective=binary sigmoid:1
feature_names=numero_de_cliente foto_mes active_quarter cliente_vip cliente_edad cliente_antiguedad mrentabilidad mrentabilidad_annual mcomisiones mactivos_margen mpasivos_margen cproductos tpaquete1 tpaquete3 tpaquete4 tcuentas ccuenta_corriente mcuenta_corriente_adicional mcuenta_corriente ccaja_ahorro mcaja_ahorro mcaja_ahorro_adicional mcaja_ahorro_dolares mdescubierto_preacordado mcuentas_saldo ctarjeta_debito ctarjeta_debito_transacciones mautoservicio ctarjeta_visa ctarjeta_visa_transacciones mtarjeta_visa_consumo ctarjeta_master ctarjeta_master_transacciones mtarjeta_master_consumo cprestamos_personales mprestamos_personales cprestamos_prendarios mprestamos_prendarios cprestamos_hipotecarios mprestamos_hipotecarios cplazo_fijo mplazo_fijo_dolares mplazo_fijo_pesos cinversion1 minversion1_pesos minversion1_dolares cinversion2 minversion2 cseguro_vida cseguro_auto cseguro_vivienda cseguro_accidentes_personales ccaja_seguridad cpayroll_trx mpayroll mpayroll2 cpayroll2_trx ccuenta_debitos_automaticos mcuenta_debitos_automaticos ctarjeta_visa_debitos_automaticos mttarjeta_visa_debitos_automaticos ctarjeta_master_debitos_automaticos mttarjeta_master_debitos_automaticos cpagodeservicios mpagodeservicios cpagomiscuentas mpagomiscuentas ccajeros_propios_descuentos mcajeros_propios_descuentos ctarjeta_visa_descuentos mtarjeta_visa_descuentos ctarjeta_master_descuentos mtarjeta_master_descuentos ccomisiones_mantenimiento mcomisiones_mantenimiento ccomisiones_otras mcomisiones_otras cforex cforex_buy mforex_buy cforex_sell mforex_sell ctransferencias_recibidas mtransferencias_recibidas ctransferencias_emitidas mtransferencias_emitidas cextraccion_autoservicio mextraccion_autoservicio ccheques_depositados mcheques_depositados ccheques_emitidos mcheques_emitidos ccheques_depositados_rechazados mcheques_depositados_rechazados ccheques_emitidos_rechazados mcheques_emitidos_rechazados tcallcenter ccallcenter_transacciones thomebanking chomebanking_transacciones ccajas_consultas ccajas_depositos ccajas_extracciones ccajas_otras catm_trx matm catm_trx_other matm_other ctrx_quarter Master_delinquency Master_status Master_mfinanciacion_limite Master_Fvencimiento Master_Finiciomora Master_msaldototal Master_msaldopesos Master_msaldodolares Master_mconsumospesos Master_mconsumosdolares Master_mlimitecompra Master_madelantopesos Master_madelantodolares Master_fultimo_cierre Master_mpagado Master_mpagospesos Master_mpagosdolares Master_fechaalta Master_mconsumototal Master_cconsumos Master_cadelantosefectivo Visa_delinquency Visa_status Visa_mfinanciacion_limite Visa_Fvencimiento Visa_Finiciomora Visa_msaldototal Visa_msaldopesos Visa_msaldodolares Visa_mconsumospesos Visa_mconsumosdolares Visa_mlimitecompra Visa_madelantopesos Visa_madelantodolares Visa_fultimo_cierre Visa_mpagado Visa_mpagospesos Visa_mpagosdolares Visa_fechaalta Visa_mconsumototal Visa_cconsumos Visa_cadelantosefectivo Visa_mpagominimo
feature_infos=[4572294:60887355] [202009:202009] [0:1] [0:1] [18:97] [1:369] [-355437.46999999997:605304.5] [-2079330.98:8742163.9800000004] [-243252.69:264726.31] [-114949.31:190050.48000000001] [-73610.050000000003:304146.84999999998] [3:18] [1:1] [0:1] [0:1] [1:2] [1:5] [-12065.219999999999:18671602.75] [-20807360.609999999:19766511.210000001] [2:12] [-1360.4400000000001:20138914.75] [-13993.16:2426196.3300000001] [-17291.970000000001:486227447.80000001] [0:1.1699999999999999] [-22235111.260000002:408800085.16000003] [0:52] [0:148] [0:980059.27000000002] [0:4] [0:1200] [0:3029631.5499999998] [0:3] [0:347] [0:2685909.7599999998] [0:372] [0:3538621.3399999999] [0:13] [-521157.78000000003:4722857.6600000001] [0:10] [0:27549270.75] [0:88] [0:70422300] [0:26676215.010000002] [0:15] [0:166139999.97999999] [0:43873181.32] [0:51] [0:307548544.05000001] [0:5] [0:7] [0:7] [0:4] [0:6] [0:54] [0:34364677.229999997] [0:360094.40999999997] [0:4] [0:88] [0:20325863.359999999] [0:60] [0:405263.76000000001] [0:54] [0:372698.01000000001] [0:39] [0:5583955.3300000001] [0:290] [0:42229617.149999999] none none none none none none [0:48] [-18336.09:7499.7399999999998] [0:274] [-243252.69:264726.31] [0:19] [0:12] [0:21060] [0:19] [0:6660.8199999999997] [0:9338] [0:665998718.20000005] [0:259] [0:72787705.739999995] [0:215] [0:3159000] [0:158] [0:26588250] [0:125] [0:31210705.559999999] [0:12] [0:2106000] [0:22] [0:3393000] [0:1] [0:88] [0:1] [0:10164] [0:31] [0:27] [0:17] [0:82] [0:215] [0:3159000] [0:46] [0:588223.34999999998] [0:2878] [0:1] [0:9] [0:121903791.84] [-2914360:6303] [0:135] [-872310.62:2632169.6000000001] [-648313.82999999996:2632169.6000000001] [-691794.75:1289406.99] [-34016.870000000003:2200042.5499999998] [0:16809.41] [982.79999999999995:17023219.199999999] [0:18007.540000000001] [0:236.90000000000001] [0:4830] [0:1037085.58] [-2577689.0299999998:301821.92999999999] [0:21684.040000000001] [1:7420] [-34016.870000000003:2200042.5499999998] [0:200] [0:15] [0:1] [0:9] [0:268092483.75] [-2914360:6088] [8:101] [-763419.18999999994:3376320.9500000002] [-994831.32999999996:3950225.04] [-817145.44999999995:1406789.23] [-108545.56:2211162.96] [0:39626.75] [672.75:17128800] [0:180251.06] [0:2378.6100000000001] [0:4774] [0:1380010.22] [-2765150.6299999999:98159.25] [0:18592.389999999999] [1:12426] [-108545.56:2211162.96] [0:1166] [0:16] [0:3191215.9500000002]
tree_sizes=5263 6347 6445 6542 6452 6684 6658 6460 6663 6433 6236 6314 6431 6664 6759 6442 6545 6672 6541 6660 6212 6694 6794 6563 6703 6683 6479 6357 6814 6692 6364 6795 6367 6540 6677 6345 6682 6439 6124 6235 7148 6613 6581 6467 6579 6687 6583 6470 6585 6661 6708 6786 7136 6790 6671 6929 6688 6342 6697 6331 6816 6583 7132 6679 6783 6697 6819 6698 7014 6804 6225 6912 6478 6467 6918 7126 6912 7015 6709 6917 7001 7094 6798 6810 7368 6683 7047 7238 6789 6782 6898 7032 7344 7134 6686 7020 6813 6878 6923 6682 6566 6905 7025 7596 6688 7338 7351 7245 7146 7481 7383 7247 6992 6797 7355 7338 6775 6796 7340 7131 7198 7237 6554 7138 7355 7011 6788 6882 7468 7370 6792 7008 7214 6767 7017 7478 7030 6867 7390 6444 7013 6798 6712 7366 7142 7438 6785 7135 7363 6582 7372 6689 7168 7336 6576 6871 7005 7220 6765 6546 7276 7108 6913 7307 7615 6800 7900 7108 7147 7364 7028 6988 6667 6768 6747 6877 6893 6812 7012 7478 6878 7093 7235 7383 6684 7142 7451 7111 7221 6913 6454 6903 7233 7561 6998 6880 7333 6804 6987 6758 6577 7382 6905 7269 7163 6871 7093 6857 6903 6687 6932 7222 6919 7434 6988 6847 7225 6541 7670 6793 7107 6975 6864 6878 6994 6916 6997 7336 6917 7236 6654 7212 6670 6870 6890 7161 6924 6627 7227 6685 6980 6676 7188 7121 6894 6554 7238 6864 6896 7123 6864 7374 6881 6655 6876 6895 6880 7019 7108 6978 6927 6776 6905 6990 6562 6991 6226 6796 6212 6649 7305 7667 6699 6656 6914 6997 7071 6874 6996 7354 6895 7103 7354 7117 7442 6995 6571 6490 7081 6994 6897 6220 6963 6969 6894 7236 6993 7453 6666 6444 7352 6913 6897 7339 6658 6901 7225 6779 7343 7005 6350 6792 7118 6558 7490 6748 6578 6651 7086 7020 7222 6432

Tree=0
num_leaves=48
num_cat=0
split_feature=108 24 108 24 30 10 147 54 30 24 151 151 30 54 145 35 8 10 24 151 59 115 10 26 54 122 108 58 138 4 18 6 74 57 4 27 112 54 7 126 84 112 33 0 26 65 75
split_gain=3902.12 1526.57 525.576 247.245 233.43 168.697 97.42 72.0853 138.378 36.2804 45.3893 34.6835 12.7091 12.1357 17.0211 11.9455 9.48841 6.5655 4.26786 3.55847 3.32316 2.99066 2.94585 2.73224 2.15453 1.71082 1.21109 1.05173 0.954078 0.486726 0.828035 0.771041 0.445528 0.698923 0.370478 0.638806 0.330027 0.249039 0.148461 0.309305 0.154556 0.24862 0.124157 5.68434e-14 2.84217e-14 2.84217e-14 7.10543e-15
threshold=19.500000000000004 -1.0000000180025095e-35 41.500000000000007 15706.615000000002 930.05500000000018 67.805000000000021 393.50000000000006 1.0000000180025095e-35 1.0000000180025095e-35 7502.0850000000009 508.95000000000005 1480.0500000000004 6894.5300000000016 1.0000000180025095e-35 -4479.7999999999993 16937.880000000005 686.49000000000012 573.83500000000015 47794.580000000009 1.0000000180025095e-35 3.5000000000000004 2622.6950000000002 454.70500000000004 1.5000000000000002 265268.88500000007 1.0000000180025095e-35 84.500000000000014 31.730000000000004 12921.605000000001 34.500000000000007 -3140.6349999999998 2059.0750000000003 1203.3500000000001 1.5000000000000002 59.500000000000007 6488.1050000000005 -500.99999999999994 60641.355000000003 38592.960000000006 3111.5000000000005 6.5000000000000009 -956.49999999999989 3829.5550000000007 42182800.000000007 13.500000000000002 1.0000000180025095e-35 9.5000000000000018
decision_type=2 2 2 2 2 2 10 2 2 2 10 10 2 2 8 2 2 2 2 10 2 8 2 2 2 8 2 2 10 2 2 2 2 2 2 2 8 2 2 8 2 10 2 2 2 2 2
left_child=1 -1 3 4 -2 6 -3 8 -4 10 -10 -6 17 14 -5 16 -12 -11 20 23 21 -14 -18 -9 29 37 28 -22 -20 30 -21 36 33 42 38 -36 45 -25 40 -40 43 -42 -28 44 -31 -32 -46
right_child=2 5 7 13 11 -7 -8 19 9 12 15 -13 18 -15 -16 -17 22 -19 26 24 27 -23 -24 25 -26 -27 32 -29 -30 34 31 -33 -34 -35 35 -37 -38 -39 39 -41 41 -43 -44 -45 46 -47 -48
leaf_value=-4.7696864998780804 -4.9467840662664457 -4.9947496238416083 -5.0327221760361018 -5.0920092696264474 -5.0244186768853805 -5.0306286336139978 -4.9098223427569554 -5.0879701606570231 -5.0437150078201425 -5.0732643120484919 -5.0660211432727289 -5.0672545993516263 -5.0842001616523245 -5.0994458142590444 -5.0559418070585691 -5.1016529434154254 -5.0918757816059141 -5.0942401280110046 -5.1016738102993324 -5.0966904494732406 -5.0957993987460126 -5.0972653570382063 -5.0791018841194893 -5.1003219328535909 -5.0941801469294239 -5.0941895418858882 -5.1043511989465253 -5.1043511989465253 -5.0934595042521851 -5.1043511989465253 -5.1043511989465253 -5.0976933729559866 -5.1043511989465253 -5.0979163883910887 -5.0975566784610304 -5.1043511989465253 -5.1004923617880209 -5.1043511989465253 -5.1004662697701084 -5.1043511989465253 -5.1003529545824255 -5.1043511989465253 -5.1015303338158953 -5.1043511989465253 -5.1043511989465253 -5.1043511989465253 -5.1043511989465253
leaf_weight=35.318936541676521 29.055358249694109 19.746300112456083 32.538548829033971 20.233330269344151 34.018134246580303 38.389076094143093 21.965678252279758 20.32580435834825 22.421883688308299 24.098747125826776 22.440378499217331 25.430373984389007 31.669292389415205 22.625326656736434 20.060711987316608 30.84935547132045 37.809571769088507 21.953348292969167 20.726525398902595 21.731410481035709 22.711635804735124 23.494583078660071 21.978008055128157 20.658711068332195 21.823884571902454 30.035583508200943 30.849355470389128 21.601946756243706 22.927408675663173 183.06786784436554 33.247516796924174 20.837494305334985 64.423614041879773 30.183542046695948 20.418278443627059 22.27392512280494 21.571122062392533 27.569607846438885 28.568327990360558 35.238792140036821 20.818999486975372 28.179936821572483 19.672320805490017 20.751185154542327 22.56367726251483 48.394772270694375 33.672897597774863
leaf_count=5729 4713 3203 5278 3282 5518 6227 3563 3297 3637 3909 3640 4125 5137 3670 3254 5004 6133 3561 3362 3525 3684 3811 3565 3351 3540 4872 5004 3504 3719 29695 5393 3380 10450 4896 3312 3613 3499 4472 4634 5716 3377 4571 3191 3366 3660 7850 5462
internal_value=-5.07643 -4.92165 -5.08981 -5.04113 -5.01124 -4.98866 -4.95003 -5.09603 -5.08806 -5.09189 -5.07978 -5.04274 -5.0968 -5.08318 -5.07405 -5.08693 -5.08141 -5.08326 -5.09896 -5.10191 -5.09431 -5.08976 -5.08718 -5.09703 -5.10273 -5.09939 -5.10141 -5.09997 -5.09736 -5.10307 -5.10169 -5.10256 -5.10263 -5.10126 -5.10355 -5.1011 -5.10354 -5.10263 -5.10383 -5.10261 -5.10408 -5.10265 -5.10325 -5.10435 -5.10435 -5.10435 -5.10435
internal_weight=0 115.42 1335.52 151.423 88.5039 80.1011 41.712 1184.1 502.35 469.812 135.499 59.4485 334.312 62.9194 40.294 113.077 82.228 46.0521 288.26 681.75 99.4775 55.1639 59.7876 98.5897 583.16 78.2639 188.783 44.3136 43.6539 561.336 145.782 124.051 145.129 80.7052 415.554 42.6922 103.213 48.2283 372.862 63.8071 309.055 48.9989 50.5217 260.056 239.304 81.6423 56.2366
internal_count=235354 18722 216632 24562 14356 12993 6766 192070 81485 76207 21979 9643 54228 10206 6536 18342 13338 7470 46758 110585 16136 8948 9698 15992 94593 12695 30622 7188 7081 91053 23647 20122 23541 13091 67406 6925 16742 7823 60481 10350 50131 7948 8195 42183 38817 13243 9122
is_linear=0
shrinkage=1


Tree=1
num_leaves=56
num_cat=0
split_feature=108 24 136 53 108 30 53 30 20 24 151 53 29 24 136 85 10 27 57 114 133 83 151 145 54 151 122 145 27 25 126 82 4 147 27 29 99 65 128 30 4 136 124 24 30 108 74 84 7 112 20 7 54 7 8
split_gain=3180.21 1016.01 428.525 250.394 227.139 207.727 150.554 155.905 134.468 61.0571 69.222 42.4473 91.0296 17.4692 14.0566 10.8503 10.1812 6.17634 6.02297 6.27134 5.24663 3.21957 3.74639 3.18664 2.89598 1.78503 1.40968 1.19911 0.794683 0.730855 0.534583 0.752492 0.339029 0.773791 0.288863 0.206092 0.276138 0.475959 0.14237 0.114569 0.0636641 0.125081 0.0395187 2.21849e-07 2.3679e-08 7.77096e-09 4.49975e-09 2.45086e-09 2.64987e-09 2.50223e-09 1.63635e-09 8.33403e-10 1.22924e-10 1.15264e-10 1.42109e-14
threshold=27.500000000000004 -1.0000000180025095e-35 947.32000000000005 1.0000000180025095e-35 54.500000000000007 3384.3600000000001 1.0000000180025095e-35 930.05500000000018 3637.9650000000006 15706.615000000002 813.15000000000009 1.0000000180025095e-35 1.5000000000000002 47794.580000000009 7695.4550000000008 82320.900000000009 162.77500000000003 1027.3650000000002 1.0000000180025095e-35 771.03500000000008 -1230.9999999999998 28181.055000000004 1866.1500000000003 -46574.859999999993 265268.88500000007 1.0000000180025095e-35 1.0000000180025095e-35 -19990.119999999995 8361.7800000000007 2.5000000000000004 5453.5000000000009 2.5000000000000004 34.500000000000007 2681.5000000000005 23116.245000000003 6.5000000000000009 21.500000000000004 2.5000000000000004 3.5000000000000004 42319.325000000004 53.500000000000007 24924.865000000002 -4305.5149999999994 39469.590000000004 13227.945000000002 101.50000000000001 1203.3500000000001 6.5000000000000009 38592.960000000006 -836.49999999999989 9090.4300000000021 7498.5350000000008 35745.570000000007 13326.980000000001 610.75500000000011
decision_type=2 2 8 2 2 2 2 2 2 2 10 2 2 2 10 2 2 2 2 10 10 2 10 10 2 10 8 10 2 2 8 2 2 10 2 2 2 2 10 2 2 10 10 2 2 2 2 2 2 10 2 2 2 2 2
left_child=1 2 -1 5 6 8 7 -2 -3 10 -9 12 -6 14 -14 17 -12 18 19 -16 -11 22 -15 -8 25 26 28 39 -13 38 32 -32 33 34 42 36 53 -38 44 -19 47 -42 50 -25 -23 -46 -47 48 52 -49 -27 -52 -37 -34 -54
right_child=4 3 -4 -5 11 -7 23 9 -10 20 16 24 13 21 15 -17 -18 27 -20 -21 -22 29 -24 43 -26 30 -28 -29 -30 -31 31 -33 35 -35 -36 40 37 -39 -40 -41 41 -43 -44 -45 45 46 -48 49 -50 -51 51 -53 54 -55 -56
leaf_value=0.27523235520502731 0.085534031211267653 0.13572028282630397 0.12892894767649066 -0.020813985737554032 0.027634143217667304 0.018129101507398299 -0.015277084290271609 0.069966919276555933 0.059919318297319966 -0.0035208332422936289 0.022056442892277331 -0.020701996810777105 0.0055620250719579665 -0.0094310177798060009 0.0044691308812969104 0.0035177940003217954 -0.0054793437407349328 -0.027917410906179361 -0.021802857770934977 -0.016088043418840622 -0.022581835524135192 -0.02791642366267055 -0.025554477709370697 -0.027919492430856979 -0.01601047325282243 -0.02791554756605049 -0.017675672203108599 -0.01967326151837441 -0.027915190850131149 -0.022095727981477149 -0.026843302544845255 -0.019705615435273438 -0.027914979249364372 -0.021904717409808889 -0.023910292288898218 -0.027914982782075902 -0.021846100694111133 -0.027065806242232544 -0.025458501948728507 -0.025055353773091243 -0.025079217301295125 -0.027915222434918157 -0.026478353352162341 -0.027915468621156111 -0.027915821509147058 -0.027915431790414932 -0.027914908792446857 -0.027915420217071291 -0.027915230537668045 -0.0279149850907735 -0.027915125380806653 -0.027915375606778793 -0.027914908792446857 -0.027915072064347641 -0.027914908792446857
leaf_weight=29.283071820624173 28.366025235038251 43.740274155978113 32.53988375607878 23.398390805814415 36.456532119307667 30.121307517401874 24.13592841103673 21.824541158042848 30.636681023053825 23.882975393906236 21.651941970922053 19.230090144556016 28.175116063561291 21.014172515831888 22.274552341550589 20.301171066705137 19.782752147410065 24.215165814384818 31.765283226035535 23.455217191483825 20.799595437012613 21.162533367983997 23.503520319703966 20.852713746484369 23.304398999549448 21.164957093074918 32.511324373073876 33.65396725339815 30.26399326371029 23.838078220374882 25.887136189732701 20.278653584886342 20.728951476514339 32.313425301108509 20.783428146969527 20.219364945311099 22.859293569810688 32.670623422600329 22.586427523288876 19.389943655580282 19.567728457506746 30.846260845195502 19.308451598975807 21.347810321487486 20.58972104312852 26.564749845769256 24.204881627112627 20.764482253231108 24.845313312951475 19.949720688629895 21.052874131128192 19.965134406927973 53.747311482205987 20.476108689326793 65.52590105496347
leaf_count=3613 4301 6339 4230 3616 5743 4658 3866 3409 4703 3913 3484 3180 4545 3478 3649 3339 3199 3980 5226 3851 3411 3498 3905 3392 3848 3516 5357 5516 5038 3961 4311 3376 3455 5373 3456 3370 3808 5442 3755 3189 3258 5134 3211 3548 3415 4416 4036 3452 4135 3325 3506 3320 8962 3411 10926
internal_value=0 0.105873 0.198227 0.0612309 -0.0159542 0.0796017 0.010964 0.027648 0.104497 0.0124362 0.0299745 -0.0210934 -0.0142788 -0.0182302 -0.0126269 -0.0155545 0.00890964 -0.0180564 -0.0125218 -0.00607483 -0.0123937 -0.0244372 -0.0179435 -0.0233184 -0.0256113 -0.0259752 -0.0221642 -0.023608 -0.0251126 -0.0265177 -0.0265615 -0.023708 -0.0268322 -0.0256476 -0.0268302 -0.0272848 -0.0261941 -0.0249171 -0.0274335 -0.0266447 -0.0276978 -0.0268145 -0.0275749 -0.0279175 -0.0279156 -0.0279154 -0.0279152 -0.027915 -0.027915 -0.0279152 -0.0279153 -0.0279152 -0.0279149 -0.027915 -0.0279149
internal_weight=0 189.72 61.823 127.897 1264.06 104.498 202.644 136.308 74.377 107.942 63.2592 1061.42 423.151 386.695 203.23 175.055 41.4347 154.754 77.4951 45.7298 44.6826 183.464 44.5177 66.3365 638.265 614.961 82.0054 77.2591 49.4941 138.946 532.955 46.1658 486.789 134.588 102.275 352.201 96.735 55.5299 115.108 43.6051 255.466 50.414 81.4914 42.2005 92.5219 71.3594 50.7696 205.052 164.338 40.7142 62.183 41.018 139.493 41.2051 119.273
internal_count=235354 27159 7843 19316 208195 15700 32523 21717 11042 17416 10092 175672 69502 63759 33295 28750 6683 25411 12726 7500 7324 30464 7383 10806 106170 102322 13575 12685 8218 23081 88747 7687 81060 22382 17009 58678 16116 9250 19120 7169 42562 8392 13553 6940 15365 11867 8452 34170 27393 6777 10342 6826 23258 6866 19888
is_linear=0
shrinkage=0.0277465


Tree=2
num_leaves=57
num_cat=0
split_feature=108 18 30 11 108 53 30 10 133 53 29 10 29 10 136 10 133 75 10 145 54 83 0 85 6 146 54 6 126 132 10 149 29 27 66 147 85 107 81 99 54 99 10 10 22 4 4 18 4 4 99 135 115 82 136 85
split_gain=2732.29 635.924 522.497 344.471 220.119 140.002 129.732 119.969 65.3942 42.6366 86.4809 42.388 25.2336 20.6169 14.6902 11.6672 8.7052 7.02146 6.84721 3.21937 2.92884 1.81786 2.72317 1.86732 2.38561 1.23736 1.47487 0.728961 0.638507 0.41157 0.482709 1.75455 0.639777 1.07277 0.988285 0.321617 0.281546 0.185234 0.529921 0.0469287 0.0456829 0.0408844 1.21359e-07 4.29656e-08 1.79654e-08 1.46472e-08 4.55029e-09 3.76701e-09 3.62152e-09 2.21526e-09 1.2917e-09 8.12264e-10 5.89807e-10 4.37602e-10 3.28754e-10 2.18343e-10
threshold=27.500000000000004 -1.0000000180025095e-35 930.05500000000018 6.5000000000000009 54.500000000000007 1.0000000180025095e-35 930.05500000000018 97.475000000000009 -1901.4999999999998 1.0000000180025095e-35 1.5000000000000002 233.45500000000001 6.5000000000000009 454.70500000000004 7695.4550000000008 573.83500000000015 -1291.9999999999998 7.5000000000000009 510.8300000000001 -46574.859999999993 265268.88500000007 19957.620000000006 20916026.000000004 70614.765000000014 4050.4750000000004 79.605000000000004 84581.610000000015 301.79500000000002 4752.5000000000009 377215.31000000006 1239.4700000000003 10.500000000000002 7.5000000000000009 6488.1050000000005 468.00500000000005 1982.5000000000002 15059.220000000003 3533.4000000000005 233.99000000000004 149.50000000000003 41067.585000000006 108.50000000000001 402.89500000000004 933.1400000000001 2620.7100000000005 34.500000000000007 36.500000000000007 -413.30499999999995 55.500000000000007 51.500000000000007 21.500000000000004 17822.690000000002 8067.5500000000002 2.5000000000000004 13397.170000000002 19582.040000000005
decision_type=2 2 2 2 2 2 2 2 10 2 2 2 2 2 10 2 10 2 2 10 2 2 2 2 2 8 2 2 10 10 2 10 2 2 2 10 2 2 2 2 2 2 2 2 2 2 2 2 2 2 2 10 8 2 10 2
left_child=1 2 3 -1 5 6 -2 8 -3 10 -6 12 -8 -9 15 -12 -13 18 -16 -7 25 22 -19 27 -25 29 -27 -23 41 30 32 35 33 34 -11 -32 50 39 -39 45 -31 43 -21 44 -29 47 -42 -34 51 52 -35 -48 55 -53 -37 -47
right_child=4 7 -4 -5 9 19 11 13 -10 20 14 16 -14 -15 17 -17 -18 21 -20 42 -22 23 -24 24 -26 26 -28 28 -30 40 31 -33 37 36 -36 54 -38 38 -40 -41 46 -43 -44 -45 -46 49 48 -49 -50 -51 -52 53 -54 -55 -56 -57
leaf_value=0.24755883442156301 0.076339528805000514 0.045220689042895224 0.048683402127943906 0.12087940642578035 0.026134193753728604 -0.015082200562019865 0.044918768523953503 0.033966635726573685 0.10357346705071063 -0.016576740300735408 0.0078112328679488712 0.0047941122672307485 0.0080923364670342605 1.6233076340756381e-05 -0.0030251635065270395 -0.018133653372044482 -0.018020558019472249 -0.012517276663981385 -0.021434586274746842 -0.027914300634652684 -0.015817957186614055 -0.021520484729954558 -0.023786610147961806 -0.014494701829696401 -0.025756953705229298 -0.025528447718519979 -0.016288701096650583 -0.027913679183099283 -0.022599681157129636 -0.026427820279830629 -0.023452111049037695 -0.016874878821599264 -0.027911427986154123 -0.027910590397490602 -0.025253485390250921 -0.027910883479516393 -0.024614938569209717 -0.027910726272989555 -0.022185537278053433 -0.026435761356661727 -0.027911144834493161 -0.026442491956945886 -0.027911282271395634 -0.027911607224492416 -0.027912500109243447 -0.027910376332311918 -0.027910739106063447 -0.027910920284478113 -0.027911009225391963 -0.027910786257291893 -0.027910876305436951 -0.02791044838006819 -0.02791059718547878 -0.027910615394837926 -0.027910719000166402 -0.027910490337947621
leaf_weight=35.239546559751034 30.862372309435159 28.437906809151173 30.041680793743581 31.118542553856969 37.464605405926704 23.774550172500312 31.613039656542242 30.928615542594343 30.797558377031237 19.584126146044582 27.954829873982817 26.292381385341287 26.192676084116101 24.822094958275557 32.327761826571077 25.530099307186902 25.23170246463269 32.438879688736051 29.97789013478905 19.955865023192018 22.938695998396724 30.383087832480669 33.613967433106154 33.084011949133128 25.749682924244553 34.913872512523085 21.483962816651911 20.053910641930997 26.114903450477868 18.706428808160126 18.668215809389949 20.113513060379773 19.456807081121951 26.467118447646499 20.881979626603425 18.743332574144006 33.673544232733548 34.772128534503281 19.385416599921882 18.810613341163844 20.772548644337803 18.876842724625021 21.096663541626185 23.968260432127863 19.743766007013619 36.018443741835654 20.265713503118604 26.677755858749151 20.849486663471907 20.733908067923039 22.51351849688217 24.762531969230622 18.693684094585478 23.577230334281921 18.678112272173166 20.177162966225296
leaf_count=3717 4301 3849 3803 3249 5743 3866 4869 4649 4059 3342 4517 4256 4141 3833 5375 4258 4150 5455 5041 3345 3848 5124 5642 5569 4368 5903 3641 3369 4429 3191 3186 3436 3312 4528 3565 3201 5751 5944 3313 3214 3542 3196 3595 4076 3340 6170 3464 4555 3558 3543 3845 4240 3198 4033 3193 3454
internal_value=0 0.0921287 0.144689 0.188153 -0.015765 0.0105107 0.0261024 0.0480643 0.0755593 -0.0209468 -0.0140847 0.0119212 0.0282321 0.0188508 -0.0180518 -0.00457311 -0.00637839 -0.0202609 -0.0118827 -0.0232073 -0.025548 -0.022238 -0.0182522 -0.0235679 -0.0194238 -0.0259204 -0.0220087 -0.0253202 -0.0263817 -0.0263267 -0.0259004 -0.0239056 -0.0263504 -0.0247558 -0.0210543 -0.0264268 -0.026568 -0.0272646 -0.0258614 -0.0277379 -0.0276956 -0.0275768 -0.0279127 -0.0279125 -0.0279131 -0.0279107 -0.0279108 -0.0279111 -0.0279107 -0.0279105 -0.0279107 -0.0279106 -0.0279105 -0.0279105 -0.0279108 -0.0279104
internal_weight=0 211.386 96.3998 66.3581 1244.62 205.019 140.192 114.986 59.2355 1039.6 417.282 109.33 57.8057 55.7507 379.818 53.4849 51.5241 326.333 62.3057 64.8271 622.32 264.027 66.0528 197.974 58.8337 599.381 56.3978 139.141 108.758 542.983 414.049 76.2032 337.846 123.12 40.4661 56.0897 82.6542 214.726 54.1575 160.568 128.934 82.6428 41.0525 63.7659 39.7977 141.758 110.228 46.1346 89.455 95.6232 48.9806 68.6055 74.8893 48.3398 37.4214 56.1956
internal_count=235354 27159 10769 6966 208195 32523 21717 16390 7908 175672 69502 17416 9010 8482 63759 8775 8406 54984 10416 10806 106170 44568 11097 33471 9937 102322 9544 23534 18410 92778 70750 13016 57734 21031 6907 9580 14124 36703 9257 27446 22028 13981 6940 10785 6709 24232 18837 7867 15295 16365 8373 11737 12822 8273 6394 9624
is_linear=0
shrinkage=0.0277465


Tree=3
num_leaves=58
num_cat=0
split_feature=20 29 34 73 29 53 147 136 24 53 24 29 83 75 151 24 9 8 83 20 26 83 147 30 138 18 54 29 58 151 86 105 54 54 20 4 107 99 99 97 119 27 7 6 75 75 6 4 27 29 4 20 29 132 119 107 82
split_gain=1714.43 1166.02 436.877 485.262 213.788 316.498 165.787 107.013 98.7189 51.3923 55.5413 69.7504 26.2762 24.485 11.9472 8.65896 9.11288 7.65732 7.26259 5.88889 3.4775 2.86107 2.47822 2.13196 2.11249 2.00992 1.52181 1.24862 1.12558 0.831659 0.810425 0.497768 0.429222 0.419577 0.83553 0.417461 0.701202 0.1899 0.453789 0.188933 0.161516 0.139546 0.0373596 0.0277232 4.60346e-08 3.98213e-08 1.48047e-08 1.26181e-08 1.09123e-08 1.89121e-08 2.54597e-09 1.991e-09 1.83896e-09 1.7063e-09 1.09048e-09 5.24011e-10 2.77382e-10
threshold=1599.8350000000003 1.5000000000000002 1.0000000180025095e-35 1.0000000180025095e-35 1.5000000000000002 1.0000000180025095e-35 1103.5000000000002 7695.4550000000008 7502.0850000000009 1.0000000180025095e-35 15706.615000000002 6.5000000000000009 19957.620000000006 7.5000000000000009 661.05000000000007 47794.580000000009 -393.47499999999997 610.75500000000011 5850.005000000001 19548.695000000003 1.0000000180025095e-35 19957.620000000006 3180.5000000000005 53841.520000000011 11412.075000000003 -78.854999999999976 265268.88500000007 5.5000000000000009 193.52500000000001 1.0000000180025095e-35 1.0000000180025095e-35 35120.475000000006 84581.610000000015 30433.185000000001 16966.130000000001 32.500000000000007 3451.5000000000005 98.500000000000014 119.50000000000001 1.5000000000000002 234223.03000000003 15634.85 7498.5350000000008 539.28000000000009 4.5000000000000009 8.5000000000000018 4050.4750000000004 34.500000000000007 6488.1050000000005 7.5000000000000009 47.500000000000007 63065.205000000009 6.5000000000000009 377215.31000000006 294840.00000000006 3533.4000000000005 2.5000000000000004
decision_type=2 2 2 2 2 2 8 10 2 2 2 2 2 2 10 2 2 2 2 2 2 2 10 2 10 2 2 2 2 10 2 2 2 2 2 2 2 2 2 2 8 2 2 2 2 2 2 2 2 2 2 2 2 10 10 2 2
left_child=1 2 3 6 5 8 -1 -3 -2 10 11 14 -10 18 -6 16 28 -13 -9 -18 -15 22 -17 24 -19 -7 29 -23 -12 -11 -27 40 43 34 -31 36 41 39 -39 44 -29 -35 -40 -32 -37 -42 -47 -46 49 -49 -51 52 -50 -53 -44 56 -54
right_child=4 7 -4 -5 9 25 -8 13 12 26 15 17 -14 20 -16 21 19 23 -20 -21 -22 27 -24 -25 -26 30 -28 31 -30 33 32 -33 -34 35 -36 37 -38 38 42 -41 45 -43 54 -45 47 46 -48 48 51 50 -52 53 55 -55 -56 -57 -58
leaf_value=0.055626740007056877 0.082785274558442187 0.046810355462743279 0.033666001509131412 0.22678648342263497 0.045500020260981801 -0.014309284909871352 0.14569717513463187 0.015788906743491021 0.042773088353445454 -0.021551766826191983 -0.017471963949329008 0.0025681302401932438 0.0073245353139828762 -0.012339619187613157 0.016285324503732594 -0.0099353921247992017 -0.013357795331390653 -0.013425278875374614 -0.0054299091764014049 0.0078570725662097472 -0.025993023497016637 -0.019785399425682304 -0.022798154871141944 -0.0090088341739246527 -0.024852710767132694 -0.020015766787052625 -0.018813726116972206 -0.025613690780793438 -0.026475632789345768 -0.02790815942853371 -0.027916503454745251 -0.022311094975856267 -0.022139993037091431 -0.027906834447699095 -0.021677769324792085 -0.027907756751332186 -0.021302540860598053 -0.022695022385579154 -0.026392689201662479 -0.025081167188018966 -0.027908879234959424 -0.024958196973084306 -0.027906576471333273 -0.026437438366997485 -0.027907036068286224 -0.027907871249266594 -0.027906868547124774 -0.027907287322229902 -0.027906293323405489 -0.027906106680927571 -0.027906519485540158 -0.027906427600058258 -0.027905911717793077 -0.027906103225808155 -0.027906285410571021 -0.027906138528563475 -0.027906045852269291
leaf_weight=30.851890800520778 36.072845647111535 38.965413508471102 33.741474824026227 38.323766445275396 21.156723304186016 22.428945948369801 32.103453477844596 30.453603061381727 32.956378507893533 26.189284558407962 23.915272514335811 20.932050137314945 31.471186386886984 28.49624820612371 21.964467167854309 20.062309870962054 20.963082543574274 22.975445930380374 20.969213562086225 19.391035715583712 28.953600847162306 27.31192770274356 27.119363379664719 20.548532635439187 27.196169469505548 31.606636703480035 21.34925488429144 36.277525696437806 19.328708661720157 30.975682130549103 20.231960923410952 19.831727223936468 19.234272441826761 35.980390128679574 35.633829336147755 19.785999126266688 25.207195463590324 21.297045385930687 18.331106225028634 19.641694564837962 21.596687266603112 18.819177087862045 21.223845013882965 18.842555734794587 19.607630823273212 26.093970418442041 20.044548348523676 20.810009910259396 24.443275334779173 26.974585791118443 20.052965262904763 31.980425341054797 29.601056418847293 20.479715492576361 18.589591564144939 18.527336121536791 19.812939148396254
leaf_count=3512 4554 5384 3900 3644 3070 3765 3450 4467 4641 4540 4020 3408 4567 4690 3430 3362 3460 3796 3355 3235 4988 4624 4563 3470 4581 5254 3638 6299 3298 5386 3369 3458 3302 6299 6232 3447 4409 3739 3219 3447 3735 3292 3721 3241 3428 4539 3508 3634 4293 4743 3517 5612 5211 3601 3265 3257 3485
internal_value=0 0.061188 0.120136 0.148944 -0.0149019 0.0102614 0.101557 0.0073508 0.0460342 -0.0204691 -0.0131329 0.00151823 0.0254574 -0.00677173 0.030619 -0.0201366 -0.0126468 -0.0121733 0.00713629 -0.00316359 -0.0192207 -0.0232935 -0.0173287 -0.0165366 -0.0196197 -0.0217401 -0.0260752 -0.0251554 -0.0214963 -0.0263711 -0.0235936 -0.0263396 -0.025533 -0.0266246 -0.0245751 -0.0269413 -0.0251325 -0.0273534 -0.02616 -0.0277022 -0.0271077 -0.0268942 -0.0274292 -0.0272033 -0.0279065 -0.0279079 -0.0279074 -0.0279064 -0.0279063 -0.0279066 -0.0279063 -0.0279062 -0.0279061 -0.0279063 -0.0279064 -0.027906 -0.027906
internal_weight=0 282.859 135.021 101.279 1174.87 212.845 62.9553 147.838 100.5 962.024 416.71 134.773 64.4276 108.873 43.1212 281.936 83.5981 91.6522 51.4228 40.3541 57.4498 198.338 47.1817 70.7201 50.1716 112.344 545.314 151.156 43.244 523.965 89.9154 123.844 58.3088 497.775 66.6095 431.166 80.0068 351.159 79.4416 271.718 104.013 54.7996 58.1445 39.0745 252.076 67.7352 46.1385 232.29 212.682 67.8376 47.0276 144.845 92.3846 52.4601 39.8134 67.9413 49.414
internal_count=235354 37390 14506 10606 197964 32693 6962 22884 13762 165271 69856 21755 9208 17500 6500 48101 14013 15255 7822 6695 9678 34088 7925 11847 8377 18931 95415 26163 7318 91777 15166 21539 9912 87237 11618 75619 14000 61619 13944 47675 18081 9591 10205 6610 44228 11782 8047 40781 37353 11894 8260 25459 16246 9213 6986 11953 8696
is_linear=0
shrinkage=0.0277465


Tree=4
num_leaves=57
num_cat=0
split_feature=108 20 30 73 53 30 53 147 30 24 151 9 24 8 30 20 35 60 147 24 9 151 27 54 122 83 20 151 126 149 20 4 147 26 108 7 83 85 4 84 58 145 20 108 20 29 74 54 126 29 29 27 20 107 27 4
split_gain=2185.25 472.331 297.163 234.069 109.344 155.585 98.8194 56.4913 56.3919 54.4633 50.7969 36.9576 19.9582 18.5242 11.1004 8.51086 7.02978 5.97098 5.89557 4.5012 4.02297 3.97223 2.84614 2.26102 2.05711 1.77894 1.48196 1.44869 0.520198 0.842362 0.492692 0.318438 0.828834 0.32338 0.290799 0.233415 0.971138 0.130613 0.128646 0.0797667 0.129975 0.0437545 1.39754e-07 1.17502e-07 2.90903e-08 2.06329e-08 1.25877e-08 1.01604e-08 6.98886e-09 4.78818e-09 2.48302e-09 2.18403e-09 1.52419e-09 6.8664e-10 2.38757e-10 6.90648e-11
threshold=34.500000000000007 2565.0150000000008 930.05500000000018 1.0000000180025095e-35 1.0000000180025095e-35 1.0000000180025095e-35 1.0000000180025095e-35 393.50000000000006 4568.9450000000006 11264.095000000001 508.95000000000005 -65.049999999999997 15706.615000000002 420.26000000000005 6894.5300000000016 39082.485000000008 7174.3750000000009 10857.605000000001 2681.5000000000005 47794.580000000009 -393.47499999999997 1.0000000180025095e-35 2757.8050000000007 265268.88500000007 1.0000000180025095e-35 23868.095000000005 14692.545000000002 2322.4500000000003 5453.5000000000009 8.5000000000000018 16966.130000000001 34.500000000000007 2681.5000000000005 15.500000000000002 210.50000000000003 38592.960000000006 11700.005000000003 4680.3300000000008 59.500000000000007 6.5000000000000009 1209.7200000000003 -29485.654999999995 3637.9650000000006 84.500000000000014 7543.2050000000008 2.5000000000000004 1209.9100000000001 30433.185000000001 3111.5000000000005 6.5000000000000009 7.5000000000000009 14178.815000000001 63065.205000000009 3533.4000000000005 6488.1050000000005 44.500000000000007
decision_type=2 2 2 2 2 2 2 10 2 2 10 2 2 2 2 2 2 2 10 2 2 10 2 2 8 2 2 10 8 10 2 2 10 2 2 2 2 2 2 2 2 10 2 2 2 2 2 2 10 2 2 2 2 2 2 2
left_child=1 2 3 7 5 -2 8 -1 12 10 -7 -4 -3 -12 15 -11 17 18 -15 20 26 22 -6 28 37 27 -16 -21 31 -30 -27 32 33 41 43 38 -37 -24 39 42 -41 -23 -33 -32 -43 -44 -45 -47 -38 51 -46 -49 53 54 -51 -56
right_child=4 6 11 -5 21 9 -8 -9 -10 14 13 -13 -14 16 19 -17 -18 -19 -20 25 -22 23 24 -25 -26 30 -28 -29 29 -31 34 35 -34 -35 -36 36 48 -39 -40 40 -42 44 45 46 50 47 -48 49 -50 52 -52 -53 -54 -55 55 -57
leaf_value=0.062991767416950895 0.040984777345297353 0.068465791272362561 0.018372708491095353 0.16031602409859524 -0.012342047270954441 0.030255928334500512 -0.023108487435960515 0.11048605600186105 0.0044445638887517644 0.0025362429663109282 0.014027832044570412 0.062493196541556009 0.035382111328673638 -0.0030594502049416362 -0.027909631300683233 -0.021131768080253053 -0.023590460343784325 0.0037966162663864975 -0.021411811746163072 -0.014635450855232195 -0.0097694056432299295 -0.02634775099223997 -0.024841771562707816 -0.01707538901161313 -0.017066271634310175 -0.022411842729917923 -0.018012290918089296 -0.025106026023264186 -0.026851600297669694 -0.019206018894961353 -0.027905511615754924 -0.027904332233089593 -0.021593448670059558 -0.023552101674894292 -0.024443433504334974 -0.020231533518775942 -0.027902656140610316 -0.027904292597604935 -0.025551908057494285 -0.027902337103430135 -0.024780690138494366 -0.027903918072226593 -0.027902824725006801 -0.02790349341644156 -0.027902817688144933 -0.027902426335588617 -0.02790270420157915 -0.027902262633000198 -0.027901945741873858 -0.027901663686146803 -0.027902404885324951 -0.027901838479189988 -0.027901880329198978 -0.027901773275720704 -0.027901530848948024 -0.027901601386056473
leaf_weight=41.454304540995508 45.476405648514628 29.053457544185221 28.737254522740841 54.032931477297097 26.732036772184074 33.850495269987732 28.80343579640612 36.044676028657705 28.279975660145283 27.326347617432475 24.472163008525968 29.745546858292073 27.162574772723019 24.557482690550387 19.92268539685756 20.45031120814383 32.102562397252768 22.750915517564863 29.863437787164003 20.903269556351006 35.175393862184137 17.843293955549598 18.112337486818433 20.490717714652419 28.152340121567249 20.205790616106242 28.038981188554317 19.817683627828956 26.386536401696503 19.142551939934492 21.340428675990552 20.857053189072758 30.780827566515654 19.13111876975745 24.058977326378226 18.085835843812674 22.233883258886635 26.272953913081437 23.604338614270091 24.310727796517313 17.777486159466207 18.570608895272017 18.61001490149647 33.54005239950493 22.545567648019642 21.117994091007859 29.020844040438533 18.94725758722052 20.483783323317766 28.035415436141193 22.327192134223878 18.443635991774499 26.595305906143039 23.439291055779904 25.773995824158192 18.255557375028729
leaf_count=4265 6062 3450 3707 4063 4569 4946 4621 3248 4307 4329 3919 3607 3774 4076 3432 3412 5463 3857 4979 3609 5979 3204 3199 3557 4906 3588 4877 3484 4728 3436 3768 3712 5505 3428 4307 3257 3995 4674 4236 4377 3203 3312 3341 5995 4047 3800 5213 3413 3697 5069 4018 3331 4802 4235 4664 3302
internal_value=0 0.0661138 0.0928504 0.115988 -0.0175641 -0.00800844 0.0212739 0.0850813 0.0364033 -0.0127753 -0.000107585 0.0408133 0.0524804 -0.00779242 -0.019857 -0.00759461 -0.0126791 -0.0081401 -0.0131303 -0.0221816 -0.0168965 -0.0251852 -0.0200812 -0.0261169 -0.0229333 -0.0247832 -0.0221235 -0.0197312 -0.0264709 -0.023637 -0.0263884 -0.026741 -0.0255767 -0.0267977 -0.0271326 -0.0271817 -0.0256207 -0.0266546 -0.0275139 -0.0276905 -0.0265838 -0.0275616 -0.0279022 -0.0279037 -0.027903 -0.0279019 -0.0279031 -0.0279019 -0.0279023 -0.0279018 -0.0279026 -0.0279021 -0.0279017 -0.0279016 -0.0279016 -0.0279016
internal_weight=0 303.314 190.015 131.532 1155.93 512.874 113.299 77.499 84.496 467.398 167.597 58.4828 56.216 133.747 299.801 47.7767 109.274 77.1718 54.4209 252.024 83.1371 643.06 99.2697 543.79 72.5376 168.887 47.9617 40.721 523.299 45.5291 128.166 477.77 131.199 100.418 107.96 346.572 60.8035 44.3853 285.768 262.164 42.0882 81.2867 220.076 83.9013 63.4434 199.218 62.5609 180.608 42.7177 159.49 44.8728 37.3909 122.1 95.5043 72.065 44.0296
internal_count=235354 35042 18890 11576 200312 85295 16152 7513 11531 79233 27240 7314 7224 22294 51993 7741 18375 12912 9055 44252 14288 115017 17348 97669 12779 29964 8309 7093 94112 8164 22871 85948 23514 18009 19283 62434 10949 7873 51485 47249 7580 14581 39669 14976 11377 35957 11208 32616 7692 28816 8065 6744 22072 17270 13035 7966
is_linear=0
shrinkage=0.0277465


Tree=5
num_leaves=59
num_cat=0
split_feature=108 20 135 73 53 29 53 9 108 5 108 29 20 136 151 20 58 22 75 10 151 27 54 147 5 122 22 4 6 146 138 126 149 4 147 26 149 54 108 133 147 85 96 0 100 83 20 18 4 29 10 149 65 29 99 84 9 126
split_gain=1964.67 371.553 211.794 183.17 108.706 143.638 90.2444 47.6985 45.6506 41.9793 37.4833 35.1689 25.1653 21.2196 17.7875 14.8935 13.3256 7.01457 6.76249 6.54425 4.03266 2.84381 2.29156 2.13377 3.76069 2.07863 1.47632 2.14777 2.20607 0.838698 0.666612 0.530979 0.853737 0.325904 0.8436 0.330429 0.264227 0.217172 0.448904 0.170613 0.142506 0.133661 0.0960127 0.0449395 0.0429977 1.28816e-07 5.86842e-08 1.2569e-08 1.25249e-08 1.10962e-08 7.34781e-09 5.05732e-09 3.39734e-09 3.2067e-09 3.00108e-09 6.90392e-10 1.7809e-10 2.32063e-11
threshold=34.500000000000007 2565.0150000000008 839.59000000000003 1.0000000180025095e-35 1.0000000180025095e-35 1.0000000180025095e-35 1.0000000180025095e-35 -65.049999999999997 54.500000000000007 43.500000000000007 19.500000000000004 3.5000000000000004 6113.0100000000011 7695.4550000000008 1304.5500000000004 39082.485000000008 31.730000000000004 1266.0100000000002 7.5000000000000009 510.8300000000001 1.0000000180025095e-35 2757.8050000000007 265268.88500000007 1603.5000000000002 50.500000000000007 1.0000000180025095e-35 12477.905000000001 63.500000000000007 301.79500000000002 1.1600000000000001 37319.510000000002 5453.5000000000009 8.5000000000000018 34.500000000000007 2681.5000000000005 15.500000000000002 14.500000000000002 30433.185000000001 96.500000000000014 -2052.4999999999995 4713.0000000000009 4680.3300000000008 1.0000000180025095e-35 47376689.500000007 1.0000000180025095e-35 46449.540000000008 4818.130000000001 -683.61999999999989 59.500000000000007 6.5000000000000009 1239.4700000000003 10.500000000000002 2.5000000000000004 7.5000000000000009 98.500000000000014 4.5000000000000009 -239.86499999999998 2681.5000000000005
decision_type=2 2 10 2 2 2 2 2 2 2 2 2 2 10 10 2 2 2 2 2 10 2 2 10 2 8 2 2 2 10 10 8 10 2 10 2 10 2 2 10 10 2 2 2 2 2 2 2 2 2 2 10 2 2 2 2 2 10
left_child=1 2 3 9 5 -2 7 -3 12 -1 -9 -4 14 15 -7 16 -10 -14 19 -15 21 -6 31 24 -20 41 27 28 -25 36 40 33 -33 34 35 43 45 38 -35 -39 -30 -23 44 47 46 -28 -41 -22 49 52 54 -52 -48 -49 55 56 57 -51
right_child=4 6 11 -5 20 8 -8 10 13 -11 -12 -13 17 18 -16 -17 -18 -19 23 -21 22 25 -24 26 -26 -27 29 -29 30 -31 -32 32 -34 37 -36 -37 -38 39 -40 42 -42 -43 -44 -45 -46 -47 48 53 -50 50 51 -53 -54 -55 -56 -57 -58 -59
leaf_value=0.052345567849984009 0.038120288287822393 0.0055870086051316332 0.060788893820189052 0.13764184648172936 -0.012148962161691156 0.03776552112104594 -0.022993251460212069 0.069588407522866824 0.02213597648585678 0.091920905815146767 0.024789487706215949 0.019710017360295869 0.00057558392501359118 -0.0028879492912631155 0.0029769005947399146 -0.021307214461513155 -0.0089226957472320068 -0.022205989734930397 -0.023309609074919344 -0.021124602972654366 -0.027899264648928553 -0.024761682661268675 -0.016888250919161317 -0.014935598028179538 -0.0066207649742022765 -0.016879089151824379 -0.027903630207652918 -0.013177058948663554 -0.027904923675466927 -0.020118061847106711 -0.020748895823883579 -0.02681915286821698 -0.019036289343786001 -0.022200352188466735 -0.021453910195776662 -0.023445928614292681 -0.024362214099806163 -0.024804392898236983 -0.027898496692632804 -0.027899389877967071 -0.024826553043705117 -0.027899950090166454 -0.026170977709395086 -0.026300823253674253 -0.026591412146807686 -0.027900761694155136 -0.027898248814051077 -0.02789867904789126 -0.027898472050314947 -0.027897293799879801 -0.027897603932418472 -0.027898248188012568 -0.02789780923019786 -0.027898195754938508 -0.027897729670412718 -0.027897505350701769 -0.027897379833184296 -0.027897248358005895
leaf_weight=37.264235564507544 47.44139244267717 29.788163493387401 32.175336367450655 60.561037835665047 26.407961359247565 21.955468172673136 28.153684692457318 30.995191945694387 22.168504770845175 46.240074798930436 26.820825791917741 32.004696197342128 22.393884202931076 32.153436905238777 23.347399306483567 21.01451370306313 20.441521677188575 19.435992054641247 24.150602531153709 28.645170185249299 17.640596178825945 17.67288193013519 20.147753855213523 21.39138952922076 18.250908843707293 27.681371975690126 18.777420807164162 22.608697481453419 32.351519976276904 17.825690155848861 19.388583819847554 25.695087359286845 18.78241132479161 19.474483735393733 30.130527046043426 18.690689012873918 23.520243363454938 17.93652021791786 23.473693260923028 19.296638605184853 18.029240443371236 25.557914453558624 32.129948677029461 17.362744252197444 21.238302201032639 33.651725242380053 30.133104437030852 17.56975953746587 18.762683447450399 17.474325348157436 19.912719967309386 17.734821317251772 24.573579342570156 26.52789514278993 22.134555701166391 18.43015918508172 17.532658166717738 17.141419951803982
leaf_count=3480 6076 4304 3364 3915 4569 3078 4621 3752 3442 4022 3475 4109 3627 5427 3753 3644 3228 3240 4278 5081 3240 3199 3557 3759 3244 4906 3356 4032 5738 3243 3453 4728 3436 3575 5505 3428 4266 3316 4332 3543 3206 4674 5944 3197 3936 6124 5570 3239 3463 3250 3696 3278 4555 4905 4105 3423 3259 3189
internal_value=0 0.0600746 0.0822275 0.100904 -0.017382 -0.00785414 0.0202221 0.0341103 -0.0125802 0.0742602 0.0488062 0.0403041 0.00550834 -0.0167902 0.0198368 -0.00219149 0.00723604 -0.0100097 -0.0197793 -0.0114801 -0.0251127 -0.0199213 -0.0260662 -0.0217981 -0.0161262 -0.0228157 -0.0229568 -0.0208322 -0.0227308 -0.0255344 -0.0251208 -0.0264289 -0.0235325 -0.0267057 -0.0255132 -0.0267639 -0.0268056 -0.0271579 -0.0253147 -0.0274268 -0.0268033 -0.026617 -0.0275969 -0.0275479 -0.0277844 -0.0279018 -0.0278979 -0.0278986 -0.0278978 -0.0278977 -0.0278976 -0.0278979 -0.0278981 -0.0278984 -0.0278974 -0.0278974 -0.0278973 -0.0278973
internal_weight=0 324.003 208.245 144.065 1136.19 508.943 115.758 87.6042 461.502 83.5043 57.816 64.18 87.1327 374.369 45.3029 63.6245 42.61 41.8299 310.745 60.7986 627.247 97.3201 529.927 249.946 42.4015 70.9122 207.545 113.769 91.1607 93.7751 69.7693 509.779 44.4775 465.302 127.922 97.7917 75.9494 337.38 42.9482 294.431 50.3808 43.2308 276.495 79.101 244.365 52.4291 223.127 61.7383 203.83 185.067 130.361 37.6475 54.7067 44.0977 92.7131 70.5786 52.1484 34.6157
internal_count=235354 35042 18890 11417 200312 85295 16152 11531 79219 7502 7227 7473 13698 65521 6831 10314 6670 6867 55207 10508 115017 17348 97669 44699 7522 12779 37177 20188 16156 16989 12397 94112 8164 85948 23514 18009 13746 62434 7907 54527 8944 7873 51211 14581 45267 9480 41331 11384 37788 34325 24200 6974 10125 8144 17226 13121 9698 6439
is_linear=0
shrinkage=0.0277465


Tree=6
num_leaves=59
num_cat=0
split_feature=108 53 35 131 135 24 53 30 9 24 24 98 151 7 35 76 24 9 29 60 151 27 128 54 122 83 4 22 139 29 4 18 85 27 4 133 108 7 83 84 112 85 108 29 147 54 6 122 27 76 29 24 99 54 29 149 107 66
split_gain=1777.93 314.079 278.719 392.968 216.16 153.186 108.031 138.88 68.9254 52.9699 45.1888 40.8521 38.7465 24.1958 15.1097 12.9687 7.20589 6.85131 5.42301 4.6713 4.09296 2.84021 2.50914 2.32194 2.09972 1.86377 1.73349 1.61351 1.3663 0.777138 0.494702 0.9012 0.869598 1.33883 0.637108 0.814352 0.407169 0.167571 0.652502 0.174963 0.313989 0.136768 0.0459395 7.75776e-08 4.14215e-08 3.49181e-08 3.27772e-08 1.53928e-08 7.92218e-09 7.06017e-09 6.26151e-09 6.17059e-09 2.28079e-09 2.08678e-09 1.89357e-09 1.85445e-09 1.8418e-10 6.753e-11
threshold=34.500000000000007 1.0000000180025095e-35 20716.435000000005 1.0000000180025095e-35 839.59000000000003 -1.0000000180025095e-35 1.0000000180025095e-35 3384.3600000000001 -173.80499999999998 20302.065000000002 7502.0850000000009 1.0000000180025095e-35 508.95000000000005 13326.980000000001 16937.880000000005 687.58000000000004 47794.580000000009 -393.47499999999997 11.500000000000002 9667.1750000000011 1.0000000180025095e-35 2757.8050000000007 10.500000000000002 265268.88500000007 1.0000000180025095e-35 23868.095000000005 43.500000000000007 32085.350000000002 2.8200000000000007 5.5000000000000009 34.500000000000007 -3140.6349999999998 24570.230000000003 14178.815000000001 59.500000000000007 -1291.9999999999998 210.50000000000003 38592.960000000006 11700.005000000003 6.5000000000000009 -956.49999999999989 4680.3300000000008 78.500000000000014 2.5000000000000004 2450.5000000000005 30433.185000000001 667.6350000000001 10.500000000000002 2757.8050000000007 1726.115 6.5000000000000009 32656.330000000005 98.500000000000014 93464.380000000019 6.5000000000000009 10.500000000000002 994.50000000000011 2930.2050000000004
decision_type=2 2 2 8 10 2 2 2 2 2 2 2 10 2 2 2 2 2 2 2 10 2 8 2 8 2 2 2 10 2 2 2 2 2 2 10 2 2 2 2 8 2 2 2 10 2 2 8 2 2 2 2 2 2 2 10 2 2
left_child=1 2 3 4 5 -1 7 9 -6 -2 12 -7 -9 -10 15 -14 17 26 -19 22 21 -8 -17 30 41 27 -12 -18 -28 -27 31 -22 44 -34 37 -36 42 39 -39 43 -41 -23 -31 -32 50 -45 -44 48 51 -48 -33 -47 54 -40 -50 56 57 -56
right_child=6 -3 -4 -5 8 11 20 10 13 -11 16 -13 14 -15 -16 19 25 18 -20 -21 23 24 -24 -25 -26 29 28 -29 -30 36 34 32 33 -35 35 -37 -38 38 53 40 -42 -43 46 45 -46 47 49 -49 52 -51 -52 -53 -54 -55 55 -57 -58 -59
leaf_value=0.12072948055408798 0.045081820946179789 -0.019973242288679364 5.154889532176411e-05 0.16224051779822418 0.0011453001252130822 0.038456088862627656 -0.011956604484262291 0.033745424374431857 0.067652850894511632 0.0020823795627121023 -0.027904976031197098 0.078806730412251169 0.015035352583632885 0.031382362245120955 -0.024993515032487909 -0.021035520997833051 -0.013797527446684148 5.3835715405487558e-05 -0.019009074868457588 0.0022066891066331693 -0.019454245705316581 -0.024680039783078499 -0.0071812109018457165 -0.016700085152144935 -0.016690881841418582 -0.020605160454306753 -0.012403666742310413 -0.024324602370457384 -0.023247728954503506 -0.026300497327152096 -0.027895564329738425 -0.027895049759556118 -0.026843619523578319 -0.017001794217033 -0.027895077955735856 -0.01973706809001732 -0.023617044641286587 -0.021398688441523778 -0.027894354868341874 -0.023065061964143763 -0.027894098842699031 -0.027895727645861991 -0.027896846295048044 -0.027894757659046029 -0.027896212955064986 -0.027894324190194109 -0.027895862650915922 -0.027894455075655303 -0.027893636266645285 -0.027895201119251468 -0.027894404492580516 -0.027893609382096098 -0.027893736343834356 -0.027893947349687719 -0.027893268766777338 -0.027893557122244481 -0.027893341570489921 -0.027893191090220783
leaf_weight=54.182140680961311 44.816461759619415 38.277086806017905 44.381395718548447 34.67900756560266 38.129365932196379 36.297110826242715 26.092748223338276 20.690197617281228 28.13651853101328 43.427805028855801 20.739717382006347 41.290495939087123 25.189792646560818 28.50395532278344 28.570533383637667 20.180386558640748 21.637830387335271 29.761423506774008 18.712514611892402 20.268331848084927 19.719602927099913 17.245337464381009 20.075897770468146 19.814131186809391 27.223232368938625 19.011074671987444 17.898948304355145 23.257025809492916 17.880948079284281 17.35737781971693 21.559660657308996 19.186207315884531 26.395299456547946 17.828867897856981 17.49727074149996 20.406791592482477 25.935427549295127 17.084274228196591 17.236166595946997 17.235746477264911 26.007356582675129 24.862230294384062 17.540071344468743 26.41543881688267 18.208392025437206 17.682497801724821 20.394292282871902 17.685045366641134 25.969391774386168 31.765683236997575 29.194122834596783 19.606590997893363 23.178438687231392 22.048722305800766 17.096475353464484 25.16965443501249 16.837829274591058 17.375544183887541
leaf_count=2994 5666 5817 4096 2490 5154 3557 4569 2997 3247 6239 3682 4233 4029 3454 5019 3478 3887 4987 3302 3481 3687 3199 3414 3557 4906 3427 3170 4162 3212 3195 4060 3623 4991 3352 3303 3852 4854 3225 3269 3265 4941 4674 3273 4997 3411 3355 3830 3352 4949 5991 5535 3737 4414 4193 3266 4799 3215 3321
internal_value=0 0.0549528 0.0643375 0.0752597 0.0619446 0.0849299 -0.0171987 -0.00770158 0.0299853 0.0239204 -0.0143955 0.0599299 -0.00119347 0.0494 -0.00751883 -0.00169412 -0.0207168 -0.0149585 -0.00730507 -0.00865678 -0.0250389 -0.0197595 -0.0141263 -0.0260144 -0.0226962 -0.0241345 -0.0215225 -0.0192509 -0.017823 -0.0257954 -0.026386 -0.0249194 -0.025892 -0.0228759 -0.0269089 -0.023503 -0.0266686 -0.0273023 -0.0259255 -0.0275878 -0.0259694 -0.0265787 -0.0275777 -0.027894 -0.0278951 -0.0278938 -0.0278958 -0.0278937 -0.0278936 -0.0278955 -0.0278947 -0.0278939 -0.0278935 -0.0278941 -0.0278934 -0.0278934 -0.0278933 -0.0278932
internal_weight=0 343.877 305.6 261.219 226.54 131.77 1116.97 505.112 94.7698 88.2443 416.867 77.5876 134.975 56.6405 114.285 85.7144 281.892 104.994 48.4739 60.5246 611.863 95.4235 40.2563 516.44 69.3308 176.899 56.5196 44.8949 35.7799 132.004 496.625 130.532 110.813 44.2242 366.093 37.9041 112.993 328.189 56.3692 271.82 43.2431 42.1076 87.0574 228.577 66.5887 207.017 69.7 180.601 162.916 52.16 48.3803 37.2891 125.627 39.2849 102.449 76.4795 51.3098 34.472
internal_count=235354 35042 29225 25129 22639 10784 200312 85295 11855 11905 73390 7790 22418 6701 19421 14402 50972 18353 8289 10373 115017 17348 6892 97669 12779 32619 10064 8049 6382 24570 94112 24599 20912 8343 69513 7155 21143 62358 10687 51671 8206 7873 16289 43465 12569 39405 13094 34408 31056 9821 9158 7092 23964 7462 19550 14601 9802 6587
is_linear=0
shrinkage=0.0277465


Tree=7
num_leaves=57
num_cat=0
split_feature=108 53 35 30 110 53 30 147 9 11 108 10 20 9 76 58 151 20 151 26 54 83 147 151 119 82 145 108 4 18 20 4 6 112 30 128 7 83 84 112 112 20 20 147 54 26 122 29 29 147 29 10 54 99 107 65
split_gain=1615.96 268.738 228.792 297.871 182.23 107.313 131.007 69.6673 64.3437 37.0717 32.9649 24.0726 20.2917 19.4068 10.4437 5.47846 7.43001 4.8529 4.15307 2.84387 2.35211 2.26563 1.98748 1.5085 1.49977 1.13266 0.651151 0.805263 0.505673 0.913941 0.963221 0.650903 0.53277 0.372831 0.319596 0.174449 0.171727 0.664984 0.179414 0.320538 0.123365 8.69815e-07 1.34087e-07 6.72333e-08 2.69608e-08 1.90036e-08 1.22464e-08 9.03697e-09 6.73699e-09 3.77938e-09 2.53841e-09 2.38158e-09 1.91873e-09 1.28171e-09 3.47853e-10 8.03979e-11
threshold=34.500000000000007 1.0000000180025095e-35 20716.435000000005 930.05500000000018 1.0000000180025095e-35 1.0000000180025095e-35 3384.3600000000001 620.50000000000011 -173.80499999999998 6.5000000000000009 54.500000000000007 67.805000000000021 6113.0100000000011 -312.81499999999994 184.63500000000002 31.730000000000004 368.55000000000001 2565.0150000000008 1.0000000180025095e-35 3.5000000000000004 265268.88500000007 28181.055000000004 1260.5000000000002 5013.4500000000016 77220.000000000015 2.5000000000000004 -79139.984999999986 84.500000000000014 34.500000000000007 -3140.6349999999998 75814.710000000006 59.500000000000007 1291.0300000000002 -500.99999999999994 31253.515000000003 3.5000000000000004 38592.960000000006 11700.005000000003 6.5000000000000009 -956.49999999999989 -1048.4999999999998 29434.935000000001 3637.9650000000006 2681.5000000000005 30433.185000000001 11.500000000000002 10.500000000000002 3.5000000000000004 8.5000000000000018 5476.5000000000009 6.5000000000000009 1239.4700000000003 93464.380000000019 90.500000000000014 1813.5000000000002 1.0000000180025095e-35
decision_type=2 2 2 2 8 2 2 10 2 2 2 2 2 2 2 2 10 2 10 2 2 2 10 10 10 2 8 2 2 2 2 2 2 8 2 10 2 2 2 8 8 2 2 10 2 2 8 2 2 10 2 2 2 2 2 2
left_child=1 2 3 4 7 6 9 -1 -5 -2 13 -10 -11 -8 -12 16 -16 -18 19 -7 28 -19 -17 34 -24 40 -26 -28 29 -20 33 36 -33 43 -23 41 38 -38 42 -40 -21 -29 -30 45 -44 48 47 -46 -31 50 -49 53 -39 54 55 -52
right_child=5 -3 -4 8 -6 18 10 -9 11 12 14 -13 -14 -15 15 22 17 21 20 25 -22 23 24 -25 26 -27 27 35 31 30 -32 32 -34 -35 -36 -37 37 52 39 -41 -42 -43 44 -45 46 -47 -48 49 -50 -51 51 -53 -54 -55 -56 -57
leaf_value=0.044953635289289112 0.047615583903353499 -0.019810728433447094 5.0115644308477214e-05 0.0021683942603527941 0.1342839794122207 -0.013182291669310134 -0.012821626863293488 0.086873853482860044 0.065812604462372012 0.029753092256447532 0.001837659210945037 0.030142437430267142 -0.0031959596146546657 0.016049838994676272 0.0014683300394271494 -0.013847242016885097 -0.0080573622944171523 -0.014248204637520991 -0.019287292070511677 -0.024640882695922239 -0.016510952748218642 -0.027899821518131716 -0.017869969022249015 -0.017927566096959002 -0.020204959297306205 -0.018539067648975359 -0.020961612775771049 -0.027901055933656629 -0.027892019690007715 -0.027890654914010778 -0.01980715755725955 -0.019820245261165829 -0.026493434156126667 -0.023526234682137211 -0.023147298330987522 -0.024775687238638728 -0.021256527370764118 -0.027890286943451009 -0.022950195825491179 -0.02789003806490687 -0.027896859780182203 -0.027894415549337085 -0.027890572305904273 -0.027892611185921616 -0.027890027376685275 -0.027891374426903707 -0.027890285902526551 -0.027889627656127052 -0.027889918737060725 -0.027889795193228512 -0.027889174869191208 -0.027889580428822669 -0.027889890747680866 -0.027889439849851181 -0.027889276798755355 -0.02788909662114809
leaf_weight=47.435138456523418 30.466598827857524 37.530791629105806 44.383629147894681 40.51357696717605 49.505025258287787 33.926911937072873 33.082457370124757 85.594375632237643 28.677699606865644 24.029726111330092 19.586523764301091 29.59923053253442 35.86873400490731 39.117562443483621 17.940897558815777 17.766843454912305 32.152086167130619 32.513428960461169 19.343689994420856 17.05726410029456 19.489597990643233 28.783080481924117 27.66207136772573 27.830164045095444 18.038232226390392 23.725514129735529 19.990303536411375 27.837890374008566 21.236399726942182 17.58142336923629 17.159506409894675 17.188087976537645 19.844964905176312 19.067861983086914 17.526950104162097 17.781906716991216 16.726349253207445 16.766908571589738 16.846829764544964 25.29929485404864 18.868808158207685 33.415832237806171 24.090664912480861 16.493635727558285 22.14705976517871 16.705973150208592 17.223121031187475 23.125498972833157 21.002364165149629 18.264753332361579 17.255908761173487 19.197994251269847 21.448433011770248 18.021950625348836 17.380166131071746 24.409926487598568
leaf_count=3747 3865 5817 4096 5418 3131 6094 5471 6178 2902 2961 3370 3753 5079 6176 3012 3213 5688 5870 3687 3242 3557 5290 5063 5180 3390 4488 3633 5075 4096 3420 3306 3320 3835 3683 3283 3333 3225 3269 3265 4941 3524 6343 4688 3165 4326 3233 3358 4529 4105 3573 3390 3761 4193 3534 3412 4798
internal_value=0 0.050496 0.0585973 0.0678341 0.0888381 -0.0170146 -0.00755139 0.0719261 0.029025 0.0226969 -0.0142015 0.0476955 0.0100224 0.00282077 -0.0178288 -0.0190354 -0.0153346 -0.0175064 -0.0249636 -0.0195961 -0.0259616 -0.020355 -0.0226054 -0.023033 -0.0236805 -0.0232439 -0.0250535 -0.0259367 -0.0263423 -0.0248415 -0.0258362 -0.0268784 -0.0233962 -0.026975 -0.0261011 -0.0271951 -0.0272821 -0.0258706 -0.0275753 -0.0259155 -0.026351 -0.0278974 -0.0278899 -0.0278911 -0.0278897 -0.0278906 -0.0278896 -0.0278895 -0.0278903 -0.0278894 -0.0278894 -0.0278893 -0.0278901 -0.0278892 -0.0278892 -0.0278891
internal_weight=0 363.239 325.709 281.325 182.535 1098.29 501.391 133.03 98.7905 90.3651 411.026 58.2769 59.8985 72.2 338.826 319.24 156.747 138.806 596.897 93.5785 503.318 106.654 162.493 74.1402 144.726 59.6516 117.064 99.0259 483.829 127.354 108.011 356.474 37.0331 90.8513 46.31 79.0356 319.441 54.9417 264.5 42.1461 35.9261 61.2537 222.353 71.7834 201.117 55.2898 177.026 159.803 38.5838 137.656 119.391 96.2659 38.2153 77.068 59.046 41.6658
internal_count=235354 35042 29225 25129 13056 200312 85295 9925 12073 11905 73390 6655 8040 11647 61743 58373 28323 25311 115017 17348 97669 19623 30050 13753 26837 11254 21774 18384 94112 24599 20912 69513 7155 17606 8573 14751 62358 10687 51671 8206 6766 11418 43465 13923 39369 10758 34681 31323 7525 26997 23424 18895 7462 15134 11600 8188
is_linear=0
shrinkage=0.0277465


Tree=8
num_leaves=59
num_cat=0
split_feature=108 53 35 30 31 53 30 9 7 20 151 133 136 20 108 83 20 75 151 75 105 27 151 108 54 26 122 139 85 20 27 84 126 149 4 18 20 83 7 83 112 97 85 107 26 20 4 20 5 84 54 27 29 126 27 10 99 29
split_gain=1476.05 232.456 190.524 233.868 129.054 106.567 124.003 56.1726 45.5605 45.2244 52.9392 37.6351 20.9589 20.5637 16.3449 12.3568 8.19949 5.36406 4.21301 4.07107 3.01552 2.84476 2.79441 4.79302 2.38206 2.37789 2.16896 2.08513 2.31829 1.85725 1.69457 0.673283 0.570595 0.91068 0.348559 0.713492 0.669075 0.344237 0.257937 1.05619 0.199489 0.197352 0.143091 0.0838315 0.151228 5.40998e-07 9.70556e-08 6.51689e-08 3.32714e-08 2.83367e-08 2.14718e-08 1.89687e-08 8.28088e-09 4.46147e-09 3.25687e-09 2.2514e-09 9.89886e-10 1.56831e-10
threshold=34.500000000000007 1.0000000180025095e-35 20716.435000000005 930.05500000000018 1.0000000180025095e-35 1.0000000180025095e-35 6894.5300000000016 -173.80499999999998 14936.285000000002 9090.4300000000021 239.85000000000002 -1779.4999999999998 5044.6050000000005 6113.0100000000011 54.500000000000007 19957.620000000006 39082.485000000008 6.5000000000000009 1.0000000180025095e-35 4.5000000000000009 33365.475000000006 2757.8050000000007 6698.2500000000009 96.500000000000014 265268.88500000007 5.5000000000000009 1.0000000180025095e-35 5.8400000000000007 82320.900000000009 29434.935000000001 4087.0950000000007 1.0000000180025095e-35 5453.5000000000009 8.5000000000000018 34.500000000000007 -3140.6349999999998 75814.710000000006 36157.645000000004 38592.960000000006 11700.005000000003 -560.99999999999989 2.5000000000000004 4680.3300000000008 8248.5000000000018 5.5000000000000009 39082.485000000008 59.500000000000007 4818.130000000001 91.500000000000014 6.5000000000000009 30433.185000000001 14178.815000000001 6.5000000000000009 3111.5000000000005 11593.100000000002 1239.4700000000003 82.500000000000014 11.500000000000002
decision_type=2 2 2 2 2 2 2 2 2 2 8 10 10 2 2 2 2 2 10 2 2 2 10 2 2 2 8 8 2 2 2 2 8 10 2 2 2 2 2 2 10 2 2 2 2 2 2 2 2 2 2 2 2 10 2 2 2 2
left_child=1 2 3 4 -1 6 9 -5 11 10 -2 -6 -9 14 -8 -11 -17 -16 21 -15 27 -7 23 -19 32 -22 42 28 29 30 -21 -29 34 -34 35 -20 40 -31 41 -40 48 43 -23 46 -45 -33 47 -36 51 50 -49 -37 54 -41 -52 56 57 -54
right_child=5 -3 -4 7 8 18 13 12 -10 15 -12 -13 -14 19 17 16 -18 22 24 20 25 26 -24 -25 -26 -27 -28 31 -30 37 -32 45 33 -35 38 36 -38 -39 39 53 -42 -43 -44 44 -46 -47 -48 49 -50 -51 52 -53 55 -55 -56 -57 -58 -59
leaf_value=0.11471971930105501 0.060502182374558115 -0.019646453923444183 4.872278238109635e-05 0.0021036699866927317 0.058380293763222318 -0.011541928530505311 0.01104131099417453 0.060966753808287713 0.042363092621226062 0.016473213728603525 0.0096991534132250482 0.092998775439133527 0.028443845122165468 -0.0073352847863596519 -0.0013443615484189245 0.0030935412782385945 -0.020460416671767203 -0.02324230308169848 -0.020258558929919353 -0.022725202233424276 -0.0068544597218860009 -0.024520953641257996 -0.025185024064573125 -0.0038835269751500557 -0.016320916577177508 -0.021283348942799461 -0.016244143345168695 -0.021661604948397282 -0.0125259097793631 -0.022974797955218094 -0.012723946422022667 -0.027896473863369107 -0.026719316410280945 -0.018378617433960867 -0.027887419729545473 -0.027886241377276858 -0.021091165116321527 -0.027891041838838618 -0.019494169112762055 -0.027886375746905594 -0.024460034344635045 -0.02451383004185442 -0.027888596775654632 -0.024393691509914772 -0.027885861530784404 -0.027890885168087673 -0.027888142707920546 -0.027886529530271247 -0.02788797781372266 -0.027886578254442736 -0.027886120261492762 -0.027887410232657596 -0.027885243394555524 -0.02788577641915024 -0.027885588470561062 -0.027885601486372941 -0.027885423000539339 -0.027885138542021709
leaf_weight=56.250510890036821 28.533078197855502 36.804741366766393 44.385800590272993 40.600139632821083 47.751299634575844 25.437929638195783 31.32726545445621 29.613671518862247 45.995377557352185 23.111913281027228 35.361303228884935 48.969838491640985 31.461322159506381 17.536034420598298 24.020368414465338 23.242154484149069 22.290679859928787 17.85594653012231 18.177205885760486 32.158883941825479 18.461991015356034 16.466540494933724 20.457811908330768 21.949945341795683 19.173907588236034 16.789695538580418 26.19341749092564 17.799171517603099 23.470176896546036 16.90953661268577 21.941369365900755 26.44356026314199 23.754637430887669 17.504400136414915 20.893936447333544 30.487703147344291 16.326266795396805 31.190077325329185 16.526448426302522 19.939082182943821 16.187922989018261 16.453515349887311 23.685453800950199 15.888151692692189 23.919265579432249 26.900060686748475 17.17367777787149 16.94665872072801 21.092917637433857 27.885203538928181 15.90565375657752 16.459565218072385 17.418978742323816 18.374211375135928 20.032894497737288 17.07114874990657 17.238041842356324 29.721069453284144
leaf_count=3126 3394 5817 4096 5418 3493 4569 4869 2982 3326 3352 4741 3111 3673 3134 4093 3369 3536 3201 3533 5841 3497 3199 3805 4009 3557 3206 4906 3328 4461 3149 4061 4961 4728 3436 4159 6115 3208 6059 3257 3995 3205 3293 4674 3183 4810 5229 3399 3392 4179 5579 3193 3274 3518 3697 4036 3439 3477 6007
internal_value=0 0.0466389 0.0537096 0.0616319 0.0791258 -0.0168292 -0.00740224 0.0273984 0.0650967 0.0155866 0.0323861 0.0759076 0.0442134 -0.0157451 -0.00607107 -5.02376e-05 -0.00843734 -0.0124315 -0.0248868 -0.020226 -0.0212001 -0.0194308 -0.0168507 -0.0125674 -0.0259077 -0.0137267 -0.0224555 -0.0225387 -0.0203899 -0.0221959 -0.018669 -0.0263345 -0.0262976 -0.0231807 -0.0265966 -0.0253175 -0.026232 -0.0261627 -0.0270843 -0.0253571 -0.0272284 -0.0274536 -0.0265075 -0.027655 -0.026492 -0.0278937 -0.0278861 -0.027886 -0.0278871 -0.0278858 -0.0278856 -0.0278867 -0.0278855 -0.0278861 -0.0278858 -0.0278853 -0.0278852 -0.0278852
internal_weight=0 381.833 345.028 300.642 198.967 1080.09 497.751 101.675 142.717 132.539 63.8944 96.7211 61.075 365.212 115.611 68.6447 45.5328 84.2841 582.336 249.601 232.065 91.7833 60.2637 39.8059 490.552 35.2517 66.3454 196.813 125.67 102.2 54.1003 71.1428 471.379 41.259 430.12 118.732 100.554 48.0996 311.388 54.8397 84.2281 256.548 40.152 240.095 39.8074 53.3436 200.287 183.114 68.0402 162.22 134.334 46.9473 117.388 38.3133 35.9385 81.4492 64.3781 47.14
internal_count=235354 35042 29225 25129 13056 200312 85295 12073 9930 18392 8135 6604 6655 66903 19977 10257 6905 15108 115017 46926 43792 17348 11015 7210 97669 6703 12779 37089 23571 19110 9902 13518 94112 8164 85948 23514 19981 9208 62434 10949 16773 51485 7873 48192 7993 10190 40199 36800 13568 32641 27062 9389 23670 7692 7229 16441 13002 9525
is_linear=0
shrinkage=0.0277465


Tree=9
num_leaves=57
num_cat=0
split_feature=29 53 35 20 20 98 136 73 53 147 75 30 20 111 25 73 0 83 22 75 53 145 18 7 5 139 59 7 99 115 54 111 111 20 54 4 105 27 5 4 76 128 22 20 4 136 7 18 126 27 4 4 66 115 84 85
split_gain=1017.9 568.214 207.678 200.835 129.271 116.081 72.612 36.3895 30.3573 26.2366 24.6633 24.231 19.0649 17.0859 13.5564 11.2359 8.14772 7.78167 7.74172 6.39641 3.82842 3.42386 4.25729 3.0306 2.42976 2.46178 2.31563 2.53214 2.5826 2.64796 1.64609 1.48944 0.760519 0.515874 0.804529 0.707471 0.844621 0.542611 0.366752 0.255084 0.243999 0.15764 0.0572871 5.87472e-07 1.01303e-07 5.59728e-08 4.20135e-08 2.86508e-08 1.65958e-08 1.37612e-08 1.12562e-08 5.71237e-09 5.0108e-09 4.22463e-09 2.73036e-09 7.70125e-10
threshold=1.5000000000000002 1.0000000180025095e-35 20716.435000000005 7543.2050000000008 3637.9650000000006 1.0000000180025095e-35 7695.4550000000008 1.0000000180025095e-35 1.0000000180025095e-35 2193.5000000000005 7.5000000000000009 6894.5300000000016 39082.485000000008 69498.000000000015 1.5000000000000002 1.0000000180025095e-35 27510827.000000004 41167.620000000003 57.475000000000009 8.5000000000000018 1.0000000180025095e-35 -5657.3949999999995 -78.854999999999976 22404.575000000001 192.50000000000003 4.2350000000000012 3.5000000000000004 6169.130000000001 52.500000000000007 3840.4750000000004 265268.88500000007 82134.000000000015 752768.64000000013 22476.200000000001 30433.185000000001 32.500000000000007 4387.5000000000009 1027.3650000000002 57.500000000000007 51.500000000000007 2349.5150000000003 2.5000000000000004 86108.320000000022 25705.095000000005 34.500000000000007 9024.0700000000015 38592.960000000006 -859.67499999999984 4752.5000000000009 2757.8050000000007 38.500000000000007 51.500000000000007 877.93000000000018 4516.8100000000004 3.5000000000000004 9360.0050000000028
decision_type=2 2 2 2 2 2 10 2 2 10 2 2 2 10 2 2 2 2 2 2 2 10 2 2 2 10 2 2 2 8 2 10 10 2 2 2 2 2 2 2 2 10 2 2 2 10 2 2 8 2 2 2 2 8 2 2
left_child=1 2 3 5 6 13 9 -7 11 -2 15 14 -5 -1 -6 16 -8 18 19 -13 23 22 -3 -12 25 -20 27 -19 -29 -30 33 -24 40 39 -35 36 -36 -37 -39 42 43 46 44 -28 47 -46 48 -10 50 -47 -40 54 -49 55 -52 -51
right_child=4 21 -4 12 8 7 10 -9 30 -11 20 17 -14 -15 -16 -17 -18 26 24 -21 -22 -23 31 -25 -26 -27 32 28 29 -31 -32 -33 -34 34 35 37 -38 38 41 -41 -42 -43 -44 -45 45 49 -48 52 -50 53 51 -53 -54 -55 -56 -57
leaf_value=0.068177523494749759 0.0090850901105167282 -0.0058714739853384301 0.0011641552833464484 0.033799910549862054 -0.0091771753769430229 0.081360478968538999 0.009684324648965641 0.1163550881707166 -0.027885365183898846 0.044720789646208695 -0.0075721843504430557 0.0026105414824937382 0.0046310100190618568 0.047518558876319755 0.018226935317576874 0.019641643451749617 -0.013770656865235757 -0.0094575840609908562 -0.0097766634635343113 -0.017586908919387412 -0.025819930207353622 -0.027894138928888704 -0.024419825856234784 -0.020316610049320713 -0.026605856082615339 -0.023191917991957883 -0.027895200848754981 -0.027011569778191441 -0.0098395813473809591 -0.024566227737156363 -0.01774454988045247 -0.01598525780382434 -0.020133652478486551 -0.020769928006887199 -0.026299490416010263 -0.022845047031529064 -0.017479409681805589 -0.023352289076969096 -0.027882954609117459 -0.024726407635734526 -0.024344498352938795 -0.025321225800374405 -0.026103348828520431 -0.027888447981412316 -0.02788431967338419 -0.027883147797444271 -0.027883763520205291 -0.027884296046532746 -0.02788335539356869 -0.027881911491984573 -0.02788182493788071 -0.027882610729338578 -0.027883603181833468 -0.027882601577212621 -0.027882294345619577 -0.027882185761552145
leaf_weight=60.052432224620134 29.925293812993914 21.390170354861766 51.250465624500066 39.501139528583735 35.49738314980641 45.856620803009719 20.648451630491763 45.649840698111802 16.860309947747737 33.951119536999613 32.739790911320597 33.628655688837171 30.625540815293789 63.314961756113917 22.838641894515604 25.65063348878175 25.462119562551379 18.054890555795282 26.021477242000401 18.831081626471132 26.880054651293904 27.200602089520544 31.886720776092261 25.595054283272475 21.459963358938694 17.69016562635079 16.803220870438963 31.415768973995 21.518211447168142 16.690970711410046 19.134467153344303 32.59325342066586 17.888163380790502 27.298274072818458 17.502506500575691 27.530763356015086 15.999254805035887 18.372417065314949 21.176789797376841 26.360256218817085 23.485317748971283 21.660851484164596 15.587998604401944 24.204944261349738 15.838075924199073 17.422061113175005 30.253328158520162 16.227807404473424 17.340325267519802 15.644398231059315 23.160146005451679 18.37640983518213 15.918160103261469 16.145416033919901 16.221317037940025 15.884397180750964
leaf_count=3085 3716 3717 4842 4373 5438 3509 3154 2881 3404 3986 5692 5628 3770 3825 3476 3702 3997 3353 4708 3451 5467 5282 5919 4620 3990 3314 3184 5986 4172 3251 3611 5996 3522 5532 3548 5606 3242 3773 4349 5371 4635 4443 3193 4789 3225 3575 6177 3304 3551 3237 4795 3783 3254 3324 3347 3280
internal_value=0 0.034492 0.0525857 0.0618326 -0.0156859 0.0751388 0.00308529 0.0988182 -0.0209208 0.0280259 -0.0070635 -0.0147539 0.0210613 0.0575749 0.00155158 0.00492128 -0.00326745 -0.0180602 -0.0125734 -0.00463959 -0.0171561 -0.0193154 -0.016598 -0.0131639 -0.0189597 -0.0152058 -0.0218554 -0.0187171 -0.0211182 -0.0162726 -0.0257062 -0.0201563 -0.0251957 -0.0260631 -0.025271 -0.0258108 -0.0220873 -0.0264535 -0.02705 -0.0272379 -0.0265997 -0.0275084 -0.0276928 -0.0278912 -0.0278834 -0.0278828 -0.0278829 -0.0278844 -0.0278826 -0.0278825 -0.0278824 -0.0278822 -0.027884 -0.0278822 -0.027882 -0.027882
internal_weight=0 449.322 336.251 285.001 1012.8 214.874 220.853 91.5065 791.945 63.8764 156.976 346.029 70.1267 123.367 58.336 71.7612 46.1106 287.693 117.631 52.4597 85.2149 113.071 85.8701 58.3348 65.1716 43.7116 170.061 87.6798 69.625 38.2092 445.916 64.48 82.3816 426.781 254.892 227.594 33.5018 194.092 166.562 171.889 64.4935 148.189 145.529 41.0082 129.941 80.9343 126.528 49.0063 96.275 65.0963 78.9347 57.7579 32.146 47.6742 39.3815 31.5288
internal_count=235354 47199 26285 21443 188155 13300 34334 6390 153821 7702 26632 62897 8143 6910 8914 10853 7151 53983 21091 9079 15779 20914 15632 10312 12012 8022 32892 16762 13409 7423 90924 11915 16130 87313 52146 46614 6790 39824 34218 35167 12608 30445 29796 7973 26603 16641 26002 9962 19825 13416 16274 11925 6558 9841 8142 6517
is_linear=0
shrinkage=0.0277465


Tree=10
num_leaves=55
num_cat=0
split_feature=108 20 108 7 7 73 24 9 126 29 74 24 76 29 24 26 34 57 99 7 99 151 136 27 85 85 24 6 29 86 139 20 146 102 117 83 29 6 108 4 82 66 87 73 4 119 83 27 26 85 82 7 82 27
split_gain=1259.25 177.229 90.0703 89.0292 102.045 70.7824 48.2151 37.9982 32.4598 26.2742 18.5263 17.4525 11.6201 10.9135 9.75638 10.8972 10.1934 7.68224 6.44327 4.40672 3.69395 3.09808 2.56492 3.14684 2.38948 2.03771 1.69633 2.82336 4.10788 1.16547 1.82338 1.13642 0.862342 0.882993 1.27845 1.22934 0.710549 0.680882 0.525207 0.411929 0.163329 0.114767 5.10916e-07 2.79704e-07 1.76229e-07 1.5063e-07 1.35585e-07 1.15855e-07 5.68725e-08 3.60775e-08 3.16682e-08 1.98393e-08 8.39285e-09 2.26232e-09
threshold=34.500000000000007 3637.9650000000006 60.500000000000007 1135.1350000000002 16605.585000000003 1.0000000180025095e-35 15706.615000000002 -312.81499999999994 827.50000000000011 1.5000000000000002 679.09000000000015 15706.615000000002 874.20000000000016 1.0000000180025095e-35 7502.0850000000009 1.5000000000000002 1.0000000180025095e-35 1.0000000180025095e-35 47.500000000000007 30500.740000000002 11.500000000000002 508.95000000000005 6348.3700000000008 3410.7600000000007 19582.040000000005 47970.055000000008 47794.580000000009 1449.3150000000003 9.5000000000000018 1.0000000180025095e-35 1.1600000000000001 22476.200000000001 36.225000000000001 1.0000000180025095e-35 18826.530000000002 82017.190000000017 5.5000000000000009 -196.40999999999997 78.500000000000014 32.500000000000007 3.5000000000000004 42459.250000000007 4738.5000000000009 1.0000000180025095e-35 59.500000000000007 836409.60000000009 74881.170000000013 4830.7850000000008 1.5000000000000002 61511.725000000006 2.5000000000000004 30500.740000000002 3.5000000000000004 17251.560000000001
decision_type=2 2 2 2 2 2 2 2 10 2 2 2 2 2 2 2 2 2 2 2 2 10 10 2 2 2 2 2 2 2 10 2 10 2 8 2 2 2 2 2 2 2 2 2 2 8 2 2 2 2 2 2 2 2
left_child=1 3 6 -1 5 -5 7 -2 -9 10 19 -3 -13 -8 15 16 17 -11 36 20 -4 -17 23 -16 -25 37 27 29 -29 30 -24 -30 33 38 -35 -36 -15 -23 -28 -40 42 43 -39 44 45 48 -45 -31 -41 51 -49 52 53 -50
right_child=2 11 9 4 -6 -7 13 8 -10 14 -12 12 -14 18 22 21 -18 -19 -20 -21 -22 25 26 24 -26 -27 32 28 31 47 -32 -33 -34 34 35 -37 -38 40 39 41 -42 -43 -44 46 -46 -47 -48 50 49 -51 -52 -53 -54 -55
leaf_value=0.02551630149870153 -0.011981820583902264 0.02365751361332839 -0.024761259988260519 0.056618908426948014 0.036641451984441263 0.096159226924228472 0.0037608035126393798 0.0029566057112068956 0.040707774423640465 0.0092569958305908397 0.015738885703731276 -0.0072421739114572909 0.016939884150588943 -0.026908814214042367 -0.0088288013829270484 -0.010647982345060191 -0.021724857979728875 -0.014118847969509723 -0.0052682986499023162 -0.0017210408989931072 -0.010788459292715661 -0.021206712572221897 -0.014631160564086462 -0.027889309104743493 -0.015839857159028074 -0.015120634572925647 -0.023324592791464753 -0.0054478288927838538 -0.026551804163288176 -0.027885143916141601 -0.026676169983093793 -0.017005934434593934 -0.019681252025693222 -0.027882096501127589 -0.013823742720668218 -0.024594665778952564 -0.020563765884560572 -0.027888988526318628 -0.024121017244354538 -0.027881854723263939 -0.024734396623585252 -0.026026618524626732 -0.027882904896231128 -0.027885737697829611 -0.027883603857607218 -0.027883002375667224 -0.027882437490680916 -0.027881468353338167 -0.027879531200487459 -0.027881267131745859 -0.027883109607198225 -0.027880628729279155 -0.027880063320321165 -0.027879095688698834
leaf_weight=73.921617649961263 31.328363670501858 50.999673753045499 26.457623540889472 74.247019260656089 85.031896990258247 65.69434884050861 21.005736045073718 30.520187371410429 41.212845951784402 26.878720875829458 21.576678250450641 40.17712046392262 24.705024756025523 27.887059780303389 17.458062963560224 16.074347374029458 26.983972055371851 18.120154101867229 19.617736665066332 19.068400339223444 32.40778456395492 20.77073839539662 16.744022359140217 28.17252827482298 23.025793239474297 17.385308921802789 30.43201310466975 16.072356270626187 20.776051268912852 16.531532168854028 22.92025335971266 17.850118719041348 16.914604913443327 23.431335245259106 15.788918181788175 16.879212769214064 26.498432845342904 17.095251756254584 29.506578194908798 16.531862949486822 17.598859217949212 29.887853132095188 28.091591229196638 16.54554501036182 19.922968998085707 19.869887696113437 22.778262127190828 16.995422326494008 18.095172082073987 16.014491348527372 19.361905630212277 17.153113797307014 16.511360512115061 18.643857824616134
leaf_count=6062 5165 5734 4849 5331 5516 3505 3292 4550 5763 4827 2669 5785 3109 5125 3228 2874 5184 3361 3695 3378 5822 4205 3334 5596 4543 3454 6241 3151 4146 3353 4597 3573 3471 4846 3258 3485 5095 3389 6087 3426 3519 6127 5791 3335 4076 4085 4697 3535 3812 3332 3981 3585 3465 3940
internal_value=0 0.0406408 -0.0164809 0.051934 0.0606143 0.0751808 0.000367948 0.0135118 0.0246458 -0.0204102 -0.00701412 0.0115122 0.00196557 -0.0138899 -0.0221881 -0.0167361 -0.00824144 -0.000155993 -0.0189001 -0.0133135 -0.0170687 -0.0219616 -0.0240254 -0.0190015 -0.0224702 -0.0237632 -0.0247263 -0.0222332 -0.0172355 -0.0251868 -0.0215914 -0.0221404 -0.0257906 -0.0261057 -0.0229363 -0.0193889 -0.0238173 -0.0255614 -0.0267596 -0.0271926 -0.027002 -0.0276202 -0.0278852 -0.0278818 -0.0278812 -0.0278808 -0.0278838 -0.0278832 -0.0278804 -0.0278801 -0.0278823 -0.0278798 -0.0278795 -0.0278793
internal_weight=0 414.777 1047.39 298.895 224.973 139.941 198.07 103.061 71.733 849.325 99.5105 115.882 64.8821 95.009 749.814 188.999 71.9828 44.9989 74.0032 77.9338 58.8654 117.016 560.815 68.6564 51.1983 100.942 492.159 147.252 54.6985 92.5531 39.6643 38.6262 344.907 327.992 56.0995 32.6681 54.3855 83.5564 271.893 241.461 62.7857 211.954 45.1868 182.067 142.743 122.82 39.3238 52.8889 102.95 86.418 36.3573 70.4035 53.2504 36.739
internal_count=235354 35042 200312 20414 14352 8836 32685 15478 10313 167627 16718 14628 8894 17207 150909 36604 13372 8188 13915 14049 10671 23232 114305 13367 10139 20358 100938 29670 10870 18800 7931 7719 71268 67797 11589 6743 10220 16904 56208 49967 12699 43880 9180 37753 29721 25645 8032 10869 21560 18134 7516 14802 11217 7752
is_linear=0
shrinkage=0.0277465


Tree=11
num_leaves=56
num_cat=0
split_feature=108 20 35 131 7 135 151 20 30 73 9 76 24 26 24 11 26 11 111 24 7 20 24 85 26 0 96 108 87 32 22 147 0 7 24 27 132 117 26 147 9 83 24 30 73 7 30 26 4 4 82 85 26 105 111
split_gain=1165.79 210.23 136.686 117.839 69.5942 64.5702 50.2852 43.1988 24.0953 19.3685 24.5699 18.6881 13.7109 13.3389 10.1542 7.41148 7.47061 5.87814 9.15737 5.02692 3.45844 3.95368 2.79658 8.72031 2.6776 2.42838 2.14818 1.54404 1.25692 1.87315 1.71657 2.1671 0.916772 0.892722 1.27965 0.865365 0.558563 0.480294 0.600184 0.933184 0.165992 0.0423533 0.0401037 3.89544e-07 3.16813e-07 1.87705e-07 1.60396e-07 1.24674e-07 8.64496e-08 1.09915e-07 3.06593e-08 2.68718e-08 9.24378e-09 3.06577e-09 1.95162e-09
threshold=41.500000000000007 3637.9650000000006 13533.875000000002 8.0000000000000018 1135.1350000000002 839.59000000000003 508.95000000000005 805.56000000000006 5713.7050000000008 1.0000000180025095e-35 -115.45999999999999 989.21500000000015 15706.615000000002 1.0000000180025095e-35 47794.580000000009 7.5000000000000009 1.5000000000000002 7.5000000000000009 189540.00000000003 25952.160000000003 24752.275000000005 9090.4300000000021 47794.580000000009 61511.725000000006 6.5000000000000009 20916026.000000004 1.0000000180025095e-35 90.500000000000014 16906.500000000004 1.0000000180025095e-35 12477.905000000001 2193.5000000000005 44558327.500000007 8862.2050000000017 105601.87000000001 11593.100000000002 80028.000000000015 18826.530000000002 2.5000000000000004 3674.5000000000005 346.53000000000003 19957.620000000006 123585.8 10554.230000000001 1.0000000180025095e-35 38592.960000000006 23716.530000000002 4.5000000000000009 34.500000000000007 55.500000000000007 2.5000000000000004 47970.055000000008 7.5000000000000009 5791.5000000000009 210800.72500000003
decision_type=2 2 2 8 2 10 10 2 2 2 2 2 2 2 2 2 2 2 8 2 2 2 2 2 2 2 2 2 2 2 2 10 2 2 2 2 10 10 2 10 2 2 2 2 2 2 2 2 2 2 2 2 2 2 8
left_child=1 2 3 4 -1 -6 7 -2 11 15 -11 12 -3 14 17 16 -9 18 -8 -10 21 -18 23 26 -25 -19 28 -16 29 30 31 -15 36 -17 -35 -23 -24 38 39 -38 44 -31 -29 -30 45 48 -43 -45 -40 51 -49 52 -50 -47 -54
right_child=6 8 -4 -5 5 -7 13 9 19 10 -12 -13 -14 22 27 33 20 25 -20 -21 -22 35 32 24 -26 -27 -28 42 43 41 -32 -33 -34 34 -36 -37 37 -39 40 -41 -42 46 -44 47 -46 53 -48 50 49 -51 -52 -53 54 -55 -56
leaf_value=0.022195151482484989 0.027159809099099215 0.020199967253298211 0.0025361021611970229 0.093562471575883321 0.068257304269278785 0.033450401913427831 -0.013877179819889266 0.0023179153105409686 -0.0010085324335234458 -0.017860567233401094 0.018754985196289382 0.030582175347887441 -0.004715784716097072 -0.023959523475788318 -0.018845579015923195 -0.027902079900133304 -0.0067626678243752044 -0.01026278018797752 0.0089578311947777871 -0.019901587218563804 -0.0039107623202264425 -0.026446286307572283 -0.022061724481892187 -0.0012792823811744092 -0.016632381122262056 -0.021541064407873792 -0.017016438153352943 -0.026055218374171279 -0.027884538512779302 -0.026121356403030916 -0.027883300222493163 -0.012028529998505729 -0.019317049480535545 -0.016684071290466118 -0.025526541352485048 -0.018945886136191917 -0.019561985708644127 -0.022434181667576134 -0.027878783111472096 -0.027879595401298304 -0.025269253042074776 -0.02788583770974444 -0.027880618338868502 -0.027881637202237033 -0.027881094023896658 -0.027879445385054741 -0.027881887856101094 -0.027878014652776738 -0.027876490540804721 -0.027878909297062916 -0.027879712668530982 -0.027877277147770028 -0.027875483514405441 -0.027880003639711329 -0.02787592669053492
leaf_weight=67.797544761095196 25.160693000070751 29.916815626900643 46.162856804206967 48.189953635912389 110.16329168109223 65.384741695132107 29.668933223932981 24.776192106772214 22.66606790246442 24.833566697780043 32.669097946491092 36.443357770796865 39.392026013229042 21.180846908595413 30.69526912085712 18.486905751749873 18.364353504497558 28.32118223188445 24.839818047825247 20.783870184328407 17.351199790369719 19.156931821256876 23.84611250134185 17.726245355326682 17.260781619232148 30.553925888147205 30.63404077058658 15.202109763864426 18.213870504871011 15.702466614078729 15.936718855053185 26.240467723924667 16.201056421268731 27.207626193761826 23.467047134414315 31.016776438336819 20.014167421963066 20.381713874172419 21.958633183036 21.583064070437104 21.263253750745207 15.749161046929659 23.728710584808141 18.552313025575131 27.140292627736926 15.157205602619799 15.911320900544522 17.840691583231091 17.819887525867671 15.635849694255738 15.128163353540002 16.749768098350614 15.965863093733789 15.13640543585643 14.687263804487882
leaf_count=5828 3303 3369 3952 2061 5226 6327 5374 4275 3406 4293 4621 3768 5731 4226 6252 3482 3276 5340 4521 3616 3335 3742 5038 3522 3516 5768 6253 3189 3750 3148 3290 5224 3407 5119 4643 6167 4209 4297 4654 4552 4507 3205 4971 3864 5664 3199 3302 3807 3843 3313 3189 3591 3468 3181 3180
internal_value=0 0.0347788 0.0468975 0.0539219 0.0460718 0.0552931 -0.0177922 -0.00741038 0.00734963 -0.0110754 0.0029419 0.0144968 0.00603898 -0.0216163 -0.0151585 -0.0155576 -0.0111045 -0.010037 -0.00347119 -0.0100458 -0.0149765 -0.0177779 -0.0238477 -0.0216835 -0.0088537 -0.0161158 -0.0238099 -0.0234989 -0.0249632 -0.0231254 -0.0200051 -0.0173575 -0.0257261 -0.022683 -0.020779 -0.0218096 -0.0261145 -0.0265113 -0.0268838 -0.0238776 -0.0275727 -0.0272995 -0.0271678 -0.0278811 -0.0278784 -0.0278778 -0.0278839 -0.0278798 -0.0278772 -0.0278768 -0.0278788 -0.0278763 -0.027876 -0.0278797 -0.0278757
internal_weight=0 486.901 337.698 291.536 243.346 175.548 975.118 262.49 149.202 237.33 57.5027 105.752 69.3088 712.628 183.01 179.827 110.665 113.384 54.5088 43.4499 85.8893 68.5381 529.618 246.077 34.987 58.8751 211.09 69.6261 180.456 110.721 63.358 47.4213 283.541 69.1616 50.6747 50.1737 267.339 243.493 223.112 41.5972 181.514 47.3629 38.9308 69.735 160.251 133.111 31.6605 51.5212 102.817 80.8586 32.9689 65.2228 48.473 30.2936 30.6531
internal_count=235354 43284 23394 19442 17381 11553 192070 46256 19890 42953 8914 12868 9100 145814 35415 34039 20795 21003 9895 7022 16520 13185 110399 50296 7038 11108 43258 14412 37005 22395 12740 9450 60103 13244 9762 9909 56696 51658 47361 8761 38600 9655 8160 14610 34093 28429 6507 10860 22049 17395 6996 14082 10491 6380 6648
is_linear=0
shrinkage=0.0277465


Tree=12
num_leaves=57
num_cat=0
split_feature=108 53 30 7 74 53 30 98 9 11 83 145 20 151 76 26 29 66 151 108 82 54 83 9 139 105 7 54 114 108 4 126 149 4 147 26 7 83 97 111 107 107 145 20 20 26 20 151 108 54 20 84 4 26 29 22
split_gain=1083.78 202.835 132.06 83.7875 109.417 72.5341 74.0334 39.728 28.0788 27.5368 17.1205 16.6912 15.7708 12.4888 11.8594 4.59341 4.58614 7.51894 4.04664 2.94771 2.77272 2.57137 2.55451 3.14771 2.092 2.07565 1.87259 1.77365 1.58625 0.789079 0.673541 0.633767 0.979562 0.38305 0.991865 0.387299 0.286487 1.17579 0.217125 0.158503 0.0932586 0.162195 0.0532131 9.19138e-07 4.48702e-07 1.27014e-07 9.59217e-08 6.53234e-08 2.89729e-08 2.77694e-08 2.26956e-08 2.14999e-08 1.36254e-08 1.21023e-08 7.52325e-09 1.89136e-09
threshold=41.500000000000007 1.0000000180025095e-35 3384.3600000000001 20275.620000000003 1312.6450000000002 1.0000000180025095e-35 3384.3600000000001 1.0000000180025095e-35 -312.81499999999994 6.5000000000000009 28181.055000000004 -8026.1699999999992 6113.0100000000011 508.95000000000005 420.90500000000003 1.0000000180025095e-35 6.5000000000000009 9365.7300000000014 1.0000000180025095e-35 60.500000000000007 1.5000000000000002 265268.88500000007 23868.095000000005 -1110.5749999999996 inf 35120.475000000006 7498.5350000000008 98090.865000000005 1.0000000180025095e-35 90.500000000000014 43.500000000000007 5453.5000000000009 8.5000000000000018 34.500000000000007 2681.5000000000005 15.500000000000002 38592.960000000006 11700.005000000003 2.5000000000000004 706688.04000000015 8248.5000000000018 16438.500000000004 -29485.654999999995 33825.005000000005 3637.9650000000006 1.5000000000000002 7543.2050000000008 508.95000000000005 84.500000000000014 35745.570000000007 29434.935000000001 6.5000000000000009 53.500000000000007 5.5000000000000009 6.5000000000000009 12477.905000000001
decision_type=2 2 2 2 2 2 2 2 2 2 2 10 2 10 2 2 2 2 10 2 2 2 2 2 8 2 2 2 8 2 2 8 10 2 10 2 2 2 2 10 2 2 10 2 2 2 2 10 2 2 2 2 2 2 2 2
left_child=1 2 3 4 7 6 9 -1 -4 -2 -11 -10 13 -8 -15 20 17 -14 19 -7 -16 31 23 -18 -3 26 -24 29 -5 -21 -28 33 -33 34 35 42 38 -38 40 43 44 -42 -20 -32 -35 48 -44 -47 -46 -49 -48 52 54 -39 -51 -56
right_child=5 24 8 28 -6 18 12 -9 11 10 -12 -13 16 14 15 -17 22 -19 21 27 -22 -23 25 -25 -26 -27 30 -29 -30 -31 39 32 -34 36 -36 -37 37 53 -40 -41 41 -43 46 -45 45 47 50 49 -50 51 -52 -53 -54 -55 55 -57
leaf_value=0.031791477801782674 0.036803815654148107 -0.026713620948586161 -0.0049327844651692355 0.02081058371564869 0.083264908991234565 -0.0087962257268315806 0.01434254429768372 0.058706997767406857 0.0096703156336583242 0.01812871690654708 -0.013647654335996122 0.036646181016447336 -0.0027251401724416461 0.01041900707139581 -0.0034921219919714767 -0.023337340848585873 -0.024603965113639339 -0.024954370326539594 -0.025976047219471322 -0.020353280339860291 -0.01710939662306394 -0.015275566585559005 -0.017233583360481905 -0.009672458411040594 -0.01528785149154604 -0.014828561862512553 -0.022000551652328438 -0.014535354201544358 0.028114575278198616 -0.027883008896412393 -0.027885078123225354 -0.026558832004523334 -0.017447888015964561 -0.02787769564948037 -0.020236440270234288 -0.022617882927999156 -0.018527601825224015 -0.027873408914003601 -0.024149601487743262 -0.024881738621090166 -0.02407005698704219 -0.027872934079452853 -0.027876712010568322 -0.027877545103031084 -0.027875054675697425 -0.027873917228628173 -0.027873462203056098 -0.027873129642869782 -0.027873421141725238 -0.027872063342584723 -0.027874866594151174 -0.027872754087936248 -0.027872449366463301 -0.027872363545349065 -0.027871525764535891 -0.027871186890515258
leaf_weight=98.797134345863014 28.260081266984344 23.240905279293656 43.369700874201953 45.833623379934579 75.92534237774089 17.436573573853821 19.029090550728142 73.722918919287622 34.623460187576711 27.075109377037734 25.205360231921077 36.038586089387536 30.859764685388654 17.371353420428932 26.139777160715312 30.467599600553513 16.899813555181026 18.882275570183992 14.613098259549586 18.419348982162774 20.571156088262796 17.602437991648912 26.047621568199247 30.460311267990619 26.294985334854573 23.381081799045205 28.306659693364054 18.7075953357853 45.730758477002382 25.61509995162487 21.976978820282966 21.084665323607624 15.963031675666569 14.986576450057326 25.422280230559409 15.831007667817174 14.83983656298369 15.668110074941067 14.899015477392821 18.510061310604215 14.5928403660655 21.146023739594966 15.062921270262448 28.825217024423182 16.019826554693282 16.496869949623942 20.296762197744101 15.746187585406004 17.47953231446445 14.696078413166104 15.720395857002584 17.526340704411268 14.54288264364004 18.703953930176795 24.513634787872434 26.266061316244304
leaf_count=5933 3305 4263 5952 3427 3397 3385 2817 5089 4244 3318 3492 3950 5721 2935 4656 5967 3373 3655 3191 3738 3807 3540 5272 5965 4058 4841 5887 3827 2971 5274 4469 4606 3429 3209 5483 3428 3204 3458 3268 3904 3236 4685 3245 6173 3491 3626 4477 3482 3857 3277 3430 3887 3233 4161 5489 5897
internal_value=0 0.0326645 0.038481 0.0471469 0.0555087 -0.0176115 -0.00929677 0.0432933 0.0126418 0.0147369 0.00280875 0.0234284 -0.0147078 -0.00616627 -0.0102939 -0.0149559 -0.0186814 -0.0111634 -0.0246207 -0.0188881 -0.00948907 -0.025666 -0.0206049 -0.0150006 -0.0206485 -0.02241 -0.0238433 -0.0216927 0.0244585 -0.0247334 -0.025607 -0.0260993 -0.0226331 -0.0264327 -0.0250215 -0.0265137 -0.0269754 -0.0250548 -0.0273883 -0.0270799 -0.0276138 -0.0263201 -0.0274525 -0.0278808 -0.0278731 -0.0278727 -0.0278749 -0.0278723 -0.0278742 -0.027872 -0.0278741 -0.0278719 -0.0278717 -0.0278728 -0.0278715 -0.0278714
internal_weight=0 503.577 454.042 340.01 248.445 958.168 438.269 172.52 114.032 80.5406 52.2805 70.662 357.729 113.579 94.5499 77.1785 244.15 49.742 519.899 80.1786 46.7109 439.72 194.408 47.3601 49.5359 147.048 123.667 62.742 91.5644 44.0344 97.6189 422.118 37.0477 385.07 106.946 81.5242 278.124 49.2119 228.912 69.3123 214.013 35.7389 65.6932 50.8022 178.274 163.287 51.0801 129.788 33.4994 113.291 36.0172 97.545 80.0187 34.3721 65.4758 50.7797
internal_count=235354 43284 34963 20817 14419 192070 79557 11022 14146 10115 6810 8194 69442 20182 17365 14430 49260 9376 112513 16224 8463 96289 39884 9338 8321 30546 25705 12839 6398 9012 20433 92749 8035 84714 23254 17771 61460 10823 50637 14546 47369 7921 14343 10642 39448 36239 11152 28891 7348 25265 7907 21783 17896 7619 14663 11386
is_linear=0
shrinkage=0.0277465


Tree=13
num_leaves=59
num_cat=0
split_feature=108 53 30 53 30 98 10 9 24 7 24 11 34 18 83 136 138 24 9 10 149 146 0 18 83 58 138 85 58 108 108 19 4 108 115 145 84 145 10 62 147 105 144 136 54 20 4 26 136 20 4 26 7 85 18 24 7 149
split_gain=1009.55 182.575 115.006 72.1822 70.6146 58.3312 61.1833 42.151 34.8974 30.8568 26.9966 24.6507 17.9283 17.5819 16.0682 13.105 8.72624 6.5954 5.65132 4.58964 4.35701 3.95767 3.13193 2.38302 2.25434 2.10595 2.10576 1.66379 1.01588 0.919706 0.778447 0.429889 0.527585 0.627631 0.343923 0.508318 0.603381 1.01031 1.28851 0.420946 0.219456 0.176811 0.0622175 1.11115e-06 7.92285e-07 3.05039e-07 2.31911e-07 1.06194e-07 8.69896e-08 7.19889e-08 5.74056e-08 2.79986e-08 2.1943e-08 2.14323e-08 1.9695e-08 1.37322e-08 8.90757e-09 2.24783e-09
threshold=41.500000000000007 1.0000000180025095e-35 930.05500000000018 1.0000000180025095e-35 3384.3600000000001 1.0000000180025095e-35 39.335000000000008 -312.81499999999994 -1.0000000180025095e-35 10285.655000000001 7502.0850000000009 6.5000000000000009 1.0000000180025095e-35 -44.914999999999992 28181.055000000004 11890.655000000001 27988.895000000004 47794.580000000009 -393.47499999999997 197.47500000000002 6.5000000000000009 50.875000000000007 52009029.500000007 -118.84499999999998 23868.095000000005 193.52500000000001 inf 11419.745000000003 31.580000000000002 72.500000000000014 210.50000000000003 3.5000000000000004 59.500000000000007 101.50000000000001 -165.84499999999997 -19990.119999999995 3.5000000000000004 -10556.789999999999 454.70500000000004 161.58500000000004 620.50000000000011 8248.5000000000018 20160.545000000002 13397.170000000002 190461.31500000003 6113.0100000000011 34.500000000000007 1.5000000000000002 5044.6050000000005 29434.935000000001 34.500000000000007 4.5000000000000009 34188.655000000006 61511.725000000006 -235.39499999999995 47794.580000000009 14936.285000000002 10.500000000000002
decision_type=2 2 2 2 2 2 2 2 2 2 2 2 2 2 2 10 10 2 2 2 10 8 2 2 2 2 8 2 2 2 2 2 2 2 10 10 2 10 2 2 10 2 10 10 2 2 2 2 10 2 2 2 2 2 2 2 2 10
left_child=1 2 5 4 11 8 -7 -4 -1 -9 12 -2 15 -11 -13 -6 19 18 25 -17 -20 22 31 -23 27 -12 -3 -19 -25 -26 43 32 34 -34 -5 42 39 38 -38 40 -37 -39 44 -31 46 -42 54 -48 -47 -45 -50 -52 55 -51 -36 -49 -53 -57
right_child=3 26 7 21 10 6 -8 9 -10 13 17 14 -14 -15 -16 16 -18 24 20 -21 -22 23 -24 28 29 -27 -28 -29 -30 30 -32 -33 33 -35 35 36 37 41 -40 -41 45 -43 -44 49 -46 48 47 52 50 53 51 56 -54 -55 -56 57 -58 -59
leaf_value=0.045907280735337425 0.034494736757586228 -0.026677431689588749 -0.0057446944349519814 -0.023060320270011467 0.023500684689703882 0.075016775949879766 0.036804155469666804 0.043334124688264475 0.021353196088172162 0.02776349328741964 -0.014953580291956231 0.017310072186066026 -0.020474572213640484 -0.0014127874882202917 -0.013451118278772154 2.2568866123724532e-06 0.011424890716203477 -0.022649538527715268 0.0031029344130179635 -0.018969519708482863 -0.014969356865362517 -0.0086782182451968087 -0.012911032424665011 -0.01709071251522809 -0.019245304134516028 -0.026628903210960991 -0.015092540578556256 -0.010856936738398671 -0.025390829923778373 -0.027881485702347351 -0.022101605278393527 -0.021664448418698794 -0.01841036428785963 -0.026242929049472594 -0.027873181479491863 -0.024319595623964015 -0.025921586906964757 -0.027872297067020886 -0.014554877758409478 -0.022465962684295522 -0.027874715384449258 -0.024024450386482328 -0.025974290829719773 -0.027874737393360539 -0.027876937542776974 -0.027872125673180329 -0.027871432426607234 -0.02786948830552376 -0.027871452866163115 -0.027871997021145126 -0.027870464452371371 -0.027868543162306917 -0.027870186168998105 -0.027873307534389619 -0.027871841895648702 -0.027868407669835536 -0.02786949127639236 -0.02786886724502334
leaf_weight=104.23064964916557 29.299905392806977 22.635156343691051 46.195279338397086 23.061147034168243 19.418428716715425 79.631446616258472 54.222945697139949 45.464044298045337 77.84101634984836 32.30427484260872 25.741514914203435 27.561753947287798 33.630080534610897 31.314863586332649 24.868808239232749 17.892767133191228 21.871603688690811 21.187088118400425 19.68528984580189 21.750636167824268 21.473118979483843 15.887986122630535 14.835699575021861 23.141120969317853 16.060664500109851 22.109969872049987 25.901770486030728 16.294467167463154 22.284872379153967 15.535518184769897 24.027639354579151 17.876925583463162 14.659671823028477 17.020769423339516 14.660433365497736 15.620624186936764 14.23353689722717 25.363343162462115 16.669422027654946 15.400015525519846 15.571216047741471 14.421041321940718 14.625016270205377 15.054712642449884 16.327590803150088 18.519557442516088 22.583066763821989 26.379072077572346 14.745631201658396 25.394636407960206 14.479141510557382 16.405845200642947 15.624882554169742 15.453800332732497 19.944582810159773 16.361757163889706 14.259418907109646 16.412173691671342
leaf_count=3886 3305 4263 6265 5112 2931 3815 4109 4369 5507 3172 5120 3318 6300 3840 3492 3109 3985 4233 3514 4039 4200 3161 3288 4809 3311 4534 4058 3318 4657 3246 5228 3970 3227 3770 3243 3487 3204 5652 3752 3464 3413 3209 3280 3292 3516 4132 5067 6006 3305 5668 3272 3763 3538 3414 4457 3757 3247 3755
internal_value=0 0.0307442 0.0360222 -0.0174299 -0.00912694 0.0456323 0.0595373 0.0164698 0.0354097 0.0258773 -0.0145136 0.0141107 -0.00344694 0.0134022 0.00271946 0.00362852 -0.00264453 -0.0198402 -0.0138642 -0.0104067 -0.00632572 -0.0245372 -0.0254458 -0.0179275 -0.0234099 -0.0203482 -0.0204951 -0.0175229 -0.0211625 -0.0253884 -0.0264219 -0.025877 -0.0260592 -0.0226185 -0.0263448 -0.026556 -0.0256028 -0.023554 -0.0197902 -0.0267614 -0.027365 -0.0264775 -0.0277009 -0.0278749 -0.0278712 -0.0278712 -0.0278705 -0.0278698 -0.0278705 -0.0278731 -0.0278699 -0.0278695 -0.0278693 -0.0278725 -0.0278724 -0.027869 -0.027869 -0.0278686
internal_weight=0 519.741 471.205 941.688 434.312 315.926 133.854 155.278 182.072 109.083 352.582 81.7305 114.564 63.6191 52.4306 80.9334 61.515 238.018 89.0099 39.6434 41.1584 507.376 446.062 61.314 149.009 47.8515 48.5369 37.4816 45.426 111.527 95.4663 431.226 413.349 31.6804 381.669 358.607 195.689 70.6873 30.903 125.001 109.601 39.7844 162.919 71.4387 148.294 93.9808 131.966 97.361 78.4096 55.9031 59.89 45.1444 74.7779 40.8484 34.605 59.153 30.6653 32.7739
internal_count=235354 43284 34963 192070 79557 17317 7924 17646 9393 11381 69442 10115 20364 7012 6810 14064 11133 49078 17368 7148 7714 112513 99886 12627 31710 9654 8321 7551 9466 24159 20848 96598 92628 6997 85631 80519 43900 15817 6956 28083 24619 8861 36619 15620 33339 21132 29823 22123 17719 12374 13587 10282 17056 9082 7700 13518 7010 7512
is_linear=0
shrinkage=0.0277465


Tree=14
num_leaves=60
num_cat=0
split_feature=108 53 35 24 131 53 30 151 7 7 24 11 35 29 135 151 83 138 24 59 9 10 151 4 108 54 83 138 22 54 58 29 126 82 108 4 147 26 7 83 97 107 107 145 137 108 20 26 20 20 151 24 84 4 20 54 27 29 24
split_gain=942.166 165.048 116.701 135.542 90.5902 71.7988 67.3766 66.8471 48.6796 47.7462 26.4997 22.1355 19.4709 19.3361 16.507 14.3086 11.0209 7.79483 6.6016 5.93881 9.65048 4.72224 4.16444 2.97681 4.17534 2.66608 2.27753 2.11884 1.9351 1.35113 1.26747 0.937773 0.660332 1.01839 0.482114 0.401261 1.03526 0.404889 0.300695 1.22471 0.227986 0.0981394 0.17013 0.0560396 0.0556693 4.19136e-07 3.81867e-07 1.12545e-07 8.06484e-08 7.00779e-08 5.80684e-08 3.66181e-08 2.56761e-08 2.19832e-08 2.1309e-08 1.24176e-08 1.17347e-08 5.72646e-09 2.55023e-09
threshold=41.500000000000007 1.0000000180025095e-35 16937.880000000005 15706.615000000002 8.0000000000000018 1.0000000180025095e-35 3384.3600000000001 368.55000000000001 2366.4750000000004 11767.155000000002 7502.0850000000009 6.5000000000000009 16937.880000000005 1.5000000000000002 10315.575000000003 1480.0500000000004 23868.095000000005 27988.895000000004 47794.580000000009 3.5000000000000004 -393.47499999999997 197.47500000000002 1.0000000180025095e-35 41.500000000000007 78.500000000000014 265268.88500000007 23868.095000000005 inf 32085.350000000002 76078.35000000002 31.730000000000004 5.5000000000000009 5453.5000000000009 2.5000000000000004 210.50000000000003 34.500000000000007 2681.5000000000005 15.500000000000002 38592.960000000006 11700.005000000003 2.5000000000000004 8248.5000000000018 16438.500000000004 -29485.654999999995 266.79500000000007 84.500000000000014 3637.9650000000006 1.5000000000000002 7543.2050000000008 39082.485000000008 508.95000000000005 47794.580000000009 6.5000000000000009 53.500000000000007 29434.935000000001 45422.325000000004 9348.3350000000009 7.5000000000000009 47794.580000000009
decision_type=2 2 2 2 8 2 2 10 2 2 2 2 2 2 10 10 2 10 2 2 2 2 10 2 2 2 2 8 2 2 2 2 8 2 2 2 10 2 2 2 2 2 2 10 10 2 2 2 2 2 10 2 2 2 2 2 2 2 2
left_child=1 2 3 4 7 6 11 8 -1 -10 12 -2 14 -5 -8 -9 -13 21 19 20 -12 -16 23 29 -25 32 28 -3 -20 -7 -21 -28 35 -34 44 36 37 43 40 -40 41 46 -43 -24 45 -33 -37 51 -45 -47 -49 -48 53 55 -50 -52 -41 -57 -59
right_child=5 27 -4 13 -6 22 10 15 9 -11 18 16 -14 -15 17 -17 -18 -19 26 30 -22 -23 25 24 -26 -27 31 -29 -30 -31 -32 34 33 -35 -36 38 -38 -39 39 56 -42 42 -44 48 -46 49 47 50 54 -51 52 -53 -54 -55 -56 57 -58 58 -60
