tree
version=v3
num_class=1
num_tree_per_iteration=1
label_index=0
max_feature_idx=154
objective=binary sigmoid:1
feature_names=numero_de_cliente foto_mes active_quarter cliente_vip internet cliente_edad cliente_antiguedad mrentabilidad mrentabilidad_annual mcomisiones mactivos_margen mpasivos_margen cproductos tpaquete1 tpaquete3 tpaquete4 tcuentas ccuenta_corriente mcuenta_corriente_adicional mcuenta_corriente ccaja_ahorro mcaja_ahorro mcaja_ahorro_adicional mcaja_ahorro_dolares mdescubierto_preacordado mcuentas_saldo ctarjeta_debito ctarjeta_debito_transacciones mautoservicio ctarjeta_visa ctarjeta_visa_transacciones mtarjeta_visa_consumo ctarjeta_master ctarjeta_master_transacciones mtarjeta_master_consumo cprestamos_personales mprestamos_personales cprestamos_prendarios mprestamos_prendarios cprestamos_hipotecarios mprestamos_hipotecarios cplazo_fijo mplazo_fijo_dolares mplazo_fijo_pesos cinversion1 minversion1_pesos minversion1_dolares cinversion2 minversion2 cseguro_vida cseguro_auto cseguro_vivienda cseguro_accidentes_personales ccaja_seguridad cpayroll_trx mpayroll mpayroll2 cpayroll2_trx ccuenta_debitos_automaticos mcuenta_debitos_automaticos ctarjeta_visa_debitos_automaticos mttarjeta_visa_debitos_automaticos ctarjeta_master_debitos_automaticos mttarjeta_master_debitos_automaticos cpagodeservicios mpagodeservicios cpagomiscuentas mpagomiscuentas ccajeros_propios_descuentos mcajeros_propios_descuentos ctarjeta_visa_descuentos mtarjeta_visa_descuentos ctarjeta_master_descuentos mtarjeta_master_descuentos ccomisiones_mantenimiento mcomisiones_mantenimiento ccomisiones_otras mcomisiones_otras cforex cforex_buy mforex_buy cforex_sell mforex_sell ctransferencias_recibidas mtransferencias_recibidas ctransferencias_emitidas mtransferencias_emitidas cextraccion_autoservicio mextraccion_autoservicio ccheques_depositados mcheques_depositados ccheques_emitidos mcheques_emitidos ccheques_depositados_rechazados mcheques_depositados_rechazados ccheques_emitidos_rechazados mcheques_emitidos_rechazados tcallcenter ccallcenter_transacciones thomebanking chomebanking_transacciones ccajas_consultas ccajas_depositos ccajas_extracciones ccajas_otras catm_trx matm catm_trx_other matm_other ctrx_quarter tmobile_app cmobile_app_trx Master_delinquency Master_status Master_mfinanciacion_limite Master_Fvencimiento Master_Finiciomora Master_msaldototal Master_msaldopesos Master_msaldodolares Master_mconsumospesos Master_mconsumosdolares Master_mlimitecompra Master_madelantopesos Master_madelantodolares Master_fultimo_cierre Master_mpagado Master_mpagospesos Master_mpagosdolares Master_fechaalta Master_mconsumototal Master_cconsumos Master_cadelantosefectivo Visa_delinquency Visa_status Visa_mfinanciacion_limite Visa_Fvencimiento Visa_Finiciomora Visa_msaldototal Visa_msaldopesos Visa_msaldodolares Visa_mconsumospesos Visa_mconsumosdolares Visa_mlimitecompra Visa_madelantopesos Visa_madelantodolares Visa_fultimo_cierre Visa_mpagado Visa_mpagospesos Visa_mpagosdolares Visa_fechaalta Visa_mconsumototal Visa_cconsumos Visa_cadelantosefectivo Visa_mpagominimo
feature_infos=[4572294:60887355] none [0:1] none [0:1] [18:97] [1:369] [-355437.46999999997:605304.5] [-2079330.98:8742163.9800000004] [-243252.69:264726.31] [-114949.31:171224.79999999999] [-119876.81:304146.84999999998] [3:18] none none [0:1] none none none [-20807360.609999999:19766511.210000001] [2:12] [0:20138914.75] [-13993.16:2426196.3300000001] [-10684.27:486227447.80000001] [0:1.1699999999999999] [-22235111.260000002:408800085.16000003] [0:114] [0:148] [0:980059.27000000002] [0:4] [0:1200] [0:3029631.5499999998] [0:3] [0:347] [0:2685909.7599999998] [0:224] [0:3538621.3399999999] none none none none [0:88] [0:70422300] none [0:15] [0:166139999.97999999] none [0:53] [0:772692679.07000005] [0:5] [0:7] [0:7] [0:4] [0:6] [0:54] [0:34364677.229999997] none none [0:88] [0:26566471.649999999] [0:60] [0:405263.76000000001] [0:54] [0:372698.01000000001] none none [0:290] [0:42229617.149999999] none none none none none none [0:38] [-18336.09:7499.7399999999998] [0:274] [-243252.69:264726.31] [0:19] none none [0:19] [0:6660.8199999999997] [0:7846] [0:665998718.20000005] [0:259] [0:72787705.739999995] [0:215] [0:3159000] [0:158] [0:26588250] [0:125] [0:31210705.559999999] none none none none [0:1] [0:88] [0:1] [0:10164] [0:31] [0:27] [0:17] none [0:215] [0:3159000] [0:46] [0:588223.34999999998] [0:2878] [0:1] [0:2699] [0:1] [0:9] [0:121903791.84] [-2914360:6303] none [-1060829.8300000001:2632169.6000000001] [-1060829.8300000001:2632169.6000000001] [-691794.75:1010384.79] [-15711.34:2200042.5499999998] [0:13175.01] [982.79999999999995:21411000] [0:18007.540000000001] [0:236.90000000000001] [0:4830] [0:1037085.58] [-2577689.0299999998:301821.92999999999] [0:21684.040000000001] [1:7420] [-15711.34:2200042.5499999998] [0:200] [0:15] [0:1] [0:9] [0:228377125.08000001] [-2914360:4992] none [-1115870.04:3376320.9500000002] [-564088.21999999997:3950225.04] [-1590146.78:1406789.23] [-108545.56:2211162.96] [0:39626.75] [672.75:21279024] [0:180251.06] [0:2378.6100000000001] [0:4774] [0:1380010.22] [-2765150.6299999999:98159.25] [0:20854.380000000001] [1:12426] [-108545.56:2211162.96] [0:1166] [0:16] [0:3191215.9500000002]
tree_sizes=3449 3531 3551 3533 3538 3553 3530 3533 3548 3539 3539 3534 3541 3536 3534 3538 3532 3539 3532 3530 3545 3549 3544 3533 3560 3539 3547 3532 3554 3548 3542 3567 3534 3560 3551 3563 3541 3550 3539 3556 3531 3542 3551 3559 3550 3516 3546 3529 3542 3562 3548 3530 3530 3550 3573 3535 3522 3550 3536 3554 3545 3554 3545 3558 3545 3550 3555 3528 3555 3557 3560 3556 3543 3544 3580 3574 3558 3568 3548 3543 3564 3562 3530 3558 3562 3536 3547 3555 3541 3556 3578 3524 3560 3559 3548 3555 3573 3558 3542 3548

Tree=0
num_leaves=31
num_cat=0
split_feature=109 25 109 21 21 54 30 136 25 154 11 36 11 31 84 154 6 27 150 55 129 8 142 150 5 120 55 23 121 100
split_gain=3932.72 1591.32 436.139 188.847 184.214 102.755 206.963 95.3377 47.2053 58.8701 26.5767 12.1835 12.6436 7.59466 5.11044 3.87252 2.99157 2.9381 2.30365 1.23299 1.04014 1.02309 1.18412 0.637352 0.599704 0.491017 0.293227 0.270542 0.189331 0.140329
threshold=20.500000000000004 -1.0000000180025095e-35 36.500000000000007 2687.5300000000002 7967.5550000000012 1.0000000180025095e-35 1.0000000180025095e-35 -1901.4999999999998 23917.640000000003 544.05000000000007 449.58500000000004 22527.385000000006 107.46500000000002 7370.8050000000012 4142.3850000000011 1.0000000180025095e-35 158.50000000000003 3.5000000000000004 1593.5000000000002 185223.70000000004 216.50000000000003 24694.970000000005 1.0000000180025095e-35 6215.5000000000009 29.500000000000004 -1.0000000180025095e-35 19697.860000000004 1782.9350000000002 157.86000000000004 36.500000000000007
decision_type=2 2 2 2 2 2 2 10 2 10 2 2 2 2 2 10 2 2 10 2 10 2 8 10 2 10 2 2 8 2
left_child=1 -1 3 -2 7 6 -4 -3 9 -8 -5 12 -11 -10 -14 17 -16 -7 -15 23 -19 22 -20 24 25 -17 -26 -23 -24 -28
right_child=2 4 5 10 -6 15 8 -9 13 11 -12 -13 14 18 16 19 -18 20 21 -21 -22 27 28 -25 26 -27 29 -29 -30 -31
leaf_value=-4.5302924896156256 -4.9251798919311351 -4.9394963333394619 -4.9766813142456243 -5.0335952791277521 -5.0285766736195017 -5.1018948686694516 -5.0290886002123365 -4.8099451089726459 -5.0957470903763804 -5.057609908173383 -5.0993305295158367 -5.1214883048865731 -5.0780326990880997 -5.107984140302638 -5.0955259089433556 -5.1159994357919771 -5.1154501470270155 -5.1117626175360646 -5.1094373537879756 -5.1160185154074869 -5.1243732782950451 -5.120613399613128 -5.1247865567900703 -5.1166435943686821 -5.1210800212606769 -5.1249878212756643 -5.1267436950194556 -5.1260728612045199 -5.1186474825686741 -5.1249415884040639
leaf_weight=36.884828105103225 43.906693258322775 27.236699075438082 35.651840369682759 38.64800056675449 28.013481348752975 36.219014727976173 39.936472750268877 29.671849852893502 41.940077820327133 25.313238208182156 25.53517600055784 38.056166453752667 26.688019533175975 39.979627321008593 48.049532049335539 32.575535969808698 30.9911467297934 26.70034941053018 31.780258880462497 46.619266276247799 42.186675367411226 32.624855479225516 25.547505877912045 24.752228788565844 35.312768742442131 28.47585174953565 210.44634668156505 74.534108606167138 24.702909279149026 221.96245213039219
leaf_count=5983 7122 4418 5783 6269 4544 5875 6478 4813 6803 4106 4142 6173 4329 6485 7794 5284 5027 4331 5155 7562 6843 5292 4144 4015 5728 4619 34136 12090 4007 36004
internal_value=-5.07643 -4.80451 -5.10135 -5.00509 -4.92362 -5.10987 -5.09291 -4.87195 -5.10154 -5.08369 -5.05975 -5.09658 -5.08935 -5.11531 -5.09695 -5.12228 -5.10334 -5.11342 -5.11889 -5.12383 -5.11949 -5.12119 -5.11699 -5.12449 -5.12485 -5.12019 -5.12546 -5.12441 -5.12177 -5.12582
internal_weight=0 121.807 1329.14 108.09 84.922 1221.05 515.796 56.9085 480.144 209.035 64.1832 169.098 131.042 271.109 105.729 705.25 79.0407 105.106 229.169 600.144 68.887 189.19 82.0307 553.525 528.773 61.0514 467.722 107.159 50.2504 432.409
internal_count=235354 19758 215596 17533 13775 198063 83666 9231 77883 33907 10411 27429 21256 43976 17150 114397 12821 17049 37173 97348 11174 30688 13306 89786 85771 9903 75868 17382 8151 70140
is_linear=0
shrinkage=1


Tree=1
num_leaves=31
num_cat=0
split_feature=109 19 109 54 30 11 25 154 54 31 25 36 10 31 25 25 125 86 148 154 55 84 115 9 0 5 55 88 100 82
split_gain=2686.27 473.445 392.1 205.602 253.962 85.3766 76.7552 87.7932 53.5413 95.6063 22.3372 18.53 11.5496 6.61875 3.72145 3.21147 2.36147 2.4561 2.14651 2.11391 1.92964 1.91328 0.93468 0.872532 0.63462 0.35135 0.392071 0.303744 0.239881 0.204555
threshold=20.500000000000004 -1.0000000180025095e-35 50.500000000000007 1.0000000180025095e-35 1.0000000180025095e-35 107.46500000000002 13292.890000000001 544.05000000000007 1.0000000180025095e-35 2329.2250000000004 5464.255000000001 7618.7250000000013 -567.71499999999992 7370.8050000000012 56537.420000000006 56537.420000000006 1.0000000180025095e-35 21885.255000000001 -48618.259999999987 544.05000000000007 118981.50000000001 26075.760000000006 -652.49999999999989 416.18500000000006 46926383.500000007 61.500000000000007 185223.70000000004 33940.235000000008 36.500000000000007 233.99000000000004
decision_type=2 2 2 2 2 2 2 10 2 2 2 2 2 2 2 2 8 2 10 10 2 2 10 2 2 2 2 2 2 2
left_child=1 -1 3 4 -2 -3 7 -6 9 -4 11 12 -11 -12 16 -8 17 -15 -5 20 22 -16 23 28 25 26 29 -23 -10 -21
right_child=2 5 8 18 6 -7 15 -9 19 10 13 -13 -14 14 21 -17 -18 -19 -20 24 -22 27 -24 -25 -26 -27 -28 -29 -30 -31
leaf_value=0.28249849127713206 0.19711416127016468 0.15209139798984805 0.044614923752883812 -0.029857690252208243 0.14047148587439198 0.050634541421589387 0.00052346101675515761 0.028881289172422431 -0.050299598396172762 -0.018278555381563571 -0.016653970544272863 -0.043780492384897216 0.021881990290476289 -0.036272417251425298 -0.0355721281164934 -0.024605618727567335 -0.044548429005121543 -0.017396764939671173 -0.048955061874159045 -0.049858705286480696 -0.028110965775683568 -0.05029885070644477 -0.034841079093409798 -0.038020009157597401 -0.040737228765769705 -0.042347210755589108 -0.043485331800401726 -0.043971489089244788 -0.04430019394154755 -0.04753983330639576
leaf_weight=75.973672707565129 30.106233756989241 51.611587146762758 46.341099654790014 24.442684457171708 26.727563650812954 34.661110396962613 25.570645603816956 51.758575831539929 49.937656017020345 34.340357202105224 31.199268335476518 30.662717677652836 37.399280176963657 42.759694458916783 33.951070449780673 25.287908330094069 34.75394390989095 28.869412105064839 36.966957494150847 227.95780401304364 24.787638664711267 94.878143184818327 25.877557011786848 28.503668606746942 31.37843065103516 25.154273978434503 36.685619067400694 23.706276232842356 25.00443627871573 163.18309995438904
leaf_count=7715 4464 6887 7065 3957 3964 5156 4108 7930 8435 5597 5120 5125 6075 7116 5742 4144 5805 4816 6100 38785 4189 16065 4387 4822 5329 4269 6188 4013 4230 27756
internal_value=0 0.191481 -0.0243078 0.0363819 0.0663203 0.11133 0.0358768 0.0668821 -0.0367496 -0.023305 -0.0313237 -0.0112473 0.00265792 -0.03841 -0.0410316 -0.0119712 -0.0338538 -0.0286648 -0.0413538 -0.0459909 -0.0408904 -0.0460376 -0.0433399 -0.0454659 -0.0476137 -0.0480901 -0.0484277 -0.0490339 -0.0482979 -0.0488913
internal_weight=0 162.246 1298.19 220.861 159.451 86.2727 129.345 78.4861 1077.33 438.861 392.52 102.402 71.7396 290.118 258.919 50.8586 106.383 71.6291 61.4096 638.47 154.111 152.535 129.323 103.446 484.359 452.981 427.827 118.584 74.9421 391.141
internal_count=235354 19758 215596 34667 24610 12043 20146 11894 180929 72539 65474 16797 11672 48677 43557 8252 17737 11932 10057 108390 26063 25820 21874 17487 82327 76998 72729 20078 12665 66541
is_linear=0
shrinkage=0.05


Tree=2
num_leaves=31
num_cat=0
split_feature=109 11 74 54 31 54 30 25 154 115 10 36 77 58 83 154 139 27 25 55 129 25 109 150 5 120 77 87 55 100
split_gain=2128.88 542.41 261.036 142.677 122.106 100.574 152.063 44.5572 47.5061 44.3065 20.152 10.7855 11.3653 7.61829 6.11502 4.12434 4.01799 3.05814 2.01624 1.32534 1.11591 1.03697 1.32222 0.690929 0.652562 0.529848 0.402934 0.410107 0.32026 0.153998
threshold=36.500000000000007 43.495000000000012 1.0000000180025095e-35 1.0000000180025095e-35 2329.2250000000004 1.0000000180025095e-35 1.0000000180025095e-35 38218.110000000008 544.05000000000007 -1291.9999999999998 -202.51499999999996 22527.385000000006 416.90500000000003 1.0000000180025095e-35 1.5000000000000002 1.0000000180025095e-35 5897.4450000000006 3.5000000000000004 5464.255000000001 185223.70000000004 216.50000000000003 56537.420000000006 87.500000000000014 6215.5000000000009 29.500000000000004 -1.0000000180025095e-35 1776.7900000000002 1.0000000180025095e-35 19697.860000000004 36.500000000000007
decision_type=2 2 2 2 2 2 2 2 10 8 2 2 2 2 2 10 10 2 2 2 10 2 2 10 2 10 2 2 2 2
left_child=1 2 9 4 -3 6 -2 8 -8 -1 -6 12 -10 14 -14 17 -9 -7 -15 23 -19 -18 -23 24 25 -17 27 -24 -26 -30
right_child=5 3 -4 -5 10 15 7 16 11 -11 -12 -13 13 18 -16 19 21 20 -20 -21 -22 22 26 -25 28 -27 -28 -29 29 -31
leaf_value=0.087837060499986866 0.074578506861960533 0.12610953754366092 0.26021894668061685 -0.04272891537273725 0.0024127107077642459 -0.023815498393058805 0.03400705941714019 -0.024192821740332451 0.015042324176085234 0.15771645370921061 0.05556412927273683 -0.043921490736527811 0.0062713830872928372 -0.024352202179870681 -0.023289326935528092 -0.038591243885513347 -0.034461190148508049 -0.034101888716063358 -0.043592959265792569 -0.038656667065359751 -0.047702351688299102 -0.037301328771408973 -0.048445481033937608 -0.039282046350428333 -0.04408213583058971 -0.048355702602912359 -0.05028522419061883 -0.03935927192616516 -0.050283049090119297 -0.048302768208089118
leaf_weight=39.755374149885029 42.815050707198679 60.324771175161004 62.092687998898327 32.853340014349669 35.026330439839512 33.991496342234313 50.391375663224608 32.553895129356533 26.778514873702079 52.822829512413591 36.330332523677498 39.257032297085971 31.813011999242008 25.041701931972057 38.870772156864405 29.926810723729432 28.426728472579271 24.71161150559783 29.840541700832546 42.989076736848801 38.704005300533026 42.349391221534461 27.164045385550708 22.718743875622749 32.244806872215122 25.930949982255697 63.778233884833753 22.877494162879884 191.06899814726785 201.9325233604759
leaf_count=4254 5783 7465 5601 5050 4682 5875 7717 5438 4400 5435 4804 6857 5215 4108 6524 5284 4937 4331 5117 7562 6843 7426 4802 4015 5728 4619 11310 4032 34136 36004
internal_value=0 0.113681 0.180905 0.0504873 0.0737439 -0.0323213 -0.0155421 -0.0239459 -0.00919107 0.127709 0.0294741 -0.0205522 -0.0145303 -0.020837 -0.00998479 -0.0453952 -0.0403887 -0.0359164 -0.0348138 -0.0470837 -0.0424026 -0.0432449 -0.0448437 -0.0478027 -0.0482051 -0.0431242 -0.0476501 -0.0442915 -0.0488725 -0.0492655
internal_weight=0 319.206 154.671 164.535 131.681 1146.18 501.958 459.143 241.993 92.5782 71.3567 191.602 152.345 125.566 70.6838 644.219 217.15 97.4071 54.8822 546.812 63.4156 184.596 156.169 503.823 481.104 55.8578 113.82 50.0415 425.246 393.002
internal_count=235354 37291 15290 22001 16951 198063 83666 77883 39938 9689 9486 32221 25364 20964 11739 114397 37945 17049 9225 97348 11174 32507 27570 89786 85771 9903 20144 8834 75868 70140
is_linear=0
shrinkage=0.05


Tree=3
num_leaves=31
num_cat=0
split_feature=109 31 36 25 74 54 31 25 10 25 11 118 36 84 58 25 154 136 59 131 111 27 84 55 125 150 5 120 88 55
split_gain=1760.4 382.728 317.331 457.889 260.677 99.6354 135.989 66.9817 38.7341 25.647 25.1557 22.482 17.8151 10.1867 8.11645 4.47465 4.23674 3.32994 3.30256 4.01911 3.16207 3.06056 2.40484 1.36859 1.15328 0.714702 0.678303 0.545247 0.461868 0.333567
threshold=36.500000000000007 2329.2250000000004 14347.140000000001 5464.255000000001 1.0000000180025095e-35 1.0000000180025095e-35 7370.8050000000012 23917.640000000003 -366.00499999999994 5464.255000000001 107.46500000000002 528.54000000000008 7618.7250000000013 35100.005000000012 1.0000000180025095e-35 56537.420000000006 1.0000000180025095e-35 -865.99999999999989 197.73500000000004 14.500000000000002 9.5000000000000018 3.5000000000000004 17550.585000000003 185223.70000000004 1.0000000180025095e-35 6215.5000000000009 29.500000000000004 -1.0000000180025095e-35 12892.975000000002 19697.860000000004
decision_type=2 2 2 2 2 2 2 2 2 2 2 8 2 2 2 2 10 10 2 8 2 2 2 2 8 10 2 10 2 2
left_child=1 2 3 4 -1 6 7 11 -3 12 -10 -2 14 -9 20 17 21 18 19 -11 -8 -7 -17 25 -23 26 27 -18 -24 -28
right_child=5 8 -4 -5 -6 16 9 13 10 15 -12 -13 -14 -15 -16 22 23 -19 -20 -21 -22 24 28 -25 -26 -27 29 -29 -30 -31
leaf_value=0.15260130651522685 0.09559852148621259 -0.015935119375631145 0.0089632535610094221 0.04516732089327663 0.29377881369254627 -0.023177900025365222 0.02684985776804201 0.015435379921467854 0.069557495380596857 -0.033194235669006582 0.012337830820036802 0.035820295114666618 -0.043402314991817736 -0.025264934749063512 -0.018952542558217822 -0.031828423181041184 -0.038125488294384315 -0.046595336079073221 -0.037931935605441169 -0.0047139776375112307 0.0019702046142503196 -0.047572972190292474 -0.049681973761849969 -0.038192590044487912 -0.033463905611702108 -0.038835174108563443 -0.043793486325876776 -0.048247848627559792 -0.042714624949631574 -0.04920109772198282
leaf_weight=79.726339471526444 32.199859829153866 42.025589621625841 42.785080878064036 60.677825533784926 55.430278117768466 33.20062957983464 25.269773221109062 28.126857330556959 42.460697156842798 23.395241409540176 35.075326840393245 30.747875096276402 29.058765104971826 33.90632624225691 28.701358243823051 29.812277743592858 28.806320426054299 27.07636687066406 36.421728630550206 26.327481480780989 25.819968256633729 37.021768978331238 84.700231828261167 41.376912161242217 23.791172069963068 21.85318607557565 30.869333058595657 24.720049836207181 33.074165322817862 374.31221858039498
leaf_count=7409 4548 5384 3795 7704 3824 5875 4046 4318 4293 4069 4882 4363 5183 5250 4704 5438 5284 4759 6432 4549 4165 6829 15726 7562 4345 4015 5728 4619 6116 70140
internal_value=0 0.0957372 0.132323 0.159274 0.210501 -0.0317376 -0.0150256 0.0300619 0.0227208 -0.0302696 0.0436728 0.0663988 -0.00988353 -0.00681075 0.00232353 -0.0387779 -0.0451582 -0.0313005 -0.0264932 -0.0181143 0.0142761 -0.0353875 -0.0445142 -0.0469181 -0.0420532 -0.0476694 -0.0480903 -0.0428003 -0.0477254 -0.0487891
internal_weight=0 358.181 238.62 195.834 135.157 1110.59 494.638 124.981 119.562 369.657 77.536 62.9477 108.85 62.0332 79.7911 260.807 615.952 113.221 86.1445 49.7227 51.0897 94.0136 147.587 521.938 60.8129 480.561 458.708 53.5264 117.774 405.182
internal_count=235354 37291 22732 18937 11233 198063 83666 18479 14559 65187 9175 8911 18098 9568 12915 47089 114397 19809 15050 8618 8211 17049 27280 97348 11174 89786 85771 9903 21842 75868
is_linear=0
shrinkage=0.05


Tree=4
num_leaves=31
num_cat=0
split_feature=109 54 31 8 74 54 31 21 150 10 25 36 25 8 25 154 136 59 117 27 84 55 129 150 5 120 88 55 100 142
split_gain=1480.11 308.844 297.116 150.501 157.516 98.5659 124.46 56.3704 41.2927 33.2971 25.0614 16.9371 13.3735 7.56681 4.53367 4.34852 3.3395 3.24002 3.53254 3.05854 2.46011 1.41231 1.18041 0.738858 0.704766 0.560645 0.480079 0.347313 0.16936 0.218208
threshold=36.500000000000007 1.0000000180025095e-35 2329.2250000000004 20241.465000000004 1.0000000180025095e-35 1.0000000180025095e-35 7370.8050000000012 7967.5550000000012 786.50000000000011 -366.00499999999994 5464.255000000001 7618.7250000000013 38218.110000000008 10267.380000000003 56537.420000000006 1.0000000180025095e-35 -865.99999999999989 197.73500000000004 533.1400000000001 3.5000000000000004 17550.585000000003 185223.70000000004 216.50000000000003 6215.5000000000009 29.500000000000004 -1.0000000180025095e-35 12892.975000000002 19697.860000000004 36.500000000000007 4.3550000000000013
decision_type=2 2 2 2 2 2 2 2 10 2 2 2 2 2 2 10 10 2 8 2 2 2 10 10 2 10 2 2 2 10
left_child=1 2 3 4 8 6 7 -2 -1 -4 11 13 -9 -8 16 19 17 18 -12 -7 -16 23 -21 24 25 -17 -22 -26 -29 -30
right_child=5 -3 9 -5 -6 15 10 12 -10 -11 14 -13 -14 -15 20 21 -18 -19 -20 22 26 -23 -24 -25 27 -27 -28 28 29 -31
leaf_value=0.088441929718280396 0.065573644630334521 -0.038642507997389802 -0.0099029206961052593 0.066301368194757099 0.21550381000218929 -0.0225429350785789 0.01881716460053812 0.025077875883223546 0.1509498407265957 0.049006699302382863 -0.0044432462781583623 -0.043088372841028982 -0.018570383548673221 -0.01203319691606209 -0.031229677284293808 -0.037648182345223699 -0.046408059226270615 -0.037449040517171441 -0.031345690580959477 -0.03287701047576496 -0.049639032737371365 -0.037716953893761174 -0.047430974637662819 -0.038376638972442416 -0.043494917910560531 -0.048136204139263651 -0.042376915770818605 -0.050256242839544989 -0.046711922958335289 -0.050257097616660619
leaf_weight=58.239318165928125 55.624723772983998 46.762236278038472 35.76325099915266 67.923690295312554 65.10560855595395 32.448408238589764 36.885371358133852 29.157040503807366 48.358915662858635 72.844773344229907 25.082429693080485 27.837923465762287 44.079056431073695 43.102454530075192 28.888320034369826 27.740113476291299 25.857185281347483 35.080969090107828 23.762652594130486 22.99986665463075 80.637312020175159 39.842846442013979 35.336335771717131 21.029549344442785 29.560356907080859 23.567620437126607 31.705580279231071 173.16014478961006 112.82018875610083 70.544692389201373
leaf_count=5038 7562 6437 4480 5497 3882 5875 5938 4020 4003 7954 4359 5183 6897 6977 5438 5284 4759 6432 4259 4331 15726 7562 6843 4015 5728 4619 6116 34136 22143 13861
internal_value=0 0.0820086 0.09821 0.129303 0.154225 -0.0311477 -0.0145222 0.0276279 0.116799 0.0296085 -0.0296584 -0.00949748 -0.00119297 0.00219306 -0.0383187 -0.0449127 -0.0306972 -0.0258567 -0.017531 -0.0348483 -0.0442432 -0.0467464 -0.0416929 -0.0475312 -0.0479714 -0.0424657 -0.0475895 -0.048703 -0.0491348 -0.0480758
internal_weight=0 394.998 348.236 239.628 171.704 1076.75 487.701 128.861 106.598 108.608 358.84 107.826 73.2361 79.9878 251.014 589.05 109.783 83.9261 48.8451 90.7846 141.231 498.266 58.3362 458.423 437.393 51.3077 112.343 386.085 356.525 183.365
internal_count=235354 37291 30854 18420 12923 198063 83666 18479 9041 12434 65187 18098 10917 12915 47089 114397 19809 15050 8618 17049 27280 97348 11174 89786 85771 9903 21842 75868 70140 36004
is_linear=0
shrinkage=0.05


Tree=5
num_leaves=31
num_cat=0
split_feature=109 21 138 12 54 30 25 154 10 25 36 10 27 59 154 139 128 27 55 125 25 109 150 5 120 77 87 55 100 142
split_gain=1265.45 212.768 152.82 103.594 97.3998 116.125 40.2977 37.2117 28.2253 25.8753 10.2044 10.6811 10.4819 4.62792 4.45933 3.92533 3.47536 3.05201 1.45643 1.21789 1.08697 1.46375 0.763357 0.73194 0.576 0.456017 0.454428 0.361502 0.177351 0.227939
threshold=36.500000000000007 2687.5300000000002 2409.4900000000002 6.5000000000000009 1.0000000180025095e-35 1.0000000180025095e-35 38218.110000000008 544.05000000000007 -75.874999999999986 23917.640000000003 22527.385000000006 -366.00499999999994 1.0000000180025095e-35 31.730000000000004 1.0000000180025095e-35 5897.4450000000006 1.1600000000000001 3.5000000000000004 185223.70000000004 1.0000000180025095e-35 56537.420000000006 87.500000000000014 6215.5000000000009 29.500000000000004 -1.0000000180025095e-35 1776.7900000000002 1.0000000180025095e-35 19697.860000000004 36.500000000000007 4.3550000000000013
decision_type=2 2 10 2 2 2 2 10 2 2 2 2 2 2 10 10 8 2 2 8 2 2 10 2 10 2 2 2 2 10
left_child=1 2 3 -1 5 -2 7 -7 -3 -10 11 13 -13 16 17 -8 -9 -6 22 -19 -17 -22 23 24 -16 26 -23 -25 -29 -30
right_child=4 8 -4 -5 14 6 15 10 9 -11 -12 12 -14 -15 18 20 -18 19 -20 -21 21 25 -24 27 -26 -27 -28 28 29 -31
leaf_value=0.15026200128891604 0.059022474001857832 -0.01220733335829241 0.03467327039687914 0.080131268078725268 -0.021911373699785255 0.027853422704191017 -0.022882736323675566 -0.029849679204596399 0.058993674600289626 0.0075865859462551062 -0.043255902982314354 0.02109306998746642 -0.018928580217843861 -0.040643348978009766 -0.03715942286304242 -0.032893294830251898 -0.0038015456640601514 -0.047292649722669555 -0.037229847076948715 -0.032212746039447085 -0.035669951027170771 -0.048139341587288775 -0.037906480595414294 -0.043186168334520714 -0.048020538682723234 -0.050248302337531574 -0.037947538243199561 -0.050243685923057793 -0.04653236855234702 -0.050244495997106536
leaf_weight=114.2825008421205 48.877557628788054 43.214817428961396 74.444222122430801 97.65229455800727 31.732967543881387 54.335595212876797 31.013854491058737 24.454455992672592 55.22999464487657 43.962608003057539 35.669498056638986 33.611887536011636 31.875045793130994 31.133941946085542 26.725585621315986 25.90322572318837 26.881047286093235 33.812602435704321 38.38313010847196 22.16672133654356 37.704845147673041 23.695151922758669 20.245821497868747 28.314694063272327 22.470867702737451 55.570349012035877 20.313230205327272 164.75515793403611 107.72168187005445 67.120594177395105
leaf_count=6899 5783 6071 6904 6077 5875 7717 5438 4209 5698 5642 6857 5541 5417 5676 5284 4937 4521 6829 7562 4345 7426 4802 4015 5728 4619 11310 4032 34136 22143 13861
internal_value=0 0.0714639 0.0963009 0.117948 -0.0305506 -0.0140259 -0.0222876 -0.00849461 0.0215172 0.0362098 -0.0192501 -0.0134628 0.00161297 -0.0254341 -0.0446584 -0.0391887 -0.01621 -0.0342991 -0.0465683 -0.0413213 -0.0422877 -0.0440603 -0.0473879 -0.0478481 -0.0421203 -0.0472372 -0.043435 -0.048614 -0.0490666 -0.0479574
internal_weight=0 428.786 286.379 211.935 1044.49 481.04 432.162 237.961 142.407 99.1926 183.626 147.956 65.4869 82.4694 563.45 194.201 51.3355 87.7123 475.738 55.9793 163.187 137.284 437.354 417.109 49.1965 99.5787 44.0084 367.912 339.597 174.842
internal_count=235354 37291 19880 12976 198063 83666 77883 39938 17411 11340 32221 25364 10958 14406 114397 37945 8730 17049 97348 11174 32507 27570 89786 85771 9903 20144 8834 75868 70140 36004
is_linear=0
shrinkage=0.05


Tree=6
num_leaves=31
num_cat=0
split_feature=109 21 30 54 31 99 25 10 25 84 109 36 84 58 8 154 25 0 136 59 117 28 125 84 55 150 5 120 88 55
split_gain=1095.73 158.334 110.951 96.1272 106.567 81.9387 44.2291 24.3121 24.1663 21.7248 18.2162 15.7643 8.95701 7.0692 12.5326 4.5688 4.51316 4.27451 3.40334 3.16206 3.34729 3.04819 2.78038 2.61525 1.50083 0.788158 0.759805 0.591263 0.520314 0.376131
threshold=36.500000000000007 2687.5300000000002 2.5000000000000004 1.0000000180025095e-35 7370.8050000000012 1.0000000180025095e-35 23917.640000000003 -75.874999999999986 5464.255000000001 9989.4600000000009 63.500000000000007 7618.7250000000013 35100.005000000012 1.0000000180025095e-35 10267.380000000003 1.0000000180025095e-35 56537.420000000006 30703180.500000004 -865.99999999999989 197.73500000000004 533.1400000000001 3738.1650000000004 1.0000000180025095e-35 17550.585000000003 185223.70000000004 6215.5000000000009 29.500000000000004 -1.0000000180025095e-35 12892.975000000002 19697.860000000004
decision_type=2 2 2 2 2 2 2 2 2 2 2 2 2 2 2 10 2 2 10 2 8 2 8 2 2 10 2 10 2 2
left_child=1 2 5 4 6 17 10 -3 11 -9 -2 13 -8 14 -6 21 18 -1 19 20 -10 -5 -23 -18 25 26 27 -17 -25 -28
right_child=3 7 -4 15 8 -7 12 9 16 -11 -12 -13 -14 -15 -16 24 23 -19 -20 -21 -22 22 -24 28 -26 -27 29 -29 -30 -31
leaf_value=0.083785448437600454 0.074711424550476593 -0.011740904970130686 0.024326482806409672 -0.019479227101856941 0.03843782510197391 0.13413770864821864 0.013336051825637503 0.052488951328693502 -0.0037496524831155636 0.0058331320649939828 0.024680577904035706 -0.042525342607257141 -0.024694292385756503 -0.01794455117218868 -0.0107287840258447 -0.036659347211091299 -0.029794979778733889 0.067109761630027576 -0.04613258366868811 -0.036631598379843755 -0.030370891501224486 -0.04883576828283067 -0.026599629049531712 -0.049555273315338523 -0.036731398963709541 -0.03742477877935442 -0.042866986719490019 -0.04790063700214256 -0.041658433828250935 -0.048996242117636209
leaf_weight=76.339499270077795 37.552437760401517 42.698471845593303 64.044128416571766 25.985978832934052 25.348107883706689 96.689326820895076 29.046625869348645 60.178000507410616 24.710608025547117 42.623021999839693 35.292747259140015 25.876478563062847 33.154924503527582 27.814947123639286 26.522608249913901 25.760256716515869 26.88854594156146 77.383498707320541 24.236364337150007 33.017560200765729 22.614333468489349 35.549359245225787 23.253794317599386 73.46444903453812 36.994201889261603 19.500089418143034 27.129310753196478 21.427124089095742 29.13043832173571 323.48789589712396
leaf_count=4009 4398 6071 5923 4958 3960 5846 4318 6311 4359 5029 4513 5183 5250 4704 4251 5284 5438 4102 4759 6432 4259 7421 4670 15726 7562 4015 5728 4619 6116 70140
internal_value=0 0.0630995 0.0830544 -0.0299475 -0.0135394 0.0980743 0.0240307 0.0199725 -0.0284786 0.0331447 0.050472 -0.00861826 -0.00693504 0.00239245 0.0132979 -0.044395 -0.0374356 0.075391 -0.0297101 -0.024756 -0.0164707 -0.0337403 -0.0400425 -0.0436753 -0.0463836 -0.0472392 -0.0477203 -0.0417639 -0.0473131 -0.048522
internal_weight=0 459.956 314.456 1013.76 474.671 250.412 135.047 145.499 339.624 102.801 72.8452 105.562 62.2016 79.6857 51.8707 539.088 234.062 153.723 104.579 80.3425 47.3249 84.7891 58.8032 129.483 454.299 417.305 397.805 47.1874 102.595 350.617
internal_count=235354 37291 19880 198063 83666 13957 18479 17411 65187 11340 8911 18098 9568 12915 8211 114397 47089 8111 19809 15050 8618 17049 12091 27280 97348 89786 85771 9903 21842 75868
is_linear=0
shrinkage=0.05


Tree=7
num_leaves=31
num_cat=0
split_feature=109 36 134 10 54 31 75 21 11 129 25 36 12 10 19 154 25 136 59 117 27 84 55 83 150 5 120 88 55 100
split_gain=956.965 142.882 253.906 145.233 94.7361 97.868 41.6903 39.0989 38.7809 23.6795 23.5072 14.9508 11.2274 6.4729 8.82606 4.67637 4.55632 3.40074 3.08801 3.18095 3.05496 2.66716 1.54542 1.28462 0.813212 0.788339 0.606384 0.54011 0.391197 0.194968
threshold=36.500000000000007 22527.385000000006 8.0000000000000018 1.0000000180025095e-35 1.0000000180025095e-35 7370.8050000000012 1359.6500000000003 7967.5550000000012 256.55500000000006 741.50000000000011 5464.255000000001 7618.7250000000013 7.5000000000000009 -1171.0149999999996 -500.98499999999996 1.0000000180025095e-35 56537.420000000006 -865.99999999999989 197.73500000000004 533.1400000000001 3.5000000000000004 17550.585000000003 185223.70000000004 2.5000000000000004 6215.5000000000009 29.500000000000004 -1.0000000180025095e-35 12892.975000000002 19697.860000000004 36.500000000000007
decision_type=2 2 8 2 2 2 2 2 2 8 2 2 2 2 2 10 2 10 2 8 2 2 2 2 10 2 10 2 2 2
left_child=1 2 3 8 5 7 -5 -2 9 -1 11 13 -9 -7 -15 20 17 18 19 -12 -6 -18 24 -22 25 26 -17 -23 -27 -30
right_child=4 -3 -4 6 15 10 -8 12 -10 -11 16 -13 -14 14 -16 22 21 -19 -20 -21 23 27 -24 -25 -26 28 -28 -29 29 -31
leaf_value=0.013437448430176545 0.051082740117614045 -0.014192191520515511 0.16986035189894988 0.063929035157578265 -0.020569943711679504 -0.018666357936687687 0.11444549159627647 0.014264431250594373 -0.009740553741839679 0.053991386774649208 -0.0035757468430311166 -0.042182385038283574 -0.024962308721118438 -0.0094109097520301346 0.030861442245246687 -0.036148130636793389 -0.029175177500728913 -0.04592812592849542 -0.036118983256681586 -0.029755789688899099 -0.047006433480898391 -0.049509617535285003 -0.036221786056920745 -0.030922234801660748 -0.036931649308008567 -0.042537135771762283 -0.047776257245737662 -0.041287048183842739 -0.050220663774634217 -0.047704132784108788
leaf_weight=59.275647651404142 63.530255186371505 62.794593165628612 52.231307457201183 87.895432104356587 30.3124441774562 25.281161711551249 76.293295793235302 43.315974265802652 59.013104629702866 91.650651641190052 24.619182016700506 24.809597028885037 31.511442725546658 25.668784897308797 28.947282226756215 24.841764136683196 26.106838239822537 23.154418068472296 31.841839285101742 21.944885946344584 30.984333880245686 69.944382350891829 35.672654536552727 20.713013311382383 18.790527362842113 26.001316633541137 20.43385315220803 27.952758744359016 149.32679940480739 158.8299627690576
leaf_count=5137 7562 4606 2589 5773 5875 4166 3758 6127 7939 7489 4359 5183 4790 4135 4614 5284 5438 4759 6432 4259 6696 15726 7562 4478 4015 5728 4619 6116 34136 36004
internal_value=0 0.0562223 0.066593 0.0521761 -0.02934 -0.0130664 0.0874024 0.0222364 0.0246263 0.038064 -0.0278555 -0.00827689 -0.0022548 0.00225141 0.011934 -0.0441223 -0.0369439 -0.0290916 -0.0241195 -0.015914 -0.0331726 -0.043375 -0.0461918 -0.0405622 -0.0470849 -0.0475877 -0.0413962 -0.0471618 -0.0484267 -0.0489236
internal_weight=0 489.154 426.359 374.128 984.535 468.629 164.189 138.358 209.939 150.926 330.271 104.707 74.8274 79.8972 54.6161 515.907 225.564 101.56 78.4059 46.5641 82.0098 124.004 433.897 51.6973 398.224 379.434 45.2756 97.8971 334.158 308.157
internal_count=235354 37291 32685 30096 198063 83666 9531 18479 20565 12626 65187 18098 10917 12915 8749 114397 47089 19809 15050 8618 17049 27280 97348 11174 89786 85771 9903 21842 75868 70140
is_linear=0
shrinkage=0.05


Tree=8
num_leaves=31
num_cat=0
split_feature=109 36 134 10 54 30 25 11 75 25 154 129 36 77 58 154 120 84 154 27 25 55 86 129 150 5 120 25 55 100
split_gain=840.373 115.565 171.071 111.259 93.2567 91.0736 36.2079 33.1803 28.8868 28.1717 19.3646 19.2091 10.338 9.40715 6.87417 4.78202 4.62347 3.55403 3.16985 3.03428 2.27596 1.59009 1.46572 1.32969 0.83847 0.81752 0.621312 0.451563 0.406697 0.204092
threshold=36.500000000000007 22527.385000000006 8.0000000000000018 1.0000000180025095e-35 1.0000000180025095e-35 2.5000000000000004 23917.640000000003 256.55500000000006 1359.6500000000003 38218.110000000008 544.05000000000007 741.50000000000011 22527.385000000006 416.90500000000003 1.0000000180025095e-35 1.0000000180025095e-35 11464.200000000003 26075.760000000006 1632.1500000000003 3.5000000000000004 56537.420000000006 185223.70000000004 8482.5200000000023 216.50000000000003 6215.5000000000009 29.500000000000004 -1.0000000180025095e-35 111267.88000000002 19697.860000000004 36.500000000000007
decision_type=2 2 8 2 2 2 2 2 2 2 10 8 2 2 2 10 8 2 10 2 2 2 2 10 10 2 10 2 2 2
left_child=1 2 3 7 5 6 -2 11 -5 10 -7 -1 13 -12 16 19 -15 18 -11 -6 -19 24 -16 -21 25 26 -17 -22 -27 -30
right_child=4 -3 -4 8 15 9 -8 -9 -10 17 12 -13 -14 14 22 21 -18 20 -20 23 27 -23 -24 -25 -26 28 -28 -29 29 -31
leaf_value=0.012595326809481697 0.059893554327467791 -0.013674011976012746 0.13679154630002849 0.057021429445428908 -0.019953973819461665 0.019143298700497073 -0.0030685951503949685 -0.0093449794391428833 0.097299369001266345 -0.012759375487445929 0.014005234199436722 0.048607563042530354 -0.045365889607345056 -0.026278353983537374 -0.042373499790170258 -0.035625990270801676 0.00088594963751448632 -0.027675367789911538 -0.039751485270024353 -0.030164646847834299 -0.042170160578112612 -0.035701213489376805 -0.024607147882259123 -0.046855647290092645 -0.036427243478371639 -0.04219639485808728 -0.047647165796081511 -0.049470623788236259 -0.050209856021190671 -0.047571804425247874
leaf_weight=60.056096283718944 51.183369824197143 61.937778710853308 61.339498885441571 93.461495948024094 29.701561591587961 40.997049282770604 41.225941096898168 58.45027087116614 84.999168959446251 20.001221538987011 25.651796115096658 96.576249773148447 30.773214384913445 24.980504075530916 25.317154844757169 23.967855062801391 42.002168891020119 17.723163479473442 23.842942218761891 19.932452625595033 31.048823287244886 34.41525251744315 21.440184536390007 29.729777382221073 18.115397320128977 24.927955197636038 19.488633610773832 66.650551273487508 142.07384985359386 151.49354160344228
leaf_count=5137 5459 4606 2589 5773 5875 5791 5963 7939 3758 3988 4186 7489 6583 4341 4786 5284 7151 3679 5105 4331 7096 7562 4229 6843 4015 5728 4619 15309 34136 36004
internal_value=0 0.0504005 0.059125 0.0470195 -0.0287271 -0.0126018 0.0318047 0.0228031 0.0762054 -0.0236797 -0.0117046 0.0347997 -0.0191366 -0.0133461 -0.0195146 -0.0438398 -0.0092447 -0.0395567 -0.027438 -0.0325958 -0.0441601 -0.0459928 -0.0342269 -0.0401565 -0.0469247 -0.0474501 -0.041017 -0.0471505 -0.0483279 -0.0488485
internal_weight=0 516.821 454.883 393.543 956.684 462.838 92.4093 215.083 178.461 370.429 211.162 156.632 170.165 139.392 113.74 493.846 66.9827 159.267 43.8442 79.3638 115.423 414.482 46.7573 49.6622 380.067 361.952 43.4565 97.6994 318.495 293.567
internal_count=235354 37291 32685 30096 198063 83666 11422 20565 9531 72244 37067 12626 31276 24693 20507 114397 11492 35177 9093 17049 26084 97348 9015 11174 89786 85771 9903 22405 75868 70140
is_linear=0
shrinkage=0.05


Tree=9
num_leaves=31
num_cat=0
split_feature=109 54 30 99 54 31 154 8 25 36 10 19 154 10 31 25 149 125 86 154 11 84 115 0 8 5 55 106 82 19
split_gain=750.707 210.367 138.625 64.0533 51.3004 51.8601 46.2122 31.2253 18.0739 13.7657 12.2958 9.79756 9.68699 8.72531 5.18296 3.8982 3.47917 2.7805 2.95634 2.74852 2.53731 2.42965 1.27108 0.894969 0.603921 0.491709 0.502109 0.434175 0.296626 0.527175
threshold=50.500000000000007 1.0000000180025095e-35 1.0000000180025095e-35 1.0000000180025095e-35 1.0000000180025095e-35 2329.2250000000004 544.05000000000007 13319.465000000002 5464.255000000001 7618.7250000000013 -366.00499999999994 -500.98499999999996 1632.1500000000003 -567.71499999999992 7370.8050000000012 56537.420000000006 153.77500000000001 1.0000000180025095e-35 21885.255000000001 544.05000000000007 1354.6250000000002 26075.760000000006 -652.49999999999989 46926383.500000007 10267.380000000003 61.500000000000007 185223.70000000004 26765.210000000003 233.99000000000004 -277.26499999999993
decision_type=2 2 2 2 2 2 10 2 2 2 2 2 8 2 2 2 8 8 2 10 2 2 8 2 2 2 2 2 2 2
left_child=1 2 3 11 5 -2 7 -4 9 13 -8 -1 -12 -7 -10 17 -3 18 -16 20 22 -17 24 25 -6 26 28 -23 -21 -30
right_child=4 16 6 -5 19 8 10 -9 14 -11 12 -13 -14 -15 15 21 -18 -19 -20 23 -22 27 -24 -25 -26 -27 -28 -29 29 -31
leaf_value=0.065331977809460484 0.023970269737401816 -0.048985015567160367 0.067550568904012037 0.099779769440037996 -0.050216379491354803 -0.017080221282953979 -0.017852499169652102 0.018176262019295907 -0.015544066082739139 -0.041871682335844373 0.032253004634084238 0.042243317564788628 -0.0023068166173300523 0.017681276071701505 -0.032978669248569216 -0.030737106206154014 -0.027750219908175063 -0.042975565555622375 -0.010055758620151132 -0.049561065106287987 -0.022726627076003494 -0.050204107833862394 -0.033306175431931054 -0.03657603604676956 -0.039702648213524684 -0.03891563765041646 -0.041015109876528684 -0.041130196278576787 -0.040720139655487007 -0.048338955623635459
leaf_weight=90.083580877631903 59.128837518859655 37.595722587313503 67.56036327406764 126.51307164132595 32.086616641376168 33.109120497480035 49.114129893481731 60.874707384500653 30.203378132078797 23.884519020561129 38.017515888437629 93.780098186805844 43.449315459001809 39.694290856365114 34.73995723342523 25.656023155897856 39.614849223289639 27.523347587324679 23.634739807806909 155.85105104185641 23.645445121452212 65.297040534205735 32.51032733079046 22.006198019720614 23.782160855829716 17.708711203653365 27.155450202524662 16.51789970882237 31.634518998675048 80.435678316745907
leaf_count=3085 7065 7042 5189 7172 7524 5597 6842 5367 5120 5125 4196 5566 4564 6075 7116 5742 5402 5805 4816 38785 5551 16134 7370 5329 5618 4269 6188 3944 7844 19912
internal_value=0 0.0393576 0.0498596 0.0723971 -0.0325733 -0.0190523 0.0228532 0.0441485 -0.0269954 -0.00893338 0.00190793 0.0535556 0.013821 0.00187264 -0.0348067 -0.0378154 -0.03809 -0.0298747 -0.0236976 -0.0440539 -0.0372745 -0.0441622 -0.0411668 -0.0463223 -0.0457409 -0.047008 -0.0474936 -0.0483721 -0.0481503 -0.0461884
internal_weight=0 646.603 569.393 310.377 826.205 379.389 259.016 128.435 320.26 96.6879 130.581 183.864 81.4668 72.8034 223.572 193.369 77.2106 85.898 58.3747 446.816 112.025 107.471 88.3791 334.792 55.8688 312.785 295.077 81.8149 267.921 112.07
internal_count=235354 54425 41981 15823 180929 72539 26158 10556 65474 16797 15602 8651 8760 11672 48677 43557 12444 17737 11932 108390 26063 25820 20512 82327 13142 76998 72729 20078 66541 27756
is_linear=0
shrinkage=0.05


Tree=10
num_leaves=31
num_cat=0
split_feature=109 54 36 30 99 54 30 10 25 154 25 25 86 138 28 10 84 149 154 55 87 115 9 0 5 55 106 100 82 31
split_gain=673.4 180.771 119.027 139.759 62.6697 50.9885 47.9361 42.6504 26.161 20.1026 16.4144 16.0041 9.37722 9.25775 6.01722 5.72268 4.78512 3.52767 2.82276 2.60037 1.75839 1.33735 1.23832 0.921193 0.507906 0.520476 0.392248 0.346175 0.309602 0.547795
threshold=50.500000000000007 1.0000000180025095e-35 22527.385000000006 1.0000000180025095e-35 1.0000000180025095e-35 1.0000000180025095e-35 2.5000000000000004 -366.00499999999994 13292.890000000001 251.55000000000001 56537.420000000006 23917.640000000003 76867.24500000001 10704.515000000001 1099.6300000000003 -567.71499999999992 26075.760000000006 153.77500000000001 544.05000000000007 118981.50000000001 1.0000000180025095e-35 -652.49999999999989 416.18500000000006 46926383.500000007 61.500000000000007 185223.70000000004 33940.235000000008 36.500000000000007 233.99000000000004 29227.885000000002
decision_type=2 2 2 2 2 2 2 2 2 10 2 2 2 10 2 2 2 8 10 2 2 10 2 2 2 2 2 2 2 2
left_child=1 2 3 4 -1 6 11 -5 9 -9 12 -2 13 -8 15 -15 -12 -3 19 21 -16 22 27 24 25 28 -18 -7 -20 -30
right_child=5 17 -4 7 -6 18 10 8 -10 -11 16 -13 -14 14 20 -17 26 -19 23 -21 -22 -23 -24 -25 -26 -27 -28 -29 29 -31
leaf_value=0.057406484566455356 0.042804897830659161 -0.048904074502312121 -0.014637846407040354 -0.011760542875249183 0.10523725179915891 -0.050209287721440038 -0.0021536199233434176 0.070138339040842143 0.005656338029415009 0.031455136702131417 -0.024345177594915418 -0.0057880890449263471 0.012535163851222317 -0.03425637867623723 -0.032744055045394654 -0.0048621613899689307 -0.049480884102893218 -0.027110027599872674 -0.049518925811956951 -0.01931487807317267 -0.050255892079306454 -0.028060074976342504 -0.032690655884745984 -0.036064908363515349 -0.038463209263990966 -0.040624167455878248 -0.040776835517797642 -0.04156265816615827 -0.042947761792822198 -0.050194713069647158
leaf_weight=164.2113046888262 35.367510978598148 35.819873927161098 73.264929850585759 58.157097323797643 117.47515736892819 34.778416142333299 43.589976498857141 60.17557156085968 48.108621823601425 76.004885854199529 28.974611600395292 32.528451385907829 22.293133841827512 31.239921753760427 31.407203352078795 35.233128040563315 69.500707928324118 38.550188272725791 148.3731235852465 17.798951759701595 26.371073008980602 18.059719525277615 19.977668285369873 21.222172152251005 17.038229152094573 26.073433784767985 15.905983923934398 17.350458249915391 62.098091486142948 44.953316965373233
leaf_count=6840 3692 7042 5763 7827 5807 8435 7058 3310 6074 6360 6438 4748 4416 6185 6365 6780 17623 5402 38785 4189 5347 4387 4822 5329 4269 6188 3887 4230 16113 11643
internal_value=0 0.035905 0.0450565 0.0534007 0.0773539 -0.0319927 -0.0184659 0.0255707 0.0373515 0.0485485 -0.0269364 0.0195244 -0.0179326 -0.0219794 -0.0289347 -0.0186764 -0.0419032 -0.037607 -0.0437702 -0.03678 -0.0407368 -0.0402276 -0.043275 -0.0461305 -0.046846 -0.0473534 -0.0478599 -0.0473314 -0.0480403 -0.0459909
internal_weight=0 671.768 597.398 524.133 281.686 800.135 372.412 242.446 184.289 136.18 304.516 67.896 190.134 167.841 124.251 66.473 114.381 74.3701 427.724 107.965 57.7783 90.1663 72.1065 319.758 298.536 281.498 85.4067 52.1289 255.425 107.051
internal_count=235354 54425 41981 36218 12647 180929 72539 23571 15744 9670 64099 8440 36151 31735 24677 12965 27948 12444 108390 26063 11712 21874 17487 82327 76998 72729 21510 12665 66541 27756
is_linear=0
shrinkage=0.05


Tree=11
num_leaves=31
num_cat=0
split_feature=109 54 36 30 12 54 31 10 12 8 19 25 19 25 149 154 125 86 11 84 115 0 8 5 27 106 85 85 120 27
split_gain=605.744 156.505 98.8986 108.198 56.2373 50.6031 45.2753 36.5686 23.7959 18.4769 15.1216 14.5946 5.60575 3.90364 3.57272 2.89625 2.82142 2.93785 2.60049 2.51658 1.33029 0.947429 0.646988 0.526608 0.516973 0.469189 0.425158 0.83256 0.265848 0.513508
threshold=50.500000000000007 1.0000000180025095e-35 22527.385000000006 1.0000000180025095e-35 6.5000000000000009 1.0000000180025095e-35 7370.8050000000012 -366.00499999999994 7.5000000000000009 13319.465000000002 -51.374999999999993 5464.255000000001 -843.94499999999982 56537.420000000006 153.77500000000001 544.05000000000007 1.0000000180025095e-35 5265.6250000000009 1354.6250000000002 26075.760000000006 -652.49999999999989 46926383.500000007 10267.380000000003 57.500000000000007 4.5000000000000009 26765.210000000003 6.5000000000000009 9.5000000000000018 520.96000000000015 7.5000000000000009
decision_type=2 2 2 2 2 2 2 2 2 2 2 2 2 2 8 10 8 2 2 2 8 2 2 2 2 2 2 2 8 2
left_child=1 2 3 4 -1 6 8 -5 -2 -9 -11 12 -8 16 -3 18 17 -13 20 -15 22 23 -7 26 -25 -21 28 -28 29 -17
right_child=5 14 -4 7 -6 15 11 9 -10 10 -12 13 -14 19 -16 21 -18 -19 -20 25 -22 -23 -24 24 -26 -27 27 -29 -30 -31
leaf_value=0.086875249733950527 0.02945878140972491 -0.048820675612439579 -0.014109738749816102 -0.011305762804718421 0.043367181105990277 -0.050197215886004502 -0.025786631215331604 0.049187688449509916 -0.019268174254013899 0.037506740664364213 -0.0030321809139412094 -0.036680914101276767 0.00064235807006506301 -0.029638236232101951 -0.026467891836653643 -0.050184741664638627 -0.042493325191745729 -0.0132448029286997 -0.021179368108400737 -0.050184853544398937 -0.03212645086566298 -0.035542822134001638 -0.038853270293139536 -0.034073554647761954 -0.046975106953102613 -0.040343262921793001 -0.037415636381994459 -0.050189048745108614 -0.049289730671752324 -0.038093887471919961
leaf_weight=172.70978628471494 62.58530485117808 34.129674750613049 72.23358734883368 57.489077742211521 130.31057530082762 29.259484211215749 36.7597914817743 98.898480917327106 41.782997013535351 47.98098476184532 44.18880207836628 22.131367711117491 44.174549150746316 24.300801947247237 37.537230349844322 18.719644071767107 25.858939221128821 33.786005302099511 22.394283315399662 59.177778958110139 30.415611319011077 20.476243278943002 22.034913868177682 15.510647476883607 15.548125301022081 15.226324561052023 27.403527365764603 23.867537435842678 167.38641736726277 16.541311832377687
leaf_count=6475 7903 7042 5763 7827 6172 7524 7150 7384 6023 3327 5033 4796 7906 5742 5402 5109 5805 7136 5551 16134 7370 5329 5618 4089 4112 3944 7368 6374 45433 4513
internal_value=0 0.0328647 0.0409041 0.0481087 0.0681651 -0.031405 -0.0178887 0.0236575 0.00995134 0.0341774 0.0180712 -0.0290036 -0.0113615 -0.036915 -0.0371129 -0.0434766 -0.0288362 -0.0225205 -0.0362743 -0.0436082 -0.0404114 -0.0459313 -0.0453241 -0.0466777 -0.0405321 -0.0481708 -0.0474294 -0.0433619 -0.0484585 -0.0445128
internal_weight=0 695.478 623.811 551.578 303.02 775.342 365.784 248.557 104.368 191.068 92.1698 261.416 80.9343 180.481 71.6669 409.558 81.7763 55.9174 104.104 98.7049 81.71 305.453 51.2944 284.977 31.0588 74.4041 253.918 51.2711 202.647 35.261
internal_count=235354 54425 41981 36218 12647 180929 72539 23571 13926 15744 8360 58613 15056 43557 12444 108390 17737 11932 26063 25820 20512 82327 13142 76998 8201 20078 68797 13742 55055 9622
is_linear=0
shrinkage=0.05


Tree=12
num_leaves=31
num_cat=0
split_feature=109 54 36 31 32 54 31 8 150 12 25 23 141 118 141 19 25 149 154 125 86 55 84 115 9 0 5 27 106 85
split_gain=546.464 136.455 82.9535 89.5728 77.1652 50.154 42.413 38.0533 43.1165 21.1764 14.2489 10.8688 10.1881 9.15072 5.45852 6.01058 3.93669 3.6141 2.96889 2.80068 2.85447 2.65231 2.56894 1.37659 1.31067 0.973607 0.544662 0.527741 0.487283 0.441752
threshold=50.500000000000007 1.0000000180025095e-35 22527.385000000006 4897.3700000000017 1.0000000180025095e-35 1.0000000180025095e-35 7370.8050000000012 16571.210000000003 786.50000000000011 6.5000000000000009 5464.255000000001 234.83500000000001 8327.6800000000021 1.0000000180025095e-35 27995.595000000005 -500.98499999999996 56537.420000000006 153.77500000000001 544.05000000000007 1.0000000180025095e-35 5265.6250000000009 118981.50000000001 26075.760000000006 -652.49999999999989 416.18500000000006 46926383.500000007 57.500000000000007 4.5000000000000009 26765.210000000003 6.5000000000000009
decision_type=2 2 2 2 2 2 2 2 10 2 2 2 10 8 10 2 2 8 10 8 2 2 2 10 2 2 2 2 2 2
left_child=1 2 3 4 -1 6 9 8 -6 -2 14 12 -5 -11 15 -8 19 -3 21 20 -12 23 -18 24 -7 26 29 -28 -24 -20
right_child=5 17 -4 11 7 18 10 -9 -10 13 16 -13 -14 -15 -16 -17 22 -19 25 -21 -22 -23 28 -25 -26 -27 27 -29 -30 -31
leaf_value=0.089783643717461642 0.042744986882027949 -0.048734638774035013 -0.013593634252253593 0.003571430560340723 0.025570574284553907 -0.047053682326518 -0.036003795423843139 0.016108084796882794 0.070077512445630749 0.0096252008892860636 -0.036170710833111137 -0.016240193162999472 0.036771552789232047 -0.026236397751464538 0.0080566266398365317 -0.0027224511956385968 -0.029018316520819033 -0.025824576260543797 -0.04836464097245622 -0.042151162345864093 -0.01275308836704836 -0.017709278695397228 -0.050175805629653104 -0.026744282655300503 -0.031424013649960239 -0.035010038152416594 -0.033512742664530908 -0.046812854762666271 -0.039933150136063821 -0.043053777774785078
leaf_weight=114.2762168655172 32.722479906864464 32.521038688719273 71.25275701424107 60.870100423693657 87.650883154943585 47.804298577364534 28.046925204340369 98.645183430518955 143.51313263690099 41.648163729347289 21.341508340789005 35.114889081567526 37.247470326721668 31.050232336856425 25.714267963310704 26.275201517390087 23.59700234234333 36.573502556886524 193.13002064684406 24.792472237488255 33.345699274213985 16.925326960394159 56.301539442734793 17.055509775876999 18.644651110982522 19.766575240995735 14.994880023645239 14.839819964487104 14.62875623302534 49.111989481374621
leaf_count=3978 3846 7042 5763 6001 4163 12665 5553 5804 6602 5713 4796 5052 4618 4367 4852 4651 5742 5402 55055 5805 7136 4189 16134 4387 4822 5329 4089 4112 3944 13742
internal_value=0 0.0301899 0.0373061 0.0435881 0.0543757 -0.0308097 -0.0173184 0.0421071 0.0532017 0.009343 -0.0283821 0.00763153 0.0161749 -0.00569166 -0.010922 -0.0199059 -0.036413 -0.0366078 -0.0431727 -0.0282114 -0.0218917 -0.0357576 -0.0433091 -0.0394158 -0.0426682 -0.0457244 -0.0465028 -0.0401282 -0.0480633 -0.0472879
internal_weight=0 717.665 648.571 577.318 444.085 751.737 359.464 329.809 231.164 105.421 254.043 133.232 98.1176 72.6984 80.0364 54.3221 174.007 69.0945 392.273 79.4797 54.6872 100.43 94.5273 83.5045 66.4489 291.843 272.077 29.8347 70.9303 242.242
internal_count=235354 54425 41981 36218 20547 180929 72539 16569 10765 13926 58613 15671 10619 10080 15056 10204 43557 12444 108390 17737 11932 26063 25820 21874 17487 82327 76998 8201 20078 68797
is_linear=0
shrinkage=0.05


Tree=13
num_leaves=31
num_cat=0
split_feature=109 54 36 31 32 54 31 8 8 34 25 25 21 61 141 19 25 149 154 125 86 11 84 115 0 8 5 27 106 85
split_gain=494.037 119.645 70.0913 72.9365 58.2457 49.6325 39.7026 30.76 30.6835 19.7795 13.8867 13.3008 9.81268 6.37133 5.04388 5.75873 3.96445 3.6516 3.04026 2.77576 2.76898 2.65294 2.61983 1.38589 0.999645 0.692114 0.562957 0.538158 0.505839 0.45879
threshold=50.500000000000007 1.0000000180025095e-35 22527.385000000006 4897.3700000000017 1.0000000180025095e-35 1.0000000180025095e-35 7370.8050000000012 16571.210000000003 2363.5650000000005 1.0000000180025095e-35 5464.255000000001 23917.640000000003 5086.0700000000006 1485.9050000000004 27995.595000000005 -500.98499999999996 56537.420000000006 153.77500000000001 544.05000000000007 1.0000000180025095e-35 5265.6250000000009 1354.6250000000002 26075.760000000006 -652.49999999999989 46926383.500000007 10267.380000000003 57.500000000000007 4.5000000000000009 26765.210000000003 6.5000000000000009
decision_type=2 2 2 2 2 2 2 2 2 2 2 2 2 2 10 2 2 8 10 8 2 2 2 8 2 2 2 2 2 2
left_child=1 2 3 4 -1 6 9 8 -6 11 14 -2 13 -5 15 -8 19 -3 21 20 -12 23 -18 25 26 -7 29 -28 -24 -20
right_child=5 17 -4 12 7 18 10 -9 -10 -11 16 -13 -14 -15 -16 -17 22 -19 24 -21 -22 -23 28 -25 -26 -27 27 -29 -30 -31
leaf_value=0.078348083366800381 0.042865575365229072 -0.048645779621004151 -0.013089766334639522 0.0033715233919283981 0.02524278942332674 -0.050179920138038792 -0.035477094737492131 0.015064387682132445 0.061863312497178219 -0.024720673680549792 -0.035649551634070541 0.00079355729790167064 -0.011456603323318017 0.030283197692564906 0.0075914589413219324 -0.0025934800301618197 -0.028393657671573976 -0.025180855049565506 -0.048267119760553888 -0.041797876745053267 -0.012273513508455474 -0.019626364023507818 -0.050167201825409215 -0.030916628276721439 -0.034466869038931529 -0.037955160861401507 -0.032942628449447543 -0.046644218632098673 -0.039511192839391363 -0.042734904723939843
leaf_weight=124.12927236082032 39.086062225978822 30.990070800995454 70.320003060624003 43.473094237968326 92.085686813108623 26.700449557276443 27.065203708829358 100.16504829050973 150.98786126170307 31.170433755498379 20.589999140473083 36.170510412193835 46.270559041760862 44.512052175123245 25.919967225985602 26.204603793099523 22.927515339106321 35.656646556919441 184.07290723361075 23.777683788444847 32.927111440338194 21.264064104761928 53.564634375972673 28.527653725584969 19.091419655131176 20.442574655171484 14.504213794134559 14.165838363580404 14.060193973360581 47.056656513828784
leaf_count=3978 3999 7042 5763 3947 4314 7524 5553 5804 6451 4444 4796 5483 7168 4556 4852 4651 5742 5402 55055 5805 7136 5551 16134 7370 5329 5618 4089 4112 3944 13742
internal_value=0 0.0278069 0.0341447 0.0396656 0.0489964 -0.0302085 -0.0167585 0.0383816 0.04799 0.00877217 -0.0277575 0.0226445 0.00718356 0.0169863 -0.0104986 -0.0193009 -0.0359001 -0.0360918 -0.0428583 -0.0275829 -0.0212671 -0.0352303 -0.0429996 -0.0396152 -0.0455096 -0.0448789 -0.0463211 -0.0397126 -0.0479517 -0.0471408
internal_weight=0 738.59 671.944 601.624 467.368 729.29 353.464 343.239 243.074 106.427 247.037 75.2566 134.256 87.9851 79.1898 53.2698 167.847 66.6467 375.826 77.2948 53.5171 96.9347 90.5523 75.6707 278.891 47.143 259.8 28.6701 67.6248 231.13
internal_count=235354 54425 41981 36218 20547 180929 72539 16569 10765 13926 58613 9482 15671 8503 15056 10204 43557 12444 108390 17737 11932 26063 25820 20512 82327 13142 76998 8201 20078 68797
is_linear=0
shrinkage=0.05


Tree=14
num_leaves=31
num_cat=0
split_feature=109 54 36 30 54 32 30 10 150 118 25 25 11 122 25 117 149 11 86 154 55 84 150 115 9 0 5 27 85 85
split_gain=447.602 105.462 59.6395 61.2781 49.0433 42.291 37.3517 26.5779 21.4425 19.5265 27.1668 13.5001 12.2994 6.16261 4.00886 3.92589 3.68502 3.64537 3.62471 3.11022 2.6914 2.42088 1.50759 1.41016 1.3829 1.02547 0.581463 0.548178 0.476245 0.934213
threshold=50.500000000000007 1.0000000180025095e-35 22527.385000000006 1.0000000180025095e-35 1.0000000180025095e-35 1.0000000180025095e-35 4.5000000000000009 -366.00499999999994 786.50000000000011 3717.2800000000002 23917.640000000003 5464.255000000001 107.46500000000002 474054.33500000008 56537.420000000006 2453.0400000000004 153.77500000000001 256.55500000000006 21885.255000000001 544.05000000000007 118981.50000000001 26075.760000000006 3070.5000000000005 -652.49999999999989 416.18500000000006 46926383.500000007 57.500000000000007 4.5000000000000009 6.5000000000000009 9.5000000000000018
decision_type=2 2 2 2 2 2 2 2 10 8 2 2 2 8 2 10 8 2 2 10 2 2 10 10 2 2 2 2 2 2
left_child=1 2 3 5 6 -1 9 -5 -7 10 -2 13 -9 15 18 -8 -3 -14 22 20 23 -16 -13 24 -6 26 28 -28 -21 -30
right_child=4 16 -4 7 19 8 11 12 -10 -11 -12 14 17 -15 21 -17 -18 -19 -20 25 -22 -23 -24 -25 -26 -27 27 -29 29 -31
leaf_value=0.074320934046282372 0.060703713436997778 -0.04855390769239519 -0.012598326203455371 -0.011740912198289185 -0.046757512031069037 0.020299136435306959 -0.0075597188020727337 0.035552022727202197 0.050615519265963471 -0.019877420385481515 -0.0045646555346909824 -0.02479041190079137 0.02140265840894514 0.010344602892034324 -0.028085413346935789 -0.034140997569930435 -0.024537509368592423 -0.00056571266165948654 -0.013390887800191702 -0.048165782268631802 -0.016117965514423477 -0.047084610596557198 -0.042932079916946295 -0.025416864815489222 -0.030113062653348212 -0.033913665971809628 -0.032363678927935402 -0.046468927688828494 -0.035731785014912497 -0.05016501450579175
leaf_weight=117.93259685020894 30.122479721903801 29.53305762540549 69.433004388818517 58.118290151469409 43.881851720856503 101.49680132418871 31.586393944686279 134.22567178634927 137.12621844746172 35.987599291373044 33.869399059563875 19.652278116671368 37.466684200335294 25.569001889787614 22.606147902552038 24.794760993449017 34.784415207337588 38.072756746318191 31.214280383428559 175.45479387324303 16.139684521360323 64.905840379651636 27.443138671340421 16.148760569281876 17.438594151986763 18.449110847432166 14.037436343031006 13.52452792576514 24.248013958567753 20.85303586628288
leaf_count=3218 3265 7042 5763 7827 12665 4306 5641 7482 5123 4725 5700 4435 3448 4919 5676 4797 5402 4814 6960 55055 4189 19878 6543 4387 4822 5329 4089 4112 7368 6374
internal_value=0 0.0256844 0.0313619 0.0362499 -0.0296018 0.0498264 -0.0162085 0.0181795 0.0377206 0.009588 0.0261587 -0.0266178 0.0264693 -0.0100159 -0.0348226 -0.0192494 -0.0355653 0.0103303 -0.0266042 -0.0425331 -0.0346925 -0.0421767 -0.0353618 -0.0385622 -0.0420241 -0.0452865 -0.0461322 -0.0392851 -0.0469878 -0.0424052
internal_weight=0 758.189 693.872 624.439 707.927 356.556 347.751 267.883 238.623 99.9795 63.9919 247.772 209.765 81.9502 165.822 56.3812 64.3175 75.5394 78.3097 360.176 93.6089 87.512 47.0954 77.4692 61.3204 266.567 248.118 27.562 220.556 45.101
internal_count=235354 54425 41981 36218 180929 12647 72539 23571 9429 13690 8965 58849 15744 15357 43492 10438 12444 8262 17938 108390 26063 25554 10978 21874 17487 82327 76998 8201 68797 13742
is_linear=0
shrinkage=0.05


Tree=15
num_leaves=31
num_cat=0
split_feature=109 54 36 25 54 154 31 99 25 36 10 12 59 30 30 83 60 149 84 154 11 115 106 0 154 8 5 85 85 31
split_gain=406.259 93.3809 51.0487 54.3254 48.3867 48.0976 35.3939 35.0736 15.4644 10.4204 10.735 9.6863 6.66958 6.55362 5.27261 4.10264 3.91711 3.71419 3.70381 3.17837 2.69256 1.43801 1.06654 1.051 0.758982 0.738663 0.600146 0.494078 0.960228 0.481216
threshold=50.500000000000007 1.0000000180025095e-35 22527.385000000006 23917.640000000003 1.0000000180025095e-35 544.05000000000007 2329.2250000000004 1.0000000180025095e-35 56537.420000000006 14347.140000000001 -366.00499999999994 7.5000000000000009 31.730000000000004 1.0000000180025095e-35 4.5000000000000009 1.0000000180025095e-35 2.5000000000000004 153.77500000000001 17550.585000000003 544.05000000000007 1354.6250000000002 -652.49999999999989 33940.235000000008 46926383.500000007 4346.5500000000002 10267.380000000003 57.500000000000007 6.5000000000000009 9.5000000000000018 12779.665000000003
decision_type=2 2 2 2 2 10 2 2 2 2 2 2 2 2 2 2 2 8 2 10 2 8 2 2 10 2 2 2 2 2
left_child=1 2 3 5 6 7 -2 -1 9 10 12 -12 16 -5 -7 -9 -8 -3 -10 20 21 25 29 26 -11 -6 27 -21 -29 -20
right_child=4 17 -4 13 19 14 8 15 18 24 11 -13 -14 -15 -16 -17 -18 -19 22 23 -22 -23 -24 -25 -26 -27 -28 28 -30 -31
leaf_value=0.034095102594118985 0.017688750346495249 -0.048458830673674173 -0.012119467560850781 0.013034467528908918 -0.050164290129800185 0.022022830773392985 0.0062733709322066143 0.069931494528282553 -0.021845732466109626 -0.032237437432637288 0.022578446127356499 -0.016268595913863846 -0.038268668111611524 -0.012842740926732227 0.00033420140088494732 0.0554517722658096 -0.022548406353826298 -0.023895323660372669 -0.039633631426024413 -0.048060427545757844 -0.018080853830218711 -0.0296763014185219 -0.032423310793837361 -0.033350821276883089 -0.047257150513973459 -0.037013792436753457 -0.038845688998339949 -0.035204348555026285 -0.05015694056392133 -0.050153193304600913
leaf_weight=238.8999534137547 64.527577832806855 28.146460208110511 68.589549119584262 45.319254106841981 24.380334799876437 51.887780579738319 22.103535638889298 97.21784749859944 22.916478975210339 16.66149365878664 37.725407562451437 27.924122049706057 33.422975256107748 53.176935811527073 60.92482986766845 98.46857887506485 25.261633117683232 33.954667502082884 14.185200921259819 167.25452894205227 20.246484144357964 26.818721076706424 14.082710993010549 17.838064204668626 16.985689863096923 19.000133985187858 26.507708984659985 23.402320343535393 19.839133742498234 46.536075212061405
leaf_count=7845 7065 7042 5763 2781 7524 3307 4219 3735 5645 3734 6586 5245 7509 7358 6798 4394 5130 5402 3631 55055 5551 7370 4112 5329 4352 5618 8201 7368 6374 15311
internal_value=0 0.0237816 0.0288932 0.0332485 -0.0289904 0.0393995 -0.0156698 0.0469508 -0.0234182 -0.0147282 -0.00896288 0.0060548 -0.0211665 -0.000936333 0.0103098 0.0626454 -0.00909837 -0.0350284 -0.0394327 -0.0421971 -0.0341447 -0.0387778 -0.0448205 -0.0450549 -0.0398197 -0.0444045 -0.0459359 -0.0468287 -0.0420646 -0.0476957
internal_weight=0 776.586 714.485 645.895 687.62 547.399 342.333 434.586 277.805 180.085 146.438 65.6495 80.7881 98.4962 112.813 195.686 47.3652 62.1011 97.7205 345.287 90.4457 70.1992 74.804 254.842 33.6472 43.3805 237.004 210.496 43.2415 60.7213
internal_count=235354 54425 41981 36218 180929 26079 72539 15974 65474 36775 28689 11831 16858 10139 10105 8129 9349 12444 28699 108390 26063 20512 23054 82327 8086 13142 76998 68797 13742 18942
is_linear=0
shrinkage=0.05


Tree=16
num_leaves=31
num_cat=0
split_feature=109 54 54 30 154 8 75 150 12 11 25 154 35 118 27 25 111 149 10 154 60 55 84 115 28 0 21 141 5 55
split_gain=369.211 82.9906 47.6756 43.4496 33.4636 28.5721 50.6205 21.8944 20.7821 17.9801 14.5419 9.73794 6.29753 5.69708 5.3158 4.58607 4.11211 3.73895 3.54474 3.24454 2.97071 2.71663 2.68228 1.78718 1.46128 1.07614 0.81027 1.38646 0.619807 0.675909
threshold=50.500000000000007 1.0000000180025095e-35 1.0000000180025095e-35 2.5000000000000004 251.55000000000001 16571.210000000003 1203.3500000000001 293.50000000000006 6.5000000000000009 576.80000000000007 5464.255000000001 544.05000000000007 1.0000000180025095e-35 1.0000000180025095e-35 1.5000000000000002 56537.420000000006 15.500000000000002 153.77500000000001 -366.00499999999994 544.05000000000007 1.5000000000000002 118981.50000000001 26075.760000000006 -836.49999999999989 2340.0050000000006 46926383.500000007 20915.785000000003 3982.6500000000001 61.500000000000007 185223.70000000004
decision_type=2 2 2 2 10 2 2 10 2 2 2 8 2 8 2 2 2 8 2 10 2 2 2 10 2 2 2 8 2 2
left_child=1 3 4 5 9 6 7 -1 -7 -2 12 -5 14 20 -6 16 23 -3 -18 21 -13 24 -17 -12 -4 28 -26 -28 29 -21
right_child=2 17 19 11 10 8 -8 -9 -10 -11 15 13 -14 -15 -16 22 18 -19 -20 25 -22 -23 -24 -25 26 -27 27 -29 -30 -31
leaf_value=0.011922680781978185 0.02957728581981451 -0.048360352369775102 -0.023915468359736684 0.020761395144418167 0.012755932773545984 0.036443274229083354 0.07032772877055124 0.041357104561008468 0.0031319932873433327 -0.015655741813443116 -0.025561985353711181 -0.0055802717667823454 -0.030268682742324911 -0.018905674950995842 -0.017423157310263414 -0.02714501181863024 -0.027426226342349161 -0.023255082480429724 0.0020226122677895115 -0.047296091150471981 0.015041620425804174 -0.01455116617229409 -0.046902417879561981 -0.047556107365699922 -0.048145269395452897 -0.03277877306455973 -0.046912728836160635 -0.026081152604177555 -0.035341425617081514 -0.037627668040135606
leaf_weight=104.73655328247696 53.076054819393903 26.82690560282208 15.230652874102814 60.775828620884567 36.466154502239078 83.014887746423483 107.88796121580526 159.21913510095328 107.39319515880197 37.485975335119292 18.238113064784557 35.542876075720415 22.528194634942338 41.110482689458877 24.324458810966462 23.851086489623412 21.939758421853185 33.165361665422097 19.127019430045038 192.98637365619652 34.333917510230094 15.433911951025946 61.403789987554774 18.71303484798409 24.775320204906166 17.256769410567358 15.389231430366637 16.606530871009454 13.497039589099584 19.944786279462278
leaf_count=4681 6180 7042 4359 5036 6108 3304 2714 6601 6106 6648 4215 3977 5277 5169 4178 6070 5339 5402 4097 66541 4393 4189 19986 4441 7693 5329 4813 5009 4269 6188
internal_value=0 0.0220613 -0.0283738 0.0266826 -0.015139 0.0334064 0.041472 0.0296776 0.0176552 0.0108542 -0.0246851 0.00467311 -0.00768791 -0.00413671 0.000680219 -0.0333588 -0.024599 -0.0344815 -0.0137103 -0.0418499 0.00455228 -0.0335871 -0.041375 -0.0367004 -0.0376676 -0.0448146 -0.041357 -0.0361007 -0.0457319 -0.0463905
internal_weight=0 794.007 668.274 734.015 337.154 562.252 371.844 263.956 190.408 90.562 246.592 171.763 83.3188 110.987 60.7906 163.273 78.0179 59.9923 41.0668 331.121 69.8768 87.4356 85.2549 36.9511 72.0017 243.685 56.7711 31.9958 226.428 212.931
internal_count=235354 54425 180929 41981 72539 23406 13996 11282 9410 12828 59711 18575 15563 13539 10286 44148 18092 12444 9436 108390 8370 26063 26056 8656 21874 82327 17515 9822 76998 72729
is_linear=0
shrinkage=0.05


Tree=17
num_leaves=31
num_cat=0
split_feature=109 21 54 36 134 31 154 8 8 12 25 66 125 9 141 111 25 154 115 125 84 86 11 115 0 8 5 106 85 85
split_gain=335.96 57.3762 46.9063 36.1321 32.3822 32.0212 26.3949 27.1629 32.4394 17.9813 12.5275 9.99098 10.8629 5.81756 4.78301 5.85734 3.91989 3.30819 2.97037 2.90066 2.79974 2.75064 2.71521 1.50631 1.1008 0.785038 0.640487 0.590767 0.535653 1.03254
threshold=50.500000000000007 7967.5550000000012 1.0000000180025095e-35 7618.7250000000013 8.0000000000000018 7370.8050000000012 871.65000000000009 2363.5650000000005 10267.380000000003 7.5000000000000009 5464.255000000001 1.0000000180025095e-35 1.0000000180025095e-35 716.5150000000001 27995.595000000005 9.5000000000000018 56537.420000000006 544.05000000000007 -836.49999999999989 1.0000000180025095e-35 26075.760000000006 5265.6250000000009 1354.6250000000002 -652.49999999999989 46926383.500000007 10267.380000000003 57.500000000000007 26765.210000000003 6.5000000000000009 9.5000000000000018
decision_type=2 2 2 2 8 2 10 2 2 2 2 2 8 2 10 2 2 10 8 8 2 2 2 8 2 2 2 2 2 2
left_child=1 3 5 4 6 9 7 -1 -9 -2 14 12 13 -3 15 -7 19 22 -8 21 -18 -12 23 25 26 -4 28 -22 -19 -30
right_child=2 11 17 -5 -6 10 18 8 -10 -11 16 -13 -14 -15 -16 -17 20 24 -20 -21 27 -23 -24 -25 -26 -27 -28 -29 29 -31
leaf_value=0.012677875671611145 0.023520570938314094 -0.021419628199489865 -0.050150698252037655 -0.0040086842328949561 0.057243397082519853 0.0025668045849064434 0.010512102287688927 0.061740306684229418 0.025712851182452791 -0.018519621541750228 -0.03397326934631701 -0.030921278370666307 0.020290121538029945 0.005935731070117291 0.0087510448268159485 -0.031945455677702864 -0.025961933693422652 -0.04784007071893337 -0.0077705154427677534 -0.040809306208138746 -0.05013860581656842 -0.0095693993021395193 -0.01656649011409245 -0.028307818195413788 -0.032197992451501102 -0.036061792404343339 -0.03790763021781976 -0.037625032499354068 -0.033936754996993231 -0.050142691670044592
leaf_weight=125.58383296756074 67.562757228966802 49.861365721095353 22.348263975000009 81.888042442966253 100.66421253303997 20.817794781643897 44.85918496386148 108.9436552352272 146.50053667463362 40.791516800178215 18.489985440857708 33.186303647002205 43.000834299018607 31.850575978169218 25.411991336382926 30.025915106991306 20.644508255412802 152.22885768907145 44.014575845329091 21.324253835482523 44.433110463665798 30.748677304247394 19.339144465513527 25.154118106467649 16.703790383180603 17.732385103357956 24.503479301929474 11.973339793970807 21.590354195330292 18.042285031173378
leaf_count=6486 7903 7397 7524 6152 2295 4099 4301 4315 5555 6023 4796 4952 5123 3957 4852 6105 5742 55055 3892 5805 16134 7136 5551 7370 5329 5618 8201 3944 7368 6374
internal_value=0 0.020505 -0.0277535 0.0270501 0.0315077 -0.0146185 0.0259945 0.0317176 0.0410781 0.00769394 -0.0254179 -0.00653979 -5.18255e-05 -0.0107568 -0.00896162 -0.0178145 -0.0339191 -0.0414913 0.00145767 -0.0254048 -0.0417163 -0.0187335 -0.0330206 -0.0378985 -0.0445651 -0.0439175 -0.0455199 -0.0474824 -0.0464921 -0.0413143
internal_weight=0 810.353 649.867 652.454 570.566 332.224 469.902 381.028 255.444 108.354 223.87 157.899 124.713 81.7119 76.2557 50.8437 147.614 317.643 88.8738 70.5629 77.051 49.2387 84.5739 65.2348 233.069 40.0806 216.365 56.4065 191.861 39.6326
internal_count=235354 54425 180929 32996 26844 72539 24549 16356 9870 13926 58613 21429 16477 11354 15056 10204 43557 108390 8193 17737 25820 11932 26063 20512 82327 13142 76998 20078 68797 13742
is_linear=0
shrinkage=0.05


Tree=18
num_leaves=31
num_cat=0
split_feature=109 25 54 36 129 154 99 76 31 25 12 0 115 30 7 154 55 11 101 86 84 25 28 0 21 141 7 152 5 85
split_gain=306.003 50.7035 46.0831 35.8521 36.6331 31.9233 32.8514 31.1831 13.875 10.9921 9.26716 7.5883 5.56498 4.91025 4.62996 3.36937 2.72722 2.62493 2.60499 1.78362 3.34745 2.22534 1.51855 1.1249 0.84971 1.44007 0.741532 1.06629 0.659549 0.55584
threshold=50.500000000000007 23917.640000000003 1.0000000180025095e-35 14347.140000000001 371.50000000000006 544.05000000000007 1.0000000180025095e-35 4.5000000000000009 7370.8050000000012 5464.255000000001 7.5000000000000009 30703180.500000004 -652.49999999999989 4.5000000000000009 1436.7750000000003 544.05000000000007 118981.50000000001 345.60500000000008 1.0000000180025095e-35 21885.255000000001 57626.575000000004 56537.420000000006 2340.0050000000006 46926383.500000007 20915.785000000003 3982.6500000000001 1851.5600000000002 10.500000000000002 57.500000000000007 3.5000000000000004
decision_type=2 2 2 2 8 10 2 2 2 2 2 2 8 2 2 10 2 2 2 2 2 2 2 2 2 8 2 10 2 2
left_child=1 3 7 4 -1 6 -6 -2 10 12 -9 14 17 -7 -3 16 22 -10 19 26 -21 -22 -4 28 -24 -26 -11 -28 29 -17
right_child=2 11 15 -5 5 13 -8 8 9 18 -12 -13 -14 -15 -16 23 -18 -19 -20 20 21 -23 24 -25 25 -27 27 -29 -30 -31
leaf_value=0.0036544330000086674 0.02732853297291233 -0.030241950079165233 -0.022322585104111128 -0.0076139170388474439 0.027419902174303942 0.020256182994762333 0.056107464770469101 0.010630139583288942 -0.031634140856778264 -0.048680998943905679 -0.022553447094935702 0.0070459244406984867 0.010580205746390094 -0.0023016278827666836 -0.0069195241954572873 -0.048699040660424936 -0.013019346061138229 -0.007474465105000644 -0.015076432692452022 -0.013190562004027294 -0.024182866640128243 -0.048202899494240725 -0.047950680956612875 -0.031609002213267116 -0.046640448349305391 -0.024687062422509572 -0.046805599258254782 -0.027233534861721788 -0.037431847300039012 -0.043133901995696243
leaf_weight=119.88000651588663 39.875604660483077 41.640084450365975 14.364850026555358 77.468566338298842 216.43145518284291 46.813985757296905 185.17893347400241 50.73304293025285 24.152579775312915 33.405660712625831 35.947812570724636 45.079623574856669 21.366259075934067 49.772750004427508 43.521192976739258 104.65244423644617 14.80082913674414 21.033987395698205 14.246228308184071 17.568933452945203 15.369527427246792 25.877212414052337 22.733448517043144 16.177757014520466 14.247288506710904 15.703504314413292 14.865993973566221 13.083488290430976 23.597273795399815 78.541613409062847
leaf_count=7739 6258 5288 4359 6455 6596 3009 7367 6072 4869 9811 5529 6134 4327 6030 5807 39800 4189 4243 4326 4913 3803 9660 7693 5329 4813 5009 4564 4164 8201 28997
internal_value=0 0.0190892 -0.0271297 0.0244505 0.0284694 0.0344405 0.0406475 -0.0141082 -0.0198524 -0.0270643 -0.00313158 -0.00954228 -0.0104459 0.00863177 -0.0183232 -0.0411213 -0.0324449 -0.020388 -0.0352924 -0.037689 -0.0314675 -0.0392525 -0.0367331 -0.0443063 -0.0406622 -0.0351301 -0.0436531 -0.0376437 -0.0452996 -0.0463131
internal_weight=0 825.787 632.345 695.546 618.077 498.197 401.61 327.526 287.651 200.97 86.6809 130.241 66.5528 96.5867 85.1613 304.819 81.8499 45.1866 134.417 120.171 58.8157 41.2467 67.0491 222.969 52.6842 29.9508 61.3551 27.9495 206.791 183.194
internal_count=235354 54425 180929 37196 30741 23002 13963 72539 66281 54680 11601 17229 13439 9039 11095 108390 26063 9112 41241 36915 18376 13463 21874 82327 17515 9822 18539 8728 76998 68797
is_linear=0
shrinkage=0.05


Tree=19
num_leaves=31
num_cat=0
split_feature=109 21 54 154 30 150 100 11 25 152 66 125 36 25 9 27 139 111 154 84 11 25 85 0 5 85 136 142 105 76
split_gain=278.95 45.7082 45.2073 28.8485 24.5576 26.3287 28.522 15.0034 13.8316 13.7475 9.30757 9.60827 8.99096 6.82815 5.28805 5.19429 4.94584 3.63016 3.42739 2.78303 2.72293 1.59156 2.44256 1.14832 0.6786 0.577103 1.4143 1.39262 0.529898 0.478837
threshold=50.500000000000007 7967.5550000000012 1.0000000180025095e-35 251.55000000000001 2.5000000000000004 293.50000000000006 3.5000000000000004 576.80000000000007 56537.420000000006 2.5000000000000004 1.0000000180025095e-35 1.0000000180025095e-35 22527.385000000006 5464.255000000001 716.5150000000001 1.5000000000000002 12349.85 15.500000000000002 544.05000000000007 26075.760000000006 1354.6250000000002 79822.215000000011 3.5000000000000004 46926383.500000007 57.500000000000007 3.5000000000000004 -1656.9999999999998 2.1750000000000003 1.0000000180025095e-35 6.5000000000000009
decision_type=2 2 2 10 2 10 2 2 2 10 2 8 2 2 2 2 10 2 10 2 2 2 2 2 2 2 10 10 2 2
left_child=1 4 3 7 5 -1 -7 -2 12 -6 11 14 13 15 -3 -5 -11 -15 20 -10 21 22 29 24 25 -20 27 -27 -21 -4
right_child=2 10 18 8 9 6 -8 -9 19 16 -12 -13 -14 17 -16 -17 -18 -19 23 28 -22 -23 -24 -25 -26 26 -28 -29 -30 -31
leaf_value=0.013624346289197837 0.026612694520904364 -0.020865826935898182 -0.046679266199396427 0.013672975976206082 -0.017538015201145195 0.025606009227482074 0.055393182993348167 -0.014719768142921155 -0.025480053839424824 0.026300355215184507 -0.030393476171141888 0.01848384323868409 -0.040833516636289591 -0.033386901780861865 0.0052112186521220578 -0.015181547844975621 0.0029515926744789782 -0.009287083473806957 -0.048621598223750208 -0.050139780799492065 -0.015080453895493673 -0.050152666440270222 -0.014927818630427662 -0.031012356374121749 -0.036944419359163705 -0.045428944499845865 -0.04729022792548021 -0.020484376534582086 -0.039837622330978817 -0.034015078000589442
leaf_weight=197.87773886835203 55.097213770262897 48.938465474406257 14.401423091301696 39.850915793795139 46.583172933664173 220.08561442024074 126.58692373288795 36.500811954028904 22.255447720875964 50.52310140710324 32.326213422231376 44.107168097281829 26.6445340604987 29.702378192916512 32.254058625781909 25.626715854275972 41.155850398819894 32.970609345473349 99.703100126702338 35.019564982969314 18.524109177524224 16.644977210555226 14.195240261498837 15.677367436699567 22.73514767899178 10.636080511147158 52.801045848522335 11.806009660242124 19.394323722925037 15.494664305355398
leaf_count=7732 6180 7397 4872 6771 4158 7163 4986 6648 6070 3878 4952 5123 6965 7447 3957 4618 5079 7854 39800 13192 5551 5557 4801 5329 8201 4124 20307 4566 6794 5282
internal_value=0 0.0177961 -0.0265036 -0.0136091 0.0233985 0.0281765 0.0364827 0.0101422 -0.0230083 0.00458025 -0.00647289 -0.000301586 -0.0144064 -0.00891173 -0.0105066 0.00237986 0.0158188 -0.0207086 -0.0407396 -0.0403756 -0.0318614 -0.0369794 -0.0320064 -0.0440378 -0.0450708 -0.0461269 -0.0428212 -0.0323065 -0.0464679 -0.0401156
internal_weight=0 840.438 615.682 323.063 682.812 544.55 346.673 91.598 231.464 138.262 157.626 125.3 154.795 128.151 81.1925 65.4776 91.679 62.673 292.619 76.6693 79.2604 60.7363 44.0913 213.359 197.681 174.946 75.2431 22.4421 54.4139 29.8961
internal_count=235354 54425 180929 72539 32996 19881 12149 12828 59711 13115 21429 16477 33655 26690 11354 11389 8957 15301 108390 26056 26063 20512 14955 82327 76998 68797 28997 8690 19986 10154
is_linear=0
shrinkage=0.05


Tree=20
num_leaves=31
num_cat=0
split_feature=54 30 36 32 25 8 150 36 10 154 114 58 149 60 118 8 19 142 21 76 88 111 154 148 109 115 108 85 103 77
split_gain=260.469 126.854 32.3912 33.6903 32.3261 28.8966 24.8594 19.6806 22.0598 12.5446 9.06172 8.15042 6.67553 6.11031 5.56656 5.51135 4.81991 3.75557 3.95847 4.49302 2.50286 1.87577 1.65565 3.51358 0.976695 0.845681 1.65273 2.99515 0.817119 0.725302
threshold=1.0000000180025095e-35 2.5000000000000004 7618.7250000000013 1.0000000180025095e-35 38218.110000000008 16571.210000000003 786.50000000000011 22527.385000000006 -366.00499999999994 1632.1500000000003 236072.72500000003 1.0000000180025095e-35 43.230000000000011 1.5000000000000002 1283.2350000000004 10267.380000000003 -51.374999999999993 4.3550000000000013 37007.795000000006 8.5000000000000018 3568.5000000000005 21.500000000000004 544.05000000000007 -8003.3199999999988 98.500000000000014 -836.49999999999989 2983.5000000000005 3.5000000000000004 1.0000000180025095e-35 1461.0150000000001
decision_type=2 2 2 2 2 2 10 2 2 10 10 2 8 2 8 2 2 8 2 2 2 2 10 10 2 10 2 2 2 2
left_child=1 2 3 -1 7 6 -5 8 11 13 -7 15 22 -10 -11 -3 -14 18 19 -6 -20 -18 23 -2 -25 26 28 -28 -24 -9
right_child=12 4 -4 5 17 10 -8 29 9 14 -12 -13 16 -15 -16 -17 21 -19 20 -21 -22 -23 25 24 -26 -27 27 -29 -30 -31
leaf_value=0.047437541940162975 -0.017079166186413537 0.0044806197910629798 -0.0041700200296085109 0.011152863960808794 0.004955586339023009 0.013668925533788409 0.040447200515942902 -0.044561613704432207 0.011594227764594995 0.010845501952399656 -0.012378292750397606 -0.035357761734066483 -0.0016841317378024888 0.036649415566951914 -0.019954184836541572 -0.024477243918571256 -0.025349477085445462 -0.043744465231912451 -0.044751964353679972 -0.03171934575137015 -0.019071409667412022 -0.045044769979995583 -0.047993097293124481 -0.048481598074816196 -0.032492656073595347 -0.048491039996862544 -0.044701244571296907 -0.012597422779114546 -0.035953345949721945 -0.03013644428633469
leaf_weight=163.38232986675575 18.137637391453609 47.380509324837476 89.616727633634582 116.82852579350583 17.195413976442069 71.462881623767316 190.52492855582386 17.437432921957225 44.054932031081989 30.957725065993145 62.676159281283617 33.574321416206658 16.449973220005631 54.358684556093067 27.883432766888291 25.154288987163454 32.066631131572649 46.63407001295127 27.555919950595126 16.236213772092015 14.47010884946212 19.40467963530682 70.119421324692667 29.333092209650204 14.16283994889818 91.676936962641776 18.436060449108485 11.990131084341554 17.637313902610913 17.418556693242863
leaf_count=4637 5931 7275 6137 5188 3952 4784 7032 3731 3919 4116 4068 7561 4250 5518 4434 4626 7280 15249 8332 4874 4637 5742 27531 9179 5001 36739 7454 4722 7005 4450
internal_value=0 0.0107623 0.0238835 0.0280399 -0.0109182 0.0208614 0.0293121 -0.00204595 0.0026269 0.0145138 0.00149842 -0.0149895 -0.039264 0.0254334 -0.00374974 -0.00556166 -0.0252447 -0.0325896 -0.0256957 -0.0128558 -0.0359098 -0.0327746 -0.0427713 -0.0355663 -0.0432754 -0.0448873 -0.0420918 -0.03205 -0.0455734 -0.0373529
internal_weight=0 1114.8 694.492 604.875 420.312 441.492 307.353 298.22 263.364 157.255 134.139 106.109 339.415 98.4136 58.8412 72.5348 67.9213 122.092 75.4577 33.4316 42.026 51.4713 271.493 61.6336 43.4959 209.86 118.183 30.4262 87.7567 34.856
internal_count=235354 114520 31846 25709 82674 21072 12220 45630 37449 17987 8852 19462 120834 9437 8550 11901 17272 37044 21795 8826 12969 13022 103562 20111 14180 83451 46712 12176 34536 8181
is_linear=0
shrinkage=0.05


Tree=21
num_leaves=31
num_cat=0
split_feature=54 30 25 36 25 99 12 36 10 12 100 58 149 84 114 19 142 21 111 88 111 154 148 109 115 108 85 103 77 84
split_gain=242.336 112.038 30.5512 27.9385 29.8974 31.8404 21.1263 18.4409 19.8678 12.2544 9.45434 7.78662 6.72037 6.09541 5.4153 4.62279 3.75832 3.85287 4.52106 2.49958 1.88044 1.69395 3.49592 0.999473 0.87557 1.68398 2.96114 0.840973 0.732788 0.660351
threshold=1.0000000180025095e-35 2.5000000000000004 38218.110000000008 7618.7250000000013 23917.640000000003 1.0000000180025095e-35 6.5000000000000009 22527.385000000006 -366.00499999999994 7.5000000000000009 12.500000000000002 1.0000000180025095e-35 43.230000000000011 9989.4600000000009 265356.00000000006 -51.374999999999993 4.3550000000000013 37007.795000000006 9.5000000000000018 3568.5000000000005 21.500000000000004 544.05000000000007 -8003.3199999999988 98.500000000000014 -836.49999999999989 2983.5000000000005 3.5000000000000004 1.0000000180025095e-35 1461.0150000000001 17550.585000000003
decision_type=2 2 2 2 2 2 2 2 2 2 2 2 8 2 8 2 8 2 2 2 2 10 10 2 10 2 2 2 2 2
left_child=1 3 7 4 5 -1 -7 8 11 10 -10 14 21 -6 -3 -14 17 18 -4 -19 -17 22 -2 -24 25 27 -27 -23 -9 -18
right_child=12 2 16 -5 13 6 -8 28 9 -11 -12 -13 15 -15 -16 20 29 19 -20 -21 -22 24 23 -25 -26 26 -28 -29 -30 -31
leaf_value=0.019208237866960954 -0.0165102523916053 -0.015949286938678909 -0.030028678512033436 -0.0039778263416066278 0.012780741814653865 0.058698730968864167 0.029177118095738933 -0.044290483485641852 0.0076219087241958545 -0.0054281752992921383 0.037813915249310937 -0.034818437826833637 -0.0016026583498061999 -0.012045508981340014 0.012333189646623725 -0.024709120868917581 -0.033324498557904855 -0.044496223416650771 0.0070192227010966645 -0.018473471495282771 -0.044800493997811913 -0.047882284181467866 -0.048388761191919767 -0.031908422232496035 -0.04840413637007334 -0.044449036384975806 -0.012122469312359019 -0.03543258558583022 -0.029520491850870162 -0.047102223558359427
leaf_weight=279.11831427598372 17.832412596559152 45.024159477790818 17.286706992890686 89.258726131403819 51.013858303194866 121.53670088527724 120.87128800502978 16.686007333686575 48.739898267202079 55.366864724317566 55.402678959770128 32.419151516631246 16.422638052841648 47.975883211940527 27.11932488065213 31.273213298525661 11.832235787063835 26.358900539809838 15.726273813284932 14.198575344169511 18.556439218344167 66.850180614041165 27.954702058574185 13.712573843542485 87.358474850188941 17.633949950104583 11.840792405186219 17.017522338079289 16.906043857568875 32.819335519801825
leaf_count=7843 5931 7285 4330 6137 3879 3711 4934 3731 4225 7222 6540 7561 4250 5342 4616 7280 3087 8332 4496 4637 5742 27531 9179 5001 36739 7454 4722 7005 4450 12162
internal_value=0 0.010103 -0.0105044 0.0221777 0.02594 0.0307216 0.0439784 -0.0019639 0.00247479 0.0135788 0.0236837 -0.0144642 -0.0388259 0.000748573 -0.00531767 -0.0246088 -0.032008 -0.0250628 -0.0123803 -0.035386 -0.0321911 -0.0424458 -0.0350364 -0.0429651 -0.0446424 -0.0417431 -0.0314626 -0.0453561 -0.0368571 -0.0434513
internal_weight=0 1125.66 415.886 709.775 620.516 521.526 242.408 297.664 264.072 159.509 104.143 104.563 326.453 98.9897 72.1435 66.2523 118.222 73.5705 33.013 40.5575 49.8297 260.201 59.4997 41.6673 200.701 113.342 29.4747 83.8677 33.5921 44.6516
internal_count=235354 114520 82674 31846 25709 16488 8645 45630 37449 17987 10765 19462 120834 9221 11901 17272 37044 21795 8826 12969 13022 103562 20111 14180 83451 46712 12176 34536 8181 15249
is_linear=0
shrinkage=0.05


Tree=22
num_leaves=31
num_cat=0
split_feature=54 31 118 25 129 12 8 10 19 139 58 149 111 84 10 25 5 19 136 83 5 111 154 148 154 109 115 108 85 103
split_gain=225.524 99.9502 29.113 25.7532 23.1991 29.866 20.343 16.8545 22.362 13.5073 9.80675 6.756 6.21703 6.18399 6.15572 8.13172 5.32746 4.42801 2.87334 3.04327 2.30035 1.88239 1.73119 3.47357 1.41148 1.02186 0.905925 1.7139 2.92372 0.86483
threshold=1.0000000180025095e-35 4897.3700000000017 1.0000000180025095e-35 13292.890000000001 371.50000000000006 6.5000000000000009 16571.210000000003 84.14500000000001 -1.0000000180025095e-35 12349.85 1.0000000180025095e-35 43.230000000000011 21.500000000000004 9989.4600000000009 -366.00499999999994 38218.110000000008 48.500000000000007 -51.374999999999993 -1170.4999999999998 1.5000000000000002 61.500000000000007 21.500000000000004 544.05000000000007 -8003.3199999999988 2650.0500000000006 98.500000000000014 -836.49999999999989 2983.5000000000005 3.5000000000000004 1.0000000180025095e-35
decision_type=2 2 10 2 10 2 2 2 2 10 2 8 2 2 2 2 2 2 10 2 2 2 10 10 10 2 10 2 2 2
left_child=1 2 4 9 7 -6 -7 8 -1 16 12 22 13 -11 18 -16 -3 -13 19 -5 -17 -19 23 -2 -21 -25 27 29 -29 -24
right_child=11 3 -4 14 5 6 -8 -9 -10 10 -12 17 -14 -15 15 20 -18 21 -20 24 -22 -23 26 25 -26 -27 -28 28 -30 -31
leaf_value=0.04063982778303625 -0.015951062354970451 0.029288935343891143 -0.0058010473475352611 -0.010584217251023398 0.052338743596588626 0.035002976933963176 0.0039361079300959346 -0.0010694073664108169 0.0078129896380082116 0.019477406260085532 -0.032820958904215283 -0.0015250006524505941 -0.020668355534740793 -0.010922383783074266 0.0055350464152550873 -0.036871966436620079 0.0032109097596424853 -0.024069481995930612 -0.045208910197707557 -0.047032285710666456 -0.012702608832904017 -0.044547156609308969 -0.047766891614693247 -0.048292351494732072 -0.026213012487104337 -0.031316210407734191 -0.048313665424506144 -0.044187306380036241 -0.01165977770845204 -0.034901037256194402
leaf_weight=94.43014592025429 17.542208258295432 39.402874143561348 96.303684144513682 17.665458896895871 123.86058494215831 121.23920882120728 93.202144667971879 117.23693616548553 115.1316707264632 39.268328136997297 34.418023286387324 16.396666968939826 30.333989636506885 29.145217044744641 27.747794338036329 29.974776983028278 38.937555494485423 30.518521395046264 40.371823317138478 15.874871315900235 14.659367696149273 17.749312523985282 63.739657158497721 26.643101316411048 16.711080136708915 13.284261625027282 83.249692082870752 16.870811999309812 11.698831690941004 16.427918928209692
leaf_count=2609 5931 4277 6400 4780 4184 4780 6414 4255 6454 4841 7832 4250 5595 4889 5350 8908 3850 7280 13837 4959 4207 5742 27531 9179 6099 5001 36739 7454 4722 7005
internal_value=0 0.0094908 0.0198927 -0.011657 0.0236131 0.0327911 0.0215005 0.014112 0.022605 -0.000146488 -0.00983795 -0.038376 -0.00182732 0.00652663 -0.0265923 -0.0157202 0.0163274 -0.0239738 -0.0352759 -0.0272958 -0.0289339 -0.0315996 -0.0421094 -0.0344963 -0.0363555 -0.0426442 -0.0443883 -0.0413831 -0.0308678 -0.0451304
internal_weight=0 1135.92 761.404 374.511 665.101 338.302 214.441 326.799 209.562 211.506 133.166 314.121 98.7475 68.4135 163.005 72.3819 78.3404 64.6645 90.6232 50.2514 44.6341 48.2678 249.456 57.4696 32.586 39.9274 191.987 108.737 28.5696 80.1676
internal_count=235354 114520 35096 79424 28696 15378 11194 13318 9063 31284 23157 120834 15325 9730 48140 18465 8127 17272 29675 15838 13115 13022 103562 20111 11058 14180 83451 46712 12176 34536
is_linear=0
shrinkage=0.05


Tree=23
num_leaves=31
num_cat=0
split_feature=54 30 34 36 134 8 129 25 99 8 58 8 149 10 7 86 19 83 61 154 21 111 21 150 129 27 60 85 154 27
split_gain=209.912 89.1139 38.3334 24.4695 33.8121 21.8408 21.0084 20.1285 13.9419 11.7485 9.51137 7.53789 6.78212 5.48091 7.15095 4.4902 4.23593 3.85325 3.68101 1.98416 1.96541 1.88157 1.77126 3.79944 1.44194 1.87651 3.32287 1.13793 1.09879 1.61653
threshold=1.0000000180025095e-35 4.5000000000000009 520.96000000000015 7618.7250000000013 8.0000000000000018 20241.465000000004 371.50000000000006 5464.255000000001 1.0000000180025095e-35 30467.035000000003 1.0000000180025095e-35 7495.4750000000013 43.230000000000011 -366.00499999999994 3171.5250000000005 2340.2900000000004 -51.374999999999993 1.5000000000000002 3995.6900000000005 2650.0500000000006 37007.795000000006 21.500000000000004 20915.785000000003 786.50000000000011 2855.5000000000005 4.5000000000000009 1.5000000000000002 3.5000000000000004 2100.1500000000005 1.5000000000000002
decision_type=2 2 2 2 8 2 8 2 2 2 2 2 8 2 2 2 2 2 2 10 2 2 2 10 10 2 2 2 10 2
left_child=1 2 3 4 5 6 -1 10 -8 -7 11 -3 22 17 15 -15 -14 19 -13 -9 -16 -18 -2 -24 25 26 -25 -27 -19 -30
right_child=12 7 -4 -5 -6 9 8 13 -10 -11 -12 18 16 14 20 -17 21 28 -20 -21 -22 -23 23 24 -26 27 -28 -29 29 -31
leaf_value=0.0046938727849422518 -0.046720018179012245 0.02017794284328138 -0.015431062535051396 -0.0033984322826125187 0.047321949422539859 0.017109089980451835 0.01992832277369638 -0.0076313670490382041 0.041191523006626617 -0.014323444764851301 -0.022829661582616862 -0.016925530652746577 -0.001450991548999045 -0.018151805830617585 -0.050213366493967938 0.013137510127514421 -0.023431352115657195 -0.050173484216303826 0.0076707095313888075 -0.032986764177350456 -0.022582827842485741 -0.044284477346270425 -0.014768474896886784 -0.042154255163836668 -0.046683714738455305 -0.050112805189866563 -0.0044595376785704303 -0.032971479098956487 -0.047342295394000575 -0.026995807051507493
leaf_weight=102.94264809903689 102.75524078728631 53.697453774977475 79.808644078206271 90.275924380403012 128.95903269248083 54.609902277821675 151.06580715440214 16.437461750116203 157.42916127014905 65.245522133773193 36.376515203388408 32.732746230438352 16.371991955908015 24.831533244578168 13.057649225927891 21.302618590416387 29.800686961039901 21.823245964711532 28.41748508810997 14.541432192549108 12.691483417991547 16.98132018558681 15.555339126382021 12.542911841301249 58.255824379390106 21.677788920467719 10.950791682349516 17.496634588344023 17.808446059934795 21.605962235713378
leaf_count=4990 44330 6236 7025 6470 2961 3474 4645 4363 7068 5875 7199 4591 4250 4652 3704 5592 7280 7156 4651 4483 4505 5742 6377 5168 25550 9795 4763 7579 6530 8350
internal_value=0 0.00892054 0.017514 0.0210172 0.0243556 0.018781 0.0242526 -0.0137084 0.0307792 -1.793e-06 -0.000548829 0.00650834 -0.0379144 -0.0258354 -0.0154855 -0.00370385 -0.0233403 -0.0339031 -0.00549527 -0.0195331 -0.0365946 -0.0310008 -0.0417617 -0.0380287 -0.0410208 -0.0357566 -0.0245841 -0.0424569 -0.0411726 -0.0361889
internal_weight=0 1145.66 830.337 750.528 660.252 531.293 411.438 315.324 308.495 119.855 151.224 114.848 302.389 164.1 71.8833 46.1342 63.154 92.2165 61.1502 30.9789 25.7491 46.782 239.235 136.479 120.924 62.6681 23.4937 39.1744 61.2377 39.4144
internal_count=235354 114520 42508 35483 29013 26052 16703 72012 11713 9349 22677 15478 120834 49335 18453 10244 17272 30882 9242 8846 8209 13022 103562 59232 52855 27305 9931 17374 22036 14880
is_linear=0
shrinkage=0.05


Tree=24
num_leaves=31
num_cat=0
split_feature=54 31 84 25 99 36 10 58 154 21 25 149 58 21 100 9 19 142 25 86 135 111 154 148 84 109 115 108 85 30
split_gain=195.407 79.8123 24.2167 23.472 22.1159 11.9804 14.4819 10.5377 9.88333 9.51176 8.99737 6.79843 6.67834 5.88904 5.07781 4.96688 4.04691 3.68054 4.3791 4.45874 3.34342 1.87797 1.83771 3.59089 1.18951 1.08778 0.973653 1.8154 2.98602 0.938674
threshold=1.0000000180025095e-35 4897.3700000000017 9989.4600000000009 38218.110000000008 1.0000000180025095e-35 22527.385000000006 -366.00499999999994 1.0000000180025095e-35 2100.1500000000005 840.27500000000009 -1.0000000180025095e-35 43.230000000000011 1.0000000180025095e-35 840.27500000000009 12.500000000000002 549.67000000000007 -51.374999999999993 4.3550000000000013 159167.17000000001 21885.255000000001 186732.00000000003 21.500000000000004 544.05000000000007 -8003.3199999999988 46186.335000000006 98.500000000000014 -836.49999999999989 2983.5000000000005 3.5000000000000004 4.5000000000000009
decision_type=2 2 2 2 2 2 2 2 10 2 2 8 2 2 2 2 2 8 2 2 10 2 10 10 2 2 10 2 2 2
left_child=1 2 4 5 10 6 12 15 14 -6 -1 22 13 -3 -8 -4 -13 18 19 -5 -15 -18 23 -2 -20 -25 27 29 -29 -24
right_child=11 3 7 17 9 -7 8 -9 -10 -11 -12 16 -14 20 -16 -17 21 -19 24 -21 -22 -23 26 25 -26 -27 -28 28 -30 -31
leaf_value=0.020418739338066129 -0.013952473817076047 0.013598788352588662 -0.00033411021036058169 -0.026304446076962942 0.040879933595536599 -0.033154111345695528 0.0089505503096968392 -0.016223167319540818 -0.0059971828502295337 0.021688425488173624 0.0037951356305391485 -0.001380470690402017 -0.0333499231969865 -0.029991022639658877 0.033756451150590595 0.019558972779410159 -0.022795519278016659 -0.043545893787619173 -0.028287310384327375 0.0085373962562804943 -0.0031547350413236746 -0.044012182156058385 -0.030651932514754933 -0.048105246802232993 -0.050132056936458239 -0.029898531350456892 -0.048131768949459308 -0.043640510744835624 -0.0096777404193024007 -0.046948224510833712
leaf_weight=201.36881150025874 16.577650222461671 26.518878921167925 62.970127691980451 25.092628419399261 156.52009094227105 29.275011473568156 38.502927996683866 57.794146537780762 49.459905212046579 109.8921602065675 136.62059614248574 16.348548491019756 29.628520893631503 22.140583150321618 44.444007280049846 62.541682085953653 29.117930387379602 37.879070085007697 11.392298302147539 14.481564668356439 24.392825759714469 16.250576883670874 10.269936463213524 24.399502378073521 13.757439133943988 12.359414008911697 76.002072148723528 15.468715693568813 11.127233963226898 63.30638084106613
leaf_count=4495 5931 3277 4072 7270 4467 7805 3499 5674 7371 6013 6320 4250 7534 4063 5189 4055 7280 14766 3103 5108 4695 5742 4499 9179 5744 5001 36739 7454 4722 30037
internal_value=0 0.00839035 0.0173627 -0.0108692 0.0221907 -0.00299123 0.000764899 0.00144353 0.0116933 0.0329636 0.0136992 -0.0374411 -0.0133273 -0.0052065 0.0222419 0.00957848 -0.0227093 -0.0311671 -0.0239225 -0.0135546 -0.0159234 -0.0303951 -0.0414026 -0.0332712 -0.0402368 -0.0419836 -0.0438644 -0.0406267 -0.0294311 -0.0446736
internal_weight=0 1154.67 787.708 366.966 604.402 264.363 235.088 183.306 132.407 266.412 337.989 291.228 102.681 73.0523 82.9469 125.512 61.7171 102.603 64.7239 39.5742 46.5334 45.3685 229.511 53.3366 25.1497 36.7589 176.174 100.172 26.5959 73.5763
internal_count=235354 114520 35096 79424 21295 43433 35628 13801 16059 10480 10815 120834 19569 12035 8688 8127 17272 35991 21225 12378 8758 13022 103562 20111 8847 14180 83451 46712 12176 34536
is_linear=0
shrinkage=0.05


Tree=25
num_leaves=31
num_cat=0
split_feature=54 30 34 36 25 129 99 30 58 12 28 21 7 149 115 106 118 111 21 139 109 21 150 129 27 60 75 85 61 103
split_gain=181.934 72.2978 40.0446 29.6058 30.2946 25.2684 30.1866 22.4738 16.2174 13.3624 13.355 8.92331 7.13391 6.80483 5.02604 4.74318 4.4109 3.97782 3.94044 2.23312 1.99812 1.89146 3.90757 1.534 1.96621 3.36747 1.48834 1.20717 0.845897 0.584036
threshold=1.0000000180025095e-35 6.5000000000000009 2026.4150000000002 22527.385000000006 38218.110000000008 371.50000000000006 1.0000000180025095e-35 1.0000000180025095e-35 1.0000000180025095e-35 7.5000000000000009 1099.6300000000003 37007.795000000006 461.30500000000006 43.230000000000011 -744.49999999999989 26765.210000000003 7414.1450000000013 21.500000000000004 2687.5300000000002 12349.85 36.500000000000007 20915.785000000003 786.50000000000011 2855.5000000000005 4.5000000000000009 1.5000000000000002 1.0000000180025095e-35 3.5000000000000004 3995.6900000000005 1.0000000180025095e-35
decision_type=2 2 2 2 2 8 2 2 2 2 2 2 2 8 8 2 10 2 2 10 2 2 10 10 2 2 2 2 2 2
left_child=1 2 3 4 5 -1 -7 -8 9 10 12 -6 -3 21 -9 19 -4 20 -11 -10 -15 -2 -23 24 25 -24 -20 -26 -21 -25
right_child=13 8 16 -5 11 6 7 14 15 18 -12 -13 -14 17 -16 -17 -18 -19 26 28 -22 22 23 29 27 -27 -28 -29 -30 -31
leaf_value=0.0025639365750157123 -0.046396553069373264 0.036476884190206296 -0.0091929194158024037 -0.012089716220500153 0.0093409119532781269 0.016762878029218324 0.052841849502484078 0.034464294221200446 -0.020064704420210747 -0.0085068275235918624 -0.02502530924428184 -0.020257459615331704 0.003451613945179453 -0.02388429011437421 0.014533841038859694 -0.0053043871076311946 -0.034018033812764858 -0.038908667429291305 -0.044880561581491625 -0.033244693466209965 -0.00099645544811656798 -0.012854622335091524 -0.041447924031069484 -0.048940625300981117 -0.05010296079617952 -0.0022626968985643321 -0.024627623295234574 -0.031728551420330681 -0.045541671204081167 -0.035760494647296047
leaf_weight=112.31270515266806 94.108879780513234 28.17734976101201 35.824782059062272 77.557535892818123 52.301521017798223 274.30376430018805 154.89285748871043 62.881604261463508 14.887273584259672 22.677325297845528 25.779385449714027 49.625652987509966 38.964260653709061 18.822228593053296 63.65241952217184 13.37701201578602 35.747504853177816 22.200746008544229 18.727726023411378 20.664854669594206 19.327144701499492 14.759110420127397 11.535518177668566 42.867680883035064 19.763070991961285 10.449215672677381 17.592751017073169 16.320835252059624 43.263554991572164 10.454938833718186
leaf_count=5130 44330 4111 3697 6609 5344 7888 3832 4010 3488 4048 6683 7420 6512 2734 4065 4693 4479 7832 5348 6672 6706 6377 5168 20582 9795 4763 5242 7579 15249 4968
internal_value=0 0.0078979 0.0143221 0.0173549 0.0203208 0.0241948 0.0285664 0.0400712 -0.0162896 -0.00625016 0.00556574 -0.00506975 0.0173113 -0.0369564 0.0244384 -0.0328329 -0.0215921 -0.0220814 -0.0248601 -0.0375052 -0.0122889 -0.041032 -0.0370301 -0.0402333 -0.0346106 -0.0228234 -0.0350705 -0.0417922 -0.0415667 -0.0463564
internal_weight=0 1163.21 919.1 847.528 769.971 668.043 555.731 281.427 244.111 151.919 92.921 101.927 67.1416 280.609 126.534 92.1927 71.5723 60.3501 58.9978 78.8157 38.1494 220.259 126.15 111.391 58.0686 21.9847 36.3205 36.0839 63.9284 53.3226
internal_count=235354 114520 52474 44298 37689 24925 19795 11907 62046 31944 17306 12764 10623 120834 8075 30102 8176 17272 14638 25409 9440 103562 59232 52855 27305 9931 10590 17374 21921 25550
is_linear=0
shrinkage=0.05


Tree=26
num_leaves=31
num_cat=0
split_feature=54 97 30 154 59 76 109 150 8 25 114 149 10 129 139 117 19 5 5 76 154 148 87 85 21 10 109 115 108 85
split_gain=169.36 67.9362 88.272 53.8536 25.9661 15.3156 15.0768 10.8148 12.7028 10.1553 7.3822 6.80193 6.36761 6.71042 6.18103 4.99785 3.94646 3.71505 2.59639 2.35567 1.94439 3.69498 1.85685 1.52225 1.85964 1.84499 1.15469 1.04391 1.91655 3.03341
threshold=1.0000000180025095e-35 1.0000000180025095e-35 1.0000000180025095e-35 251.55000000000001 31.730000000000004 6.5000000000000009 50.500000000000007 293.50000000000006 10267.380000000003 5464.255000000001 138996.00000000003 43.230000000000011 -366.00499999999994 3345.5000000000005 20460.285000000003 533.1400000000001 -51.374999999999993 48.500000000000007 65.500000000000014 14.500000000000002 544.05000000000007 -8003.3199999999988 1.0000000180025095e-35 4.5000000000000009 7967.5550000000012 -567.71499999999992 98.500000000000014 -836.49999999999989 2983.5000000000005 3.5000000000000004
decision_type=2 2 2 10 2 2 2 10 2 2 10 8 2 8 10 10 2 2 2 2 10 10 2 2 2 2 2 10 2 2
left_child=1 3 -3 4 7 -4 12 -1 -9 15 -10 20 -5 -14 -7 -8 -13 -6 19 23 21 -2 -18 24 -11 -25 -23 28 -22 -30
right_child=11 2 5 6 17 14 9 8 10 18 -12 16 13 -15 -16 -17 22 -19 -20 -21 27 26 -24 25 -26 -27 -28 -29 29 -31
leaf_value=0.0066618101130376754 -0.011943667378262041 0.1107533587513073 0.038582051543137486 -0.018189163908746784 -0.022580480867273989 0.010173826897597948 0.0059845795359415466 0.02969529601082558 0.019818084801343283 -0.026981203889073491 0.00034924708698631438 -0.00023216976532171296 0.011401539180917611 -0.01065518364984557 -0.032373898023726123 -0.021774785441143446 -0.017137924384461059 -0.0026213239726070045 -0.015310117688158176 -0.015488521355680943 -0.044185048945170176 -0.047905535394729325 -0.038168448276030158 -0.042141848687505742 -0.048887687023937212 -0.015155261365301764 -0.028422337663739323 -0.047936177636666993 -0.04305355783307431 -0.0077185892208569392
